svm_type c_svc
kernel_type rbf
gamma 0.125
nr_class 2
total_sv 265
rho -1.99395
label 1 0
nr_sv 123 142
SV
362.039 0:0.36616595 1:0.21976478 2:0.068587593 3:0.074447969 4:0.042486153 5:0.51337011 6:0.5736898 7:0.43807928 8:0.5812031 9:0.32947604 10:0.36362748 11:0.75487075 12:0.31747756 13:0.024018436 14:0.05097745 15:0.05979591 16:0.037423341 17:0.0075901882 18:0.004835279 19:0.0079974953 20:0.0045822382 21:0.0090900681 22:0.0037669544 23:0.0078858575 24:0.0054719999 25:0.17692632 26:0.063278062 27:0.10132311 28:0.080310602 29:0.55445788 30:0.27801303 31:0.20248026 32:0.44814366 33:0.14394909 34:0.16818318 35:0.12339822 36:0.15159786 
362.039 0:0.23054317 1:0.091290026 2:0.10923739 3:0.042096887 4:0.030818995 5:0.5293345 6:0.61630132 7:0.35217623 8:0.53028117 9:0.3906482 10:0.3896009 11:0.5152741 12:0.1444402 13:0.022478919 14:0.076719859 15:0.086206901 16:0.049169814 17:0.0027763871 18:0.0072313488 19:0.012167062 20:0.003580783 21:0.0047580053 22:0.0085136189 23:0.016910446 24:0.0070878475 25:0.080187669 26:0.036104854 27:0.15247069 28:0.041990166 29:0.086246082 30:0.088446325 31:0.11189795 32:0.093300403 33:0.090795042 34:0.14234754 35:0.10238537 36:0.15948172 
362.039 0:0.27722414 1:0.020323595 2:0.21394147 3:0.13047841 4:0.047806589 5:0.53865442 6:0.55759211 7:0.69422656 8:0.5812031 9:0.47915668 10:0.36362748 11:0.46735477 12:0.24895242 13:0.02792278 14:0.10984705 15:0.12432134 16:0.062721495 17:0.0022560483 18:0.0074372707 19:0.014167224 20:0.0036984776 21:0.0026145074 22:0.011585076 23:0.021800564 24:0.0067602434 25:0.062427797 26:0.050562302 27:0.21626534 28:0.058642421 29:0.24707312 30:0.15380377 31:0.14500375 32:0.14936381 33:0.13804309 34:0.28211471 35:0.19694321 36:0.17644915 
362.039 0:0.25278921 1:0.024145746 2:0.30740996 3:0.083225608 4:0.10176789 5:0.51068048 6:0.57274287 7:0.37716621 8:0.50547726 9:0.4221901 10:0.28570732 11:0.41943544 12:0.31495862 13:0.019050715 14:0.14146023 15:0.15079492 16:0.073458061 17:0.0027803897 18:0.007728706 19:0.013285101 20:0.0048607121 21:0.0043819777 22:0.014616341 23:0.023322654 24:0.0091920525 25:0.101532 26:0.069820948 27:0.26998818 28:0.070348818 29:0.15045799 30:0.18404287 31:0.2005742 32:0.18166172 33:0.17544779 34:0.22152127 35:0.26748637 36:0.20695625 
362.039 0:0.33251379 1:0.03598117 2:0.1715802 3:0.050606147 4:0.040104469 5:0.56777337 6:0.52918443 7:0.583724 8:0.63212502 9:0.48049482 10:0.35064081 11:0.37151611 12:0.26141908 13:0.01754294 14:0.13595691 15:0.1389663 16:0.076506716 17:0.0023814633 18:0.0088418533 19:0.014249282 20:0.0049673729 21:0.0043805694 22:0.015316996 23:0.021967886 24:0.0097325161 25:0.1026607 26:0.059615195 27:0.2656005 28:0.069775562 29:0.12875674 30:0.20009245 31:0.18313453 32:0.1732257 33:0.38068148 34:0.32041181 35:0.21945698 36:0.35435011 
362.039 0:0.081363476 1:0.056702309 2:0.20343482 3:0.062914348 4:0.074114471 5:0.50512616 6:0.52729058 7:0.25534006 8:0.45554092 9:0.48049482 10:0.40258756 11:0.61111276 12:0.33895188 13:0.04458766 14:0.11141757 15:0.11749954 16:0.071697037 17:0.0034194725 18:0.0031946531 19:0.0070384436 20:0.0015447709 21:0.0047749054 22:0.0072427793 23:0.013369698 24:0.0065972729 25:0.27739856 26:0.084392707 27:0.28760467 28:0.11521839 29:0.086840636 30:0.12851565 31:0.16333017 32:0.12179006 33:0.09276371 34:0.066238598 35:0.033343131 36:0.061276274 
362.039 0:0.10787808 1:0.039149359 2:0.23916813 3:0.19039079 4:0.22220643 5:0.51550742 6:0.4988829 7:0.20536011 8:0.4777166 9:0.50916927 10:0.3896009 11:0.56319343 12:0.28822898 13:0.033382512 14:0.11140132 15:0.12338256 16:0.073035163 17:0.0037983859 18:0.0047956495 19:0.0081616111 20:0.0039433245 21:0.006670535 22:0.0089310519 23:0.015728398 24:0.0072901749 25:0.17800392 26:0.087077843 27:0.28431572 28:0.077503592 29:0.11210921 30:0.11634489 31:0.13997876 32:0.12439318 33:0.075045694 34:0.10654058 35:0.078370676 36:0.073273449 
362.039 0:0.13960911 1:0.0084071585 2:0.45691557 3:0.15242254 4:0.1785685 5:0.46107501 6:0.46858137 7:0.23191196 8:0.41447485 9:0.44990874 10:0.37661415 11:0.65903209 12:0.33503951 13:0.03782648 14:0.094338802 15:0.11255531 16:0.061496983 17:0.0040919103 18:0.0037137203 19:0.0076743923 20:0.002628192 21:0.0057072284 22:0.0063191462 23:0.012014931 24:0.0050290969 25:0.25325892 26:0.076839324 27:0.29018746 28:0.099651539 29:0.072274047 30:0.1307444 31:0.16007871 32:0.12694809 33:0.07406136 34:0.13443017 35:0.10238537 36:0.059562392 
362.039 0:0.11544653 1:0.037950505 2:0.21300062 3:0.10324885 4:0.064725597 5:0.59977111 6:0.61630132 7:0.27720629 8:0.53028117 9:0.59901588 10:0.22077382 11:0.46735477 12:0.2882628 13:0.030017793 14:0.11729548 15:0.12425876 16:0.070005444 17:0.0040865735 18:0.0053156753 19:0.010715663 20:0.0036196643 21:0.0046425212 22:0.009987702 23:0.01859446 24:0.0065191135 25:0.067563591 26:0.062457899 27:0.25643789 28:0.069775275 29:0.18523943 30:0.15863276 31:0.17899631 32:0.18117967 33:0.058804179 34:0.12896462 35:0.17442944 36:0.099838621 
362.039 0:0.087232151 1:0.051555028 2:0.25077846 3:0.13438902 4:0.077574661 5:0.51231695 6:0.51516331 7:0.24572209 8:0.45676659 9:0.53774204 10:0.53247115 11:0.58621703 12:0.23688952 13:0.023014283 14:0.1081064 15:0.11933034 16:0.061707757 17:0.0023344931 18:0.0063614913 19:0.011174753 20:0.0020156758 21:0.0030145432 22:0.010440348 23:0.018751159 24:0.0050770571 25:0.054363295 26:0.05764737 27:0.27716035 28:0.063502116 29:0.030502219 30:0.11712278 31:0.11905447 32:0.097351474 33:0.072713192 34:0.12747882 35:0.119147 36:0.078665885 
213.4431555143471 0:0.15344053 1:0.038842208 2:0.20716931 3:0.24731874 4:0.37335305 5:0.39489985 6:0.41197172 7:0.34568453 8:0.36513144 9:0.3849731 10:0.61039264 11:0.55451921 12:0.33383365 13:0.023208788 14:0.066823081 15:0.071338665 16:0.04596084 17:0.0069415818 18:0.0088850678 19:0.0084404124 20:0.0066753303 21:0.01029484 22:0.0094286908 23:0.012483403 24:0.0099033618 25:0.12512903 26:0.045476044 27:0.12229922 28:0.053137321 29:0.60473469 30:0.25936352 31:0.18724561 32:0.30887989 33:0.2960499 34:0.23887324 35:0.119147 36:0.26675502 
362.039 0:0.06209623 1:0.0094500984 2:0.42321348 3:0.30128218 4:0.0950553 5:0.71348794 6:0.74447796 7:0.23930558 8:0.63435409 9:0.74440997 10:0.36364135 11:0.3960301 12:0.23272575 13:0.011288417 14:0.13879809 15:0.13817639 16:0.074576027 17:0.013693731 18:0.013322118 19:0.01655843 20:0.012561948 21:0.015146343 22:0.01994336 23:0.026473929 24:0.01675751 25:0.21048039 26:0.067950641 27:0.23924435 28:0.091797884 29:0.10825062 30:0.16566128 31:0.18583232 32:0.15433911 33:0.10993598 34:0.17955551 35:0.19522621 36:0.15836935 
362.039 0:0.14875556 1:0.072314145 2:0.16486485 3:0.058702478 4:0.014548394 5:0.62457676 6:0.64292433 7:0.32575958 8:0.61162289 9:0.58899568 10:0.41558896 11:0.30093663 12:0.19097644 13:0.050119927 14:0.13088172 15:0.13127348 16:0.095395109 17:0.010429455 18:0.024324468 19:0.014938605 20:0.028533276 21:0.015863056 22:0.030165615 23:0.022398023 24:0.035076107 25:0.12168419 26:0.045400786 27:0.23114936 28:0.057020857 29:0.29413895 30:0.17722375 31:0.15085345 32:0.21544668 33:0.10360018 34:0.15994069 35:0.15779041 36:0.13327241 
362.039 0:0.063896547 1:0.037100383 2:0.24159482 3:0.17938528 4:0.051539033 5:0.62531866 6:0.64292433 7:0.28253258 8:0.56758119 9:0.64190267 10:0.41558896 11:0.36433227 12:0.17295813 13:0.041256062 14:0.1074712 15:0.11757722 16:0.070183466 17:0.0054427423 18:0.014063585 19:0.016270356 20:0.0081829083 21:0.0088115233 22:0.018013597 23:0.026912299 24:0.012835927 25:0.062748913 26:0.038521499 27:0.17086229 28:0.047125147 29:0.15149613 30:0.16065847 31:0.1596865 32:0.16537362 33:0.071129243 34:0.13853998 35:0.119147 36:0.083492219 
46.98790940835899 0:0.074280412 1:0.085067091 2:0.15396146 3:0.24152031 4:0.33848385 5:0.37150421 6:0.3611949 7:0.23930558 8:0.32322079 9:0.38232775 10:0.70130103 11:0.55451921 12:0.22567101 13:0.029474624 14:0.054892539 15:0.061148652 16:0.040899726 17:0.01598499 18:0.011471024 19:0.011245591 20:0.012983838 21:0.019080355 22:0.010974956 23:0.015262855 24:0.015745504 25:0.1235349 26:0.033149477 27:0.12224789 28:0.042221999 29:0.46384164 30:0.19918006 31:0.16321972 32:0.31714857 33:0.17091798 34:0.16599326 35:0.098617691 36:0.15588723 
362.039 0:0.092513387 1:0.12921495 2:0.14066503 3:0.22291851 4:0.12835523 5:0.39351645 6:0.41333936 7:0.33589149 8:0.37044405 9:0.37985461 10:0.63634806 11:0.66977129 12:0.37220782 13:0.0247904 14:0.065798079 15:0.073595419 16:0.047245593 17:0.0039862411 18:0.0029675053 19:0.0088655692 20:0.001323097 21:0.0067171344 22:0.0029998975 23:0.011294675 24:0.0040801482 25:0.10320848 26:0.054303941 27:0.17984926 28:0.067240475 29:0.17791756 30:0.18275575 31:0.14745853 32:0.17733309 33:0.075259704 34:0.082716036 35:0.088096341 36:0.073238653 
362.039 0:0.17059139 1:0.12106433 2:0.22971727 3:0.39669962 4:0.066526458 5:0.52461084 6:0.49093712 7:0.27050462 8:0.4728648 9:0.52543964 10:0.44154765 11:0.47832335 12:0.17548753 13:0.014209452 14:0.094740626 15:0.10216991 16:0.055030341 17:0.0071434966 18:0.011706449 19:0.016269243 20:0.0085405096 21:0.0084051961 22:0.014460621 23:0.021961439 24:0.012281526 25:0.047549641 26:0.039750337 27:0.16659472 28:0.038584726 29:0.091411935 30:0.085912915 31:0.11845844 32:0.093039014 33:0.17906925 34:0.22339578 35:0.25342078 36:0.21643194 
362.039 0:0.090415729 1:0.023038566 2:0.28967293 3:0.84358225 4:0.27446084 5:0.5215979 6:0.49262402 7:0.31363213 8:0.46115957 9:0.53991301 10:0.6493348 11:0.47832335 12:0.14938252 13:0.0062577087 14:0.086670893 15:0.094394106 16:0.045383884 17:0.0039350078 18:0.012220858 19:0.014632188 20:0.006524779 21:0.0034332026 22:0.01419439 23:0.019384602 24:0.0092709963 25:0.06481721 26:0.033366729 27:0.17155021 28:0.034760804 29:0.054904976 30:0.08099306 31:0.1091863 32:0.074635879 33:0.10669093 34:0.16363451 35:0.18219057 36:0.14935402 
362.039 0:0.18757316 1:0.047814016 2:0.26171006 3:0.17224886 4:0.10042307 5:0.42317304 6:0.4181002 7:0.28663601 8:0.44258283 9:0.35931491 10:0.42856098 11:0.37891379 12:0.26188927 13:0.02022362 14:0.10106675 15:0.12197729 16:0.063374121 17:0.0079521787 18:0.011608773 19:0.013174338 20:0.0078826955 21:0.009674849 22:0.015482878 23:0.023112267 24:0.011662492 25:0.080872341 26:0.047402222 27:0.17154759 28:0.045496091 29:0.1688357 30:0.25609887 31:0.1934695 32:0.20955787 33:0.093748517 34:0.14890222 35:0.1756365 36:0.12713795 
362.039 0:0.15885296 1:0.048202128 2:0.077529897 3:0.059268153 4:0.17996924 5:0.49410633 6:0.46410041 7:0.30086233 8:0.50155807 9:0.45072829 10:0.16882707 11:0.58135775 12:0.32995629 13:0.028826564 14:0.10314717 15:0.11706452 16:0.063859158 17:0.0043592116 18:0.0051596444 19:0.0086007687 20:0.0029827448 21:0.0030238277 22:0.0090529533 23:0.016783546 24:0.0056211252 25:0.12729348 26:0.060306595 27:0.24508581 28:0.073409899 29:0.14631333 30:0.13675581 31:0.17427436 32:0.14184351 33:0.07749645 34:0.078166886 35:0.11523223 36:0.083453796 
362.039 0:0.10891312 1:0.013624927 2:0.18872042 3:0.25283498 4:0.097496087 5:0.46079069 6:0.4181002 7:0.19060836 8:0.41702274 9:0.47249338 10:0.16882707 11:0.48013577 12:0.28524052 13:0.024708691 14:0.10787821 15:0.12761405 16:0.064839662 17:0.0047054883 18:0.0099702533 19:0.012093506 20:0.0037300378 21:0.0027581297 22:0.014513722 23:0.018497119 24:0.0062384748 25:0.11587152 26:0.055764755 27:0.22474642 28:0.070019777 29:0.084261917 30:0.15480749 31:0.17313179 32:0.15320998 33:0.11050846 34:0.14122158 35:0.15240409 36:0.13244372 
362.039 0:0.079059994 1:0.03432943 2:0.25509539 3:0.26719205 4:0.033081776 5:0.47608222 6:0.48566302 7:0.19179389 8:0.42425438 9:0.49570948 10:0.36362748 11:0.48013577 12:0.14503894 13:0.018990881 14:0.058862395 15:0.075900704 16:0.051874063 17:0.0069493614 18:0.013714337 19:0.01916417 20:0.0090216354 21:0.0065978946 22:0.013190431 23:0.022006383 24:0.012297271 25:0.070958389 26:0.028182429 27:0.078513597 28:0.040275658 29:0.36004599 30:0.12274771 31:0.18592855 32:0.16655161 33:0.053118349 34:0.12105989 35:0.12762285 36:0.10122812 
362.039 0:0.17767081 1:0.050291065 2:0.24076273 3:0.297719 4:0.101316 5:0.5727766 6:0.59778855 7:0.43008472 8:0.56015925 9:0.54069066 10:0.24674724 11:0.58135775 12:0.12794275 13:0.022662869 14:0.03910061 15:0.046010393 16:0.026777337 17:0.012755729 18:0.01006396 19:0.009851978 20:0.011587523 21:0.014900243 22:0.0073363558 23:0.010285111 24:0.012474942 25:0.13510702 26:0.037316125 27:0.089621355 28:0.054977619 29:0.15688506 30:0.096582618 31:0.075327941 32:0.069731621 33:0.14123503 34:0.13700475 35:0.10284161 36:0.14553128 
362.039 0:0.073898816 1:0.016103346 2:0.24746769 3:0.4372004 4:0.091988909 5:0.57965807 6:0.57622595 7:0.24632811 8:0.52026057 9:0.58567185 10:0.24674724 11:0.83441269 12:0.18418297 13:0.0173516 14:0.044264847 15:0.048389207 16:0.032097091 17:0.006931355 18:0.0071029505 19:0.00934617 20:0.0061791949 21:0.0079535258 22:0.0048293175 23:0.012338113 24:0.0054440168 25:0.074760621 26:0.032131441 27:0.128448 28:0.036529226 29:0.099889681 30:0.054599764 31:0.093609034 32:0.067681929 33:0.11330179 34:0.10354922 35:0.12762285 36:0.092385171 
362.039 0:0.065889094 1:0.01301105 2:0.29624319 3:0.30571985 4:0.092389193 5:0.47650537 6:0.48473531 7:0.23453218 8:0.44750979 9:0.48708717 10:0.33766755 11:0.43842947 12:0.12259276 13:0.017696796 14:0.056374675 15:0.067106106 16:0.033296935 17:0.0060727706 18:0.013710714 19:0.020637798 20:0.0077144212 21:0.0054355777 22:0.012861009 23:0.019490455 24:0.0087835455 25:0.066112213 26:0.021473711 27:0.077467307 28:0.03058768 29:0.11577527 30:0.1127277 31:0.14862179 32:0.11580715 33:0.095698587 34:0.16583885 35:0.18059334 36:0.13049843 
362.039 0:0.076992559 1:0.0089964499 2:0.38178108 3:0.3117338 4:0.40469118 5:0.5115254 6:0.51698191 7:0.23453218 8:0.46536257 9:0.50924848 10:0.32468064 11:0.5383743 12:0.27731448 13:0.023141536 14:0.1139343 15:0.13003809 16:0.067500894 17:0.002319635 18:0.0054071526 19:0.010871711 20:0.0019672365 21:0.0046806696 22:0.010300506 23:0.017561662 24:0.0067702947 25:0.068109083 26:0.061095017 27:0.25486321 28:0.064943291 29:0.095150349 30:0.11970551 31:0.13586145 32:0.12645381 33:0.083713032 34:0.15370581 35:0.23365165 36:0.11797718 
362.039 0:0.10794242 1:0.048396551 2:0.42213752 3:0.19757971 4:0.025002794 5:0.48216223 6:0.48122911 7:0.3129956 8:0.44499169 9:0.48293936 10:0.58441883 11:0.47976825 12:0.20545746 13:0.028874792 14:0.10648116 15:0.10947637 16:0.072914528 17:0.0048876533 18:0.0064000056 19:0.0096937626 20:0.0045039054 21:0.0060600507 22:0.0098270511 23:0.015221634 24:0.0069297554 25:0.14555338 26:0.060066206 27:0.26367529 28:0.080336143 29:0.070414233 30:0.14976491 31:0.14012346 32:0.13528159 33:0.088177803 34:0.11550311 35:0.12206172 36:0.10965116 
362.039 0:0.12214262 1:0.026690927 2:0.32187732 3:0.063885921 4:0.083185727 5:0.54095381 6:0.57543184 7:0.35184057 8:0.51716668 9:0.53048305 10:0.55844503 11:0.38323828 12:0.22573385 13:0.050160813 14:0.1417554 15:0.090010446 16:0.087010284 17:0.014640032 18:0.01522977 19:0.022501708 20:0.013581207 21:0.017575511 22:0.020928499 23:0.030232139 24:0.017964583 25:0.1352114 26:0.087162268 27:0.14626155 28:0.055071653 29:0.16328013 30:0.17815438 31:0.19577924 32:0.17412539 33:0.23709154 34:0.20012078 35:0.25701513 36:0.22216995 
362.039 0:0.16141931 1:0.012073883 2:0.48204746 3:0.14128519 4:0.22744054 5:0.60437466 6:0.6256733 7:0.48261866 8:0.57300017 9:0.62873999 10:0.58441883 11:0.52803323 12:0.17867853 13:0.026070882 14:0.061931982 15:0.077785843 16:0.040278336 17:0.010898362 18:0.0086354501 19:0.015153611 20:0.0087416805 21:0.011427972 22:0.0097702603 23:0.018807105 24:0.010018494 25:0.19340107 26:0.048105063 27:0.13056466 28:0.063882214 29:0.054512538 30:0.1081474 31:0.13911154 32:0.099470212 33:0.1724686 34:0.20321909 35:0.18632525 36:0.14462982 
362.039 0:0.14369965 1:0.0088593745 2:0.42498809 3:0.25934347 4:0.33573855 5:0.56288626 6:0.57857193 7:0.47096517 8:0.52942281 9:0.53048305 10:0.64935342 11:0.3349733 12:0.17462454 13:0.038431781 14:0.11217746 15:0.10207932 16:0.07956584 17:0.0095250236 18:0.016583009 19:0.019801915 20:0.013464725 21:0.0078798882 22:0.020754191 23:0.026843075 24:0.015361236 25:0.12143079 26:0.041035046 27:0.14098958 28:0.058720461 29:0.19079838 30:0.16520331 31:0.17048116 32:0.21014306 33:0.25675939 34:0.32587565 35:0.22488337 36:0.27060195 
213.5803557353104 0:0.28006553 1:0.030806902 2:0.15765719 3:0.12788318 4:0.32685641 5:0.52015722 6:0.52833048 7:0.51498948 8:0.52942281 9:0.4322261 10:0.59740574 11:0.38323828 12:0.29655458 13:0.032468536 14:0.093914712 15:0.082691257 16:0.055850417 17:0.01607817 18:0.013190898 19:0.018363633 20:0.013430563 21:0.01850015 22:0.01623676 23:0.02474946 24:0.016407982 25:0.071558131 26:0.046246696 27:0.15175824 28:0.046454332 29:0.5252027 30:0.27885253 31:0.23220848 32:0.36751922 33:0.48153484 34:0.49610036 35:0.52692195 36:0.53159663 
362.039 0:0.12019441 1:0.035167848 2:0.31018593 3:0.087451093 4:0.093941444 5:0.56002818 6:0.57857193 7:0.27156096 8:0.52942281 9:0.57802673 10:0.55844503 11:0.47976825 12:0.23415417 13:0.027216141 14:0.10372471 15:0.094837995 16:0.069812676 17:0.0081537751 18:0.0094459637 19:0.011324887 20:0.0075579353 21:0.0065376354 22:0.012856452 23:0.016400076 24:0.0094790271 25:0.16493402 26:0.058853637 27:0.1814636 28:0.10715456 29:0.17104016 30:0.11465998 31:0.099646524 32:0.13559102 33:0.086772956 34:0.13086447 35:0.12420384 36:0.074183275 
362.039 0:0.085240464 1:0.008482796 2:0.66859489 3:0.14246382 4:0.11356741 5:0.58994202 6:0.57857193 7:0.21070383 8:0.52942281 9:0.59545941 10:0.62337954 11:0.23844333 12:0.15232589 13:0.024925623 14:0.13849991 15:0.089932582 16:0.11096129 17:0.0097215135 18:0.019619 19:0.027274556 20:0.016209648 21:0.009587417 22:0.025332289 23:0.031740712 24:0.021382066 25:0.08558004 26:0.043405899 27:0.14312091 28:0.064789205 29:0.30944851 30:0.13745156 31:0.13139562 32:0.18922558 33:0.12751351 34:0.18167673 35:0.22059913 36:0.16468752 
362.039 0:0.082274632 1:0.050927872 2:0.30535917 3:0.1591195 4:0.14764954 5:0.59145664 6:0.6256733 7:0.43212019 8:0.52942281 9:0.62873999 10:0.59740574 11:0.62456319 12:0.16429281 13:0.045856219 14:0.050183692 15:0.03885399 16:0.051924022 17:0.010181383 18:0.0069887436 19:0.014530891 20:0.0077386252 21:0.012108366 22:0.0074227113 23:0.019596912 24:0.0083863595 25:0.098857078 26:0.053445243 27:0.15570681 28:0.063326287 29:0.16951359 30:0.067838681 31:0.10698297 32:0.090434852 33:0.12610866 34:0.12339208 35:0.12206172 36:0.10793891 
362.039 0:0.25952766 1:0.30768215 2:0.014436095 3:0 4:0.019416587 5:0.52695356 6:0.59398672 7:0.46205855 8:0.50787697 9:0.46266051 10:0.22149752 11:0.54343139 12:0.30269193 13:0.025728904 14:0.10692471 15:0.11111636 16:0.065523932 17:0.0030610236 18:0.0065214987 19:0.011217408 20:0.0031253129 21:0.0047906052 22:0.010496285 23:0.017750409 24:0.0068878276 25:0.097476548 26:0.056823788 27:0.2725213 28:0.061016621 29:0.36809846 30:0.22230932 31:0.15769667 32:0.27392974 33:0.099734275 34:0.095527972 35:0.08626836 36:0.089743427 
362.039 0:0.11909654 1:0.049143635 2:0.078068397 3:0.32202542 4:0.13785528 5:0.57006285 6:0.56452232 7:0.45484461 8:0.53343316 9:0.60746245 10:0.14285366 11:0.44353539 12:0.23266132 13:0.027367246 14:0.12171303 15:0.12183798 16:0.085133032 17:0.0022774845 18:0.010165097 19:0.015827448 20:0.0053066839 21:0.0037283241 22:0.015527156 23:0.02104466 24:0.0082059982 25:0.062778347 26:0.071725844 27:0.19802498 28:0.050154278 29:0.19875171 30:0.15393297 31:0.1231235 32:0.28012498 33:0.13550309 34:0.1865175 35:0.15305263 36:0.12787354 
362.039 0:0.22444571 1:0.12546431 2:0.077536709 3:0.032319605 4:0.093099486 5:0.46184897 6:0.47797064 7:0.38915977 8:0.45836184 9:0.37827016 10:0.28570732 11:0.49348339 12:0.39963431 13:0.034478344 14:0.10993782 15:0.087542543 16:0.06313951 17:0.0060336752 18:0.0088582013 19:0.0088140403 20:0.0068287317 21:0.011527575 22:0.013138041 23:0.018222792 24:0.010582535 25:0.28670764 26:0.072765701 27:0.18370186 28:0.14906171 29:0.54431353 30:0.27978178 31:0.13123326 32:0.27806556 33:0.22529013 34:0.27184596 35:0.2198369 36:0.28547802 
362.039 0:0.218093 1:0.032883025 2:0.29702108 3:0.12933199 4:0.02968431 5:0.55818292 6:0.56544308 7:0.47268962 8:0.53582906 9:0.54705086 10:0.20778716 11:0.34363939 12:0.1249111 13:0.028203845 14:0.095068192 15:0.12417475 16:0.066244804 17:0.007909372 18:0.015938369 19:0.017376421 20:0.015180788 21:0.0064853895 22:0.018974247 23:0.025507439 24:0.016316098 25:0.095750868 26:0.036597486 27:0.18431763 28:0.046754319 29:0.17363945 30:0.10813496 31:0.10220887 32:0.12169401 33:0.52093038 34:0.40882173 35:0.32669174 36:0.48629663 
362.039 0:0.079017498 1:0.0064590569 2:0.44974462 3:0.18374827 4:0.15363983 5:0.49372267 6:0.47981217 7:0.18223357 8:0.43280564 9:0.52028387 10:0.27272065 11:0.74322339 12:0.36278128 13:0.026582933 14:0.081485948 15:0.091872429 16:0.054738581 17:0.008179613 18:0.001327751 19:0.0089185345 20:0.0025761918 21:0.0069638214 22:0.0029312473 23:0.012492038 24:0.0054253924 25:0.3143665 26:0.12553974 27:0.23078299 28:0.2010947 29:0.22000054 30:0.16336587 31:0.17306252 32:0.17014215 33:0.22602011 34:0.21638895 35:0.22428919 36:0.17235868 
362.039 0:0.15339963 1:0.01890479 2:0.22780429 3:0.24497325 4:0.10595294 5:0.55490327 6:0.56636384 7:0.30069407 8:0.53343316 9:0.4924016 10:0.27272065 11:0.34363939 12:0.25386961 13:0.030382491 14:0.13219291 15:0.14548053 16:0.08194456 17:0.01197578 18:0.014639377 19:0.01987199 20:0.012173846 21:0.010106876 22:0.021011123 23:0.030939845 24:0.014768126 25:0.1310297 26:0.08234827 27:0.1891781 28:0.065067973 29:0.10238074 30:0.21871961 31:0.24050153 32:0.18486453 33:0.46764214 34:0.37245648 35:0.29107346 36:0.50663269 
362.039 0:0.055133206 1:0.026741222 2:0.32900098 3:0.12854844 4:0.084394962 5:0.5331493 6:0.55930323 7:0.20928581 8:0.46105264 9:0.55756879 10:0.46753664 11:0.71342764 12:0.39060481 13:0.017425885 14:0.065531074 15:0.068773733 16:0.04603068 17:0.0037459364 18:0.0057255674 19:0.0091177579 20:0.0028942749 21:0.0040815483 22:0.0066545024 23:0.012519223 24:0.0042128533 25:0.12848778 26:0.038527357 27:0.15768741 28:0.054128246 29:0.23427179 30:0.15880561 31:0.18389234 32:0.17036574 33:0.073992311 34:0.088553785 35:0.096086004 36:0.074559943 
362.039 0:0.084073885 1:0.012957128 2:0.33735834 3:0.074584295 4:0.037739855 5:0.61673549 6:0.62623805 7:0.23955778 8:0.57435642 9:0.6087862 10:0.50649735 11:0.64343057 12:0.36958588 13:0.022604152 14:0.092975464 15:0.1141169 16:0.059472055 17:0.0021367353 18:0.0033703676 19:0.007304648 20:0.0015475764 21:0.0046007244 22:0.0061547161 23:0.014667322 24:0.0041919943 25:0.11806407 26:0.063995064 27:0.26311872 28:0.069269238 29:0.066114309 30:0.12352003 31:0.15708996 32:0.11843335 33:0.060441577 34:0.098226389 35:0.09730143 36:0.060264769 
362.039 0:0.10817194 1:0.027695148 2:0.27896256 3:0.21413974 4:0.16370969 5:0.64100364 6:0.66078505 7:0.26448764 8:0.58278397 9:0.6266578 10:0.45454974 11:0.57343349 12:0.29932223 13:0.015636336 14:0.10011628 15:0.10791099 16:0.055373521 17:0.0037131317 18:0.005168865 19:0.011564775 20:0.0031987397 21:0.0038965132 22:0.0084671505 23:0.016712146 24:0.0056118166 25:0.10899653 26:0.058585365 27:0.2228148 28:0.062117984 29:0.10693864 30:0.11899584 31:0.1366691 32:0.11966141 33:0.093122758 34:0.12173193 35:0.13497962 36:0.097737556 
362.039 0:0.075431931 1:0.01216784 2:0.81137144 3:0.11352964 4:0.090148579 5:0.55761378 6:0.55930323 7:0.20750511 8:0.50731055 9:0.55756879 10:0.55844503 11:0.53843496 12:0.19596454 13:0.041273836 14:0.084874683 15:0.074278974 16:0.056186161 17:0.0050465964 18:0.0078296873 19:0.014015199 20:0.004903324 21:0.0058744125 22:0.010115034 23:0.017035738 24:0.0078168543 25:0.14858383 26:0.050339169 27:0.17875294 28:0.057538025 29:0.12028809 30:0.094209408 31:0.11241933 32:0.10005407 33:0.17203585 34:0.15915531 35:0.17144238 36:0.16574372 
362.039 0:0.33549858 1:0.16701994 2:0.05967431 3:0.085305554 4:0.091733633 5:0.39022088 6:0.39416043 7:0.36302751 8:0.45247486 9:0.25215675 10:0.37661415 11:0.56043332 12:0.30106433 13:0.01516355 14:0.11922484 15:0.12207083 16:0.074882 17:0.0032478132 18:0.0062004535 19:0.008846239 20:0.0027161295 21:0.0050743098 22:0.011945579 23:0.020630221 24:0.0069216296 25:0.097397932 26:0.066577826 27:0.27531109 28:0.071565695 29:0.10858 30:0.13634944 31:0.14344838 32:0.14046879 33:0.22279384 34:0.26318682 35:0.1682437 36:0.20234068 
362.039 0:0.2242285 1:0.15351668 2:0.068267894 3:0.02935014 4:0.026442773 5:0.38331652 6:0.42282959 7:0.34371845 8:0.42677954 9:0.29652894 10:0.31168073 11:0.48037142 12:0.21953128 13:0.01425934 14:0.10232364 15:0.097281648 16:0.06115448 17:0.00076559536 18:0.0080044606 19:0.011624984 20:0.0031753889 21:0.0058853727 22:0.011983653 23:0.017084606 24:0.007932227 25:0.042714822 26:0.046626134 27:0.19242605 28:0.048554817 29:0.23695484 30:0.12501931 31:0.1121342 32:0.14600845 33:0.090380944 34:0.16799997 35:0.17482752 36:0.10034654 
257.696582368202 0:0.47881318 1:0.026561449 2:0.2804266 3:0.17531121 4:0.29801598 5:0.40809918 6:0.4841054 7:0.5461734 8:0.47215909 9:0.20056332 10:0.55844503 11:0.41604484 12:0.21230404 13:0.031421306 14:0.087600805 15:0.087936246 16:0.059119129 17:0.008483444 18:0.0084832391 19:0.014580693 20:0.0063763626 21:0.012030107 22:0.010676481 23:0.019070755 24:0.010262006 25:0.25834903 26:0.087617561 27:0.19727169 28:0.10113523 29:0.29067735 30:0.17019172 31:0.15079088 32:0.2519871 33:0.31956547 34:0.29648933 35:0.20536307 36:0.3096792 
362.039 0:0.17532357 1:0.0091518671 2:0.42915018 3:0.16323143 4:0.27654506 5:0.41573301 6:0.43031996 7:0.43456445 8:0.38562854 9:0.47201594 10:0.46753664 11:0.46036947 12:0.19398124 13:0.026805379 14:0.11598748 15:0.11913043 16:0.067493399 17:0.0043123065 18:0.011986561 19:0.016048997 20:0.006384559 21:0.0046098812 22:0.016644707 23:0.023383206 24:0.0080904043 25:0.061459778 26:0.042473399 27:0.16859436 28:0.054442641 29:0.12846517 30:0.12030206 31:0.12328817 32:0.13068207 33:0.16703013 34:0.1596676 35:0.10226612 36:0.20457408 
11.76141663771528 0:0.067090814 1:0.035818149 2:0.21220292 3:0.3249403 4:0.22215555 5:0.39996015 6:0.40082472 7:0.25570397 8:0.36155047 9:0.41947672 10:0.55844503 11:0.41604484 12:0.13623188 13:0.0092550702 14:0.10791271 15:0.12215337 16:0.061862983 17:0.0020718658 18:0.009386949 19:0.015314845 20:0.0042954644 21:0.0018007396 22:0.013230089 23:0.022207083 24:0.0067545107 25:0.048138804 26:0.042425977 27:0.19877889 28:0.043156 29:0.072609928 30:0.085310103 31:0.11317427 32:0.083224955 33:0.12132362 34:0.13983555 35:0.12865894 36:0.13695268 
362.039 0:0.11701726 1:0.04957916 2:0.25339767 3:0.21520735 4:0.35080491 5:0.62518975 6:0.64546172 7:0.41167031 8:0.57373844 9:0.63839013 10:0.44156284 11:0.5046941 12:0.15012843 13:0.044437242 14:0.088956111 15:0.096040301 16:0.070957272 17:0.009262089 18:0.0086041265 19:0.011493492 20:0.0085985266 21:0.010776354 22:0.01091176 23:0.019694 24:0.011946326 25:0.23200755 26:0.061760962 27:0.18685682 28:0.091943041 29:0.082912435 30:0.062995008 31:0.096850075 32:0.066817525 33:0.11618501 34:0.12800801 35:0.12783417 36:0.093441415 
362.039 0:0.11187722 1:0.020012429 2:0.25447265 3:0.29606778 4:0.23481349 5:0.6371649 6:0.64546172 7:0.30006137 8:0.59676309 9:0.62875794 10:0.45454974 11:0.59334336 12:0.13571488 13:0.050276471 14:0.080616643 15:0.083819901 16:0.06543713 17:0.011464577 18:0.0070801729 19:0.0073709477 20:0.0092923201 21:0.0098583334 22:0.008628528 23:0.010888156 24:0.0094319759 25:0.43461039 26:0.089217927 27:0.19727169 28:0.15436076 29:0.086529125 30:0.045014672 31:0.053555485 32:0.052030581 33:0.099146491 34:0.13433024 35:0.15175266 36:0.093158874 
362.039 0:0.3774203 1:0.0065595869 2:0.3185222 3:0.3314162 4:0.48510511 5:0.52803463 6:0.53789084 7:0.47892186 8:0.59300089 9:0.44592146 10:0.48052354 11:0.68199262 12:0.21485991 13:0.035531602 14:0.062576344 15:0.057706834 16:0.050608639 17:0.0054227326 18:0.0052574195 19:0.0066367961 20:0.0024725089 21:0.0069678815 22:0.0052679475 23:0.010737371 24:0.0035784083 25:0.22651925 26:0.06676613 27:0.23492453 28:0.085480318 29:0.52783905 30:0.17366325 31:0.095075707 32:0.24909337 33:0.095901058 34:0.40771886 35:0.46186827 36:0.26871081 
44.8452553883247 0:0.29967571 1:0.0093792875 2:0.43826426 3:0.34252663 4:0.3908448 5:0.37167569 6:0.40082472 7:0.47892186 8:0.44507126 9:0.30914437 10:0.63636644 11:0.32739557 12:0.1419505 13:0.044192582 14:0.0815467 15:0.085878073 16:0.056803394 17:0.012267708 18:0.013447982 19:0.012961795 20:0.010430161 21:0.011923879 22:0.01552118 23:0.020950542 24:0.013092262 25:0.16394647 26:0.058983327 27:0.11035287 28:0.095462132 29:0.10883553 30:0.10680107 31:0.11778762 32:0.11977272 33:0.11402139 34:0.36565956 35:0.396711 36:0.2915966 
132.3330714597608 0:0.42128926 1:0.018286036 2:0.34112293 3:0.33870357 4:0.33592134 5:0.33515894 6:0.31927905 7:0.45602771 8:0.4097066 9:0.28112345 10:0.70130103 11:0.28307094 12:0.1900024 13:0.036069855 14:0.10985409 15:0.12305382 16:0.081264564 17:0.012044888 18:0.017516718 19:0.012740608 20:0.013600686 21:0.0079724578 22:0.022088786 23:0.020553475 24:0.01272164 25:0.37157736 26:0.073815225 27:0.21156954 28:0.13855214 29:0.30263358 30:0.21284069 31:0.20615117 32:0.24987468 33:0.33687444 34:0.4955793 35:0.5146539 36:0.42288383 
362.039 0:0.23760911 1:0.071893466 2:0.076406526 3:0.11519431 4:0.040039714 5:0.49918133 6:0.51790611 7:0.47145581 8:0.50051766 9:0.44142282 10:0.23376057 11:0.48133379 12:0.24646879 13:0.038254185 14:0.12059727 15:0.13691005 16:0.077340682 17:0.0022918121 18:0.0075869142 19:0.011817825 20:0.0029266855 21:0.0024595789 22:0.012637624 23:0.020640771 24:0.0063718406 25:0.069960677 26:0.065228939 27:0.27569243 28:0.06377189 29:0.075201067 30:0.13582636 31:0.13664308 32:0.11805589 33:0.093548395 34:0.12925917 35:0.17803973 36:0.10481229 
362.039 0:0.072479919 1:0.013096717 2:0.24254235 3:0.53042876 4:0.11451276 5:0.46208861 6:0.48624055 7:0.26743308 8:0.41983807 9:0.46439617 10:0.28570732 11:0.48133379 12:0.24842952 13:0.018032941 14:0.11098841 15:0.13513809 16:0.067992029 17:0.003296855 18:0.0087611943 19:0.014595635 20:0.0046908541 21:0.0045247313 22:0.013109921 23:0.021691283 24:0.0074130222 25:0.11656658 26:0.072626252 27:0.21876449 28:0.10384718 29:0.10174727 30:0.13231956 31:0.15705819 32:0.13833495 33:0.093548395 34:0.17816361 35:0.15426588 36:0.09802551 
362.039 0:0.11100544 1:0.0056925211 2:0.53295549 3:0.19297403 4:0.19585714 5:0.48693549 6:0.50306288 7:0.42085817 8:0.44558687 9:0.49436141 10:0.31168073 11:0.40153899 12:0.25002679 13:0.022863571 14:0.1181609 15:0.11957804 16:0.067612275 17:0.0042331771 18:0.0085486846 19:0.013109734 20:0.0053094971 21:0.0044234551 22:0.013438022 23:0.021560497 24:0.0087358383 25:0.094173156 26:0.053160198 27:0.2230946 28:0.059531114 29:0.11087253 30:0.15644454 31:0.12942561 32:0.12185611 33:0.12559738 34:0.11325735 35:0.11200126 36:0.10858272 
362.039 0:0.096820802 1:0.037027021 2:0.18861148 3:0.20544945 4:0.1740933 5:0.48335582 6:0.51790611 7:0.29232385 8:0.44730346 9:0.48537183 10:0.3246674 11:0.44143639 12:0.2146691 13:0.030095474 14:0.10771799 15:0.13248015 16:0.064914904 17:0.0081803328 18:0.011539562 19:0.012593796 20:0.0094031971 21:0.0058633375 22:0.0157089 23:0.018792881 24:0.010204238 25:0.1799014 26:0.050112512 27:0.21188147 28:0.075042452 29:0.21042079 30:0.13901537 31:0.12571377 32:0.13830132 33:0.13512546 34:0.13985427 35:0.13445434 36:0.13753962 
362.039 0:0.23884329 1:0.0058964915 2:0.70959269 3:0.02821609 4:0.031088574 5:0.63309429 6:0.67227571 7:0.41473749 8:0.63441143 9:0.56108401 10:0.35064081 11:0.36164159 12:0.21326131 13:0.042172051 14:0.090156994 15:0.091060506 16:0.066110012 17:0.011820392 18:0.012666298 19:0.011041854 20:0.012517555 21:0.015615568 22:0.015527189 23:0.021560497 24:0.015515867 25:0.17416142 26:0.048462758 27:0.14232217 28:0.068634247 29:0.37343107 30:0.20967769 31:0.17066827 32:0.23996563 33:0.20008962 34:0.27511846 35:0.25860666 36:0.29092073 
362.039 0:0.14330351 1:0.0044824177 2:0.63473236 3:0.15017278 4:0.065137154 5:0.61864144 6:0.64258925 7:0.36699617 8:0.58119724 9:0.58825249 10:0.37661415 11:0.68082079 12:0.31888513 13:0.022428253 14:0.066303056 15:0.066806759 16:0.041627041 17:0.0086968132 18:0.0059597508 19:0.0075664949 20:0.0065429774 21:0.010131246 22:0.0068371577 23:0.008507137 24:0.0080850457 25:0.21632014 26:0.069122672 27:0.19237088 28:0.085260876 29:0.38836331 30:0.11543673 31:0.097668761 32:0.16137168 33:0.13382618 34:0.097371863 35:0.1146428 36:0.098176328 
362.039 0:0.1528298 1:0.018796066 2:0.3872833 3:0.1551527 4:0.11901245 5:0.59910203 6:0.61191324 7:0.36862835 8:0.58119724 9:0.56667752 10:0.36362748 11:0.52123119 12:0.15947533 13:0.016263582 14:0.063591382 15:0.077217043 16:0.03988464 17:0.0072558222 18:0.010504092 19:0.013113861 20:0.0081384252 21:0.0077226352 22:0.011288839 23:0.016809985 24:0.0089784774 25:0.097803532 26:0.033593771 27:0.13023521 28:0.039135821 29:0.21042079 30:0.0988977 31:0.10674215 32:0.10601625 33:0.10913979 34:0.20267576 35:0.25728589 36:0.14251659 
159.1055169470159 0:0.081930788 1:0.017939402 2:0.30773915 3:0.17769671 4:0.10035786 5:0.46584377 6:0.4872301 7:0.29354798 8:0.41983807 9:0.49256349 10:0.41557423 11:1 12:0.19185033 13:0.0083997649 14:0.019113646 15:0.026937587 16:0.015083345 17:0.0037295818 18:0.0030641372 19:0.0047267717 20:0.0034873968 21:0.004660133 22:0.00027727269 23:0.0050813684 24:0.0018058934 25:0.14825394 26:0.032440877 27:0.11042478 28:0.050756976 29:0.30934687 30:0.07983831 31:0.058075807 32:0.15134986 33:0.097446244 34:0.044802484 35:0.032755096 36:0.066203078 
362.039 0:0.076431641 1:0.014238347 2:0.51989724 3:0.11212091 4:0.050746327 5:0.49035895 6:0.45853319 7:0.19072053 8:0.44575853 9:0.52133012 10:0.40258756 11:0.64092339 12:0.12618327 13:0.013595501 14:0.044059526 15:0.024335016 16:0.025247352 17:0.010207599 18:0.010288438 19:0.011504134 20:0.007907544 21:0.01050883 22:0.0095811286 23:0.013721731 24:0.008533928 25:0.1553337 26:0.094832358 27:0.045670603 28:0.047641516 29:0.36637973 30:0.11032451 31:0.052714261 32:0.16113627 33:0.12603048 34:0.086425475 35:0.072378178 36:0.12532343 
0.09455171539618729 0:0.15699499 1:0.016534669 2:0.4898279 3:0.1128262 4:0.036883454 5:0.38301984 6:0.39775289 7:0.30097806 8:0.4008437 9:0.36826047 10:0.41558896 11:0.41557133 12:0.3936722 13:0.051514447 14:0.11286444 15:0.10779067 16:0.076087382 17:0.0066292686 18:0.01522536 19:0.02008121 20:0.0099761758 21:0.007901098 22:0.019668971 23:0.02425235 24:0.013509622 25:0.037878708 26:0.062990091 27:0.15133336 28:0.042316617 29:0.16980141 30:0.23397128 31:0.27491847 32:0.24187903 33:0.10304315 34:0.24026043 35:0.2689566 36:0.16979643 
362.039 0:0.14382459 1:0.054311522 2:0.12692107 3:0.13615448 4:0.039059261 5:0.52440808 6:0.48824092 7:0.23619163 8:0.51980294 9:0.51401805 10:0.36362748 11:0.52522216 12:0.22358392 13:0.020734498 14:0.088023974 15:0.08640903 16:0.053489733 17:0.0034857484 18:0.0091296101 19:0.013814583 20:0.0052860355 21:0.0027950924 22:0.011488321 23:0.01772805 24:0.0062001078 25:0.087186539 26:0.055420956 27:0.15996796 28:0.059503825 29:0.13422897 30:0.14957156 31:0.17371291 32:0.15214486 33:0.088116914 34:0.10271003 35:0.13044479 36:0.090108953 
362.039 0:0.19809915 1:0.0054606571 2:0.19109393 3:0.32181579 4:0.20426425 5:0.60037996 6:0.60218682 7:0.29554259 8:0.5382978 9:0.56675051 10:0.18181374 11:0.48911024 12:0.15622953 13:0.014322788 14:0.08151419 15:0.087112739 16:0.047016146 17:0.0087298119 18:0.012321535 19:0.017276452 20:0.0085955705 21:0.0079463331 22:0.014197383 23:0.021590385 24:0.010735319 25:0.055801493 26:0.030925293 27:0.1401162 28:0.031366789 29:0.05779927 30:0.08312425 31:0.11465375 32:0.079529725 33:0.067314369 34:0.19624769 35:0.20198314 36:0.1016687 
362.039 0:0.12083708 1:0.0059940246 2:0.37484102 3:0.18630233 4:0.071855989 5:0.56700981 6:0.5608731 7:0.21091252 8:0.55598352 9:0.55060792 10:0.25973391 11:0.59744599 12:0.22968379 13:0.01689767 14:0.083502888 15:0.09736679 16:0.049292294 17:0.0047743779 18:0.0055111855 19:0.010475363 20:0.0033457117 21:0.0036583126 22:0.0074745132 23:0.015854677 24:0.0054092397 25:0.079433236 26:0.050002812 27:0.2052488 28:0.052049142 29:0.085168383 30:0.084182936 31:0.12160188 32:0.095511665 33:0.095641239 34:0.089891791 35:0.11964655 36:0.093731006 
362.039 0:0.15530711 1:0.0032868573 2:0.61207074 3:0.2702547 4:0.1652752 5:0.57582039 6:0.54088259 7:0.27905621 8:0.55124421 9:0.53648316 10:0.36362748 11:0.48911024 12:0.17626517 13:0.021129654 14:0.092392436 15:0.11621615 16:0.053961185 17:0.0056729191 18:0.010800076 19:0.013201337 20:0.0062260002 21:0.0054398744 22:0.013522039 23:0.020466362 24:0.0078203231 25:0.08487988 26:0.041029418 27:0.15887566 28:0.053837142 29:0.036544533 30:0.092648486 31:0.11827257 32:0.085761974 33:0.1292794 34:0.212957 35:0.245851 36:0.1645537 
362.039 0:0.099915605 1:0.015328672 2:0.32290567 3:0.32881808 4:0.20393547 5:0.47316424 6:0.47824566 7:0.38127175 8:0.43021843 9:0.47258541 10:0.44154765 11:0.45299833 12:0.27222087 13:0.014386522 14:0.11086833 15:0.11626641 16:0.062259747 17:0.0034548707 18:0.010845436 19:0.017889697 20:0.0062624801 21:0.0034263872 22:0.015031513 23:0.024950498 24:0.0085031223 25:0.097873813 26:0.048159219 27:0.17837437 28:0.064426871 29:0.25098444 30:0.15415746 31:0.15228949 32:0.15922696 33:0.040757928 34:0.13531656 35:0.1506915 36:0.074618896 
164.6934608814356 0:0.11430276 1:0.014666157 2:0.42671558 3:0.13883954 4:0.10317876 5:0.41670085 6:0.40561348 7:0.24388527 8:0.39380666 9:0.420122 10:0.44154765 11:0.59744599 12:0.36532759 13:0.024737038 14:0.04042924 15:0.040868981 16:0.033110858 17:0.0071715171 18:0.010046794 19:0.016417908 20:0.0054080404 21:0.007129914 22:0.0086445174 23:0.015487975 24:0.0059053744 25:0.064462298 26:0.049469489 27:0.077806098 28:0.025994588 29:0.51230124 30:0.26609495 31:0.21802273 32:0.31143583 33:0.18504792 34:0.11273561 35:0.076453588 36:0.16755924 
362.039 0:0.20609992 1:0.013026019 2:0.45325695 3:0.17643138 4:0.13177043 5:0.52164578 6:0.52955463 7:0.50217185 8:0.52535139 9:0.49437791 10:0.3896009 11:0.59744599 12:0.14043514 13:0.013124575 14:0.035926377 15:0.029810691 16:0.023038017 17:0.0090972566 18:0.0089536238 19:0.0082439411 20:0.007023288 21:0.0093555662 22:0.0071833874 23:0.015480003 24:0.0061812777 25:0.19335197 26:0.040755921 27:0.12713337 28:0.06388977 29:0.3322183 30:0.13235354 31:0.11204819 32:0.16484543 33:0.13636112 34:0.17508421 35:0.20265803 36:0.17503454 
362.039 0:0.22190571 1:0.077660951 2:0.12151386 3:0.069406574 4:0.045212006 5:0.38850875 6:0.35168966 7:0.23779973 8:0.31252145 9:0.37112886 10:0.53247115 11:0.54236546 12:0.18851907 13:0.02944328 14:0.080575099 15:0.076129228 16:0.060235035 17:0.011612398 18:0.027845334 19:0.012648492 20:0.0148687 21:0.013344525 22:0.028535879 23:0.015487865 24:0.01613253 25:0.14220309 26:0.036656825 27:0.17284939 28:0.052040375 29:0.13911291 30:0.12649239 31:0.10067562 32:0.095266088 33:0.18091512 34:0.29360813 35:0.17956288 36:0.28208352 
86.9598048655856 0:0.17963243 1:0.091488625 2:0.11369957 3:0.098859163 4:0.1327564 5:0.56535562 6:0.50392613 7:0.1810993 8:0.44839856 9:0.55205828 10:0.49351044 11:0.22838591 12:0.00073291643 13:0.033414711 14:0.14576511 15:0.15382954 16:0.0867003 17:0.6659298 18:0.69503266 19:0.69676096 20:0.6802168 21:0.63796578 22:0.67899699 23:0.6817126 24:0.65843917 25:0.067575978 26:0.0028573556 27:0.034564239 28:0.0073963391 29:0.54285257 30:0.27590374 31:0.30163169 32:0.32821408 33:0.37133484 34:0.5170201 35:0.54991113 36:0.4380478 
17.76236432613638 0:0.06488396 1:0.054719271 2:0.22404861 3:0.17989884 4:0.2032911 5:0.46338184 6:0.50392613 7:0.17704926 8:0.44413909 9:0.45044039 10:0.54545813 11:0.25081302 12:0.20275423 13:0.82770098 14:0.83413243 15:0.31535383 16:1 17:0.12884853 18:0.1193194 19:0.03409965 20:0.15152064 21:0.11086905 22:0.1989097 23:0.26677259 24:0.15466255 25:1 26:0.22094901 27:1 28:0.37489504 29:0.78150807 30:0.40373713 31:0.30221749 32:0.54452926 33:0.091534428 34:0.29922584 35:0.27733482 36:0.21442006 
23.7974236038512 0:0.086770852 1:0.053371722 2:0.21799871 3:0.12899736 4:0.15277841 5:0.38612847 6:0.35168966 7:0.1810993 8:0.31635497 9:0.37112886 10:0.54545813 11:0.22838591 12:0.096642261 13:1 14:1 15:1 16:0.99390003 17:0.12971117 18:0.13400346 19:0.1389112 20:0.13050023 21:0.23794126 22:0.23115532 23:0.23765956 24:0.2336065 25:0.12736839 26:0.02638977 27:0.12890435 28:0.038344485 29:1 30:0.49620032 31:0.51465765 32:0.5945832 33:0.60061574 34:0.52004502 35:0.55287391 36:0.53954298 
362.039 0:0.33344177 1:0.10483683 2:0.14575378 3:0.081602637 4:0.11248956 5:0.44619531 6:0.35168966 7:0.24184976 8:0.44626882 9:0.37112886 10:0.57143193 11:0.47508413 12:0.29264367 13:0.067617391 14:0.10429172 15:0.053441539 16:0.10060115 17:0.017770941 18:0.018263797 19:0.017178019 20:0.019658006 21:0.01906251 22:0.021882681 23:0.028587082 24:0.020657342 25:0.19296909 26:0.03782262 27:0.13972651 28:0.060095852 29:0.37473608 30:0.22939811 31:0.14656781 32:0.24062543 33:0.060445492 34:0.17167504 35:0.18252567 36:0.12205944 
362.039 0:0.22492919 1:0.20642958 2:0.074583194 3:0.11473616 4:0.056717803 5:0.45586651 6:0.42535247 7:0.17704926 8:0.38024703 9:0.44548342 10:0.53247115 11:0.54236546 12:0.1636386 13:0.026693827 14:0.075045476 15:0.059665595 16:0.036837472 17:0.019856398 18:0.016293671 19:0.01683047 20:0.017699673 21:0.018390647 22:0.016793938 23:0.016260341 24:0.016944993 25:0.40378637 26:0.091477162 27:0.096837221 28:0.14215321 29:0.31690151 30:0.12523166 31:0.17604946 32:0.16513398 33:0.064331609 34:0.19162511 35:0.17660009 36:0.11664637 
362.039 0:0.050226198 1:0.15496755 2:0.053568392 3:0.44095748 4:0.14351609 5:0.46367941 6:0.46098055 7:0.14023015 8:0.42245228 9:0.46829225 10:0.40260205 11:0.53631746 12:0.16842935 13:0.024031254 14:0.099010586 15:0.10924857 16:0.063333909 17:0.0035984794 18:0.0064778643 19:0.0099961932 20:0.0030548089 21:0.0027628941 22:0.0097416529 23:0.016879894 24:0.0073735226 25:0.10879591 26:0.053632101 27:0.23743767 28:0.070651508 29:0.081642993 30:0.086170261 31:0.12263688 32:0.087628962 33:0.089142029 34:0.068968344 35:0.11001694 36:0.069281465 
362.039 0:0.046284542 1:0.070340701 2:0.10215218 3:0.68840587 4:0.13552427 5:0.48785768 6:0.46098055 7:0.13779313 8:0.42475902 9:0.5160163 10:0.41558896 11:0.60167571 12:0.14625212 13:0.027597387 14:0.070283641 15:0.055763685 16:0.060127747 17:0.0034785214 18:0.0096087593 19:0.016160555 20:0.004260068 21:0.0092996438 22:0.0099976397 23:0.017379911 24:0.008093764 25:0.10725057 26:0.051334876 27:0.11976239 28:0.044494944 29:0.064338904 30:0.097465083 31:0.12747087 32:0.097286246 33:0.07885436 34:0.13062866 35:0.14923367 36:0.11495825 
362.039 0:0.09683027 1:0.034099695 2:0.24496547 3:0.11622415 4:0.053342955 5:0.40475967 6:0.41665549 7:0.40647475 8:0.37785525 9:0.46829225 10:0.48052354 11:0.4709592 12:0.44696286 13:0.032352231 14:0.092508392 15:0.11489753 16:0.060679279 17:0.0066858192 18:0.0093267175 19:0.012744673 20:0.0087957954 21:0.0061048659 22:0.012067211 23:0.01628372 24:0.010734429 25:0.15962182 26:0.11317644 27:0.18526678 28:0.085234267 29:0.42166793 30:0.370543 31:0.36917006 32:0.38498461 33:0.053135189 34:0.057223522 35:0.031583473 36:0.023604684 
212.968271710152 0:0.070786788 1:0.082544167 2:0.10608936 3:0.11525702 4:0.081416305 5:0.41083263 6:0.41665549 7:0.29132548 8:0.38272504 9:0.46829225 10:0.37662825 11:0.53631746 12:0.45646583 13:0.025250444 14:0.087654943 15:0.10552265 16:0.057012496 17:0.006441168 18:0.0095934049 19:0.016451784 20:0.0070752399 21:0.0054542018 22:0.011832564 23:0.017482478 24:0.0076928253 25:0.1102903 26:0.052816296 27:0.14271485 28:0.057777691 29:0.28645414 30:0.33810172 31:0.31539199 32:0.35404189 33:0.10543084 34:0.028960579 35:0.10478804 36:0.027485718 
125.2463292713813 0:0.20048777 1:0.047405398 2:0.20349546 3:0.096268164 4:0.063844582 5:0.18980452 6:0.23049027 7:0.44242082 8:0.22509764 9:0.10887049 10:0.49677386 11:0.60167571 12:0.73398444 13:0.022842543 14:0.095454166 15:0.11027019 16:0.057164016 17:0.0040719978 18:0.0075537867 19:0.0083883627 20:0.0029690297 21:0.010343383 22:0.010502641 23:0.01397595 24:0.0087007681 25:0.11532504 26:0.099489904 27:0.27425007 28:0.064824371 29:0.43139117 30:0.51161576 31:0.4604115 32:0.47589118 33:0.18687488 34:0.1559868 35:0.10740249 36:0.17824895 
362.039 0:0.082887593 1:0.028556218 2:0.28603211 3:0.34531379 4:0.2205272 5:0.56157304 6:0.55554066 7:0.46983731 8:0.50446979 9:0.60818337 10:0.40260205 11:0.53631746 12:0.18908833 13:0.026667754 14:0.077512662 15:0.083046984 16:0.051085034 17:0.0077954306 18:0.011286852 19:0.0090496968 20:0.0063803045 21:0.0096910459 22:0.012546014 23:0.0096745233 24:0.0090641805 25:0.038583176 26:0.037669082 27:0.15922262 28:0.05137377 29:0.11842442 30:0.11447138 31:0.13593034 32:0.1152212 33:0.10285892 34:0.11186521 35:0.11001694 36:0.11704803 
362.039 0:0.047415217 1:0.016464521 2:0.51243739 3:0.26563327 4:0.25070102 5:0.51350391 6:0.5082606 7:0.10245632 8:0.46346103 9:0.5160163 10:0.41558896 11:0.27488444 12:0.11222206 13:0.013591933 14:0.10083392 15:0.1074457 16:0.056539753 17:0.014800346 18:0.021897029 19:0.020043617 20:0.015718421 21:0.015150603 22:0.02627317 23:0.02809822 24:0.019385884 25:0.1090365 26:0.034249281 27:0.14379393 28:0.046160491 29:0.10657422 30:0.11574657 31:0.13834733 32:0.11571392 33:0.053992494 34:0.09952131 35:0.11001694 36:0.072266875 
362.039 0:0.034221151 1:0.01518523 2:0.49519561 3:0.44522371 4:0.1747101 5:0.51729209 6:0.55258565 7:0.14023015 8:0.45192732 9:0.56075759 10:0.42857586 11:0.4709592 12:0.18117361 13:0.019520248 14:0.090870353 15:0.11117162 16:0.054854851 17:0.0076738942 18:0.0094434157 19:0.012750741 20:0.0062709051 21:0.0069478859 22:0.012016298 23:0.017078619 24:0.0098258983 25:0.12517472 26:0.051718214 27:0.21576914 28:0.065350741 29:0.079531465 30:0.10595292 31:0.14257707 32:0.10763334 33:0.07885436 34:0.1559868 35:0.15184812 36:0.11495825 
183.461113152457 0:0.3499039 1:0.034988632 2:0.36881255 3:0.14569879 4:0.058600241 5:0.43552663 6:0.41370049 7:0.48141316 8:0.5429155 9:0.32810285 10:0.48052354 11:0.34024269 12:0.19243394 13:0.014247248 14:0.072245243 15:0.079260975 16:0.041302904 17:0.015714236 18:0.016027437 19:0.018053548 20:0.015407005 21:0.019435955 22:0.017007522 23:0.02198263 24:0.016599722 25:0.071297785 26:0.028112739 27:0.10609234 28:0.031689381 29:0.05583107 30:0.21961421 31:0.25073745 32:0.20760593 33:0.53322639 34:0.48964654 35:0.51787094 36:0.53799091 
362.039 0:0.28044216 1:0.017144168 2:0.41569865 3:0.1236879 4:0.078694564 5:0.46350921 6:0.46098055 7:0.41500433 8:0.53138178 9:0.37373897 10:0.42857586 11:0.60167571 12:0.27403464 13:0.031376878 14:0.053626874 15:0.063275606 16:0.041381695 17:0.011269477 18:0.012841392 19:0.015311135 20:0.010242852 21:0.012123091 22:0.011647694 23:0.016976051 24:0.010137959 25:0.22500412 26:0.04238324 27:0.097827894 28:0.069426002 29:0.24057261 30:0.20272115 31:0.23412063 32:0.27106808 33:0.16287032 34:0.34050064 35:0.35577512 36:0.27288646 
362.039 0:0.40699858 1:0.022387713 2:0.37528848 3:0.12597041 4:0.061032625 5:0.46595373 6:0.5082606 7:0.5587886 8:0.54547854 9:0.35942176 10:0.45454974 11:0.66703397 12:0.26325973 13:0.018087699 14:0.04435707 15:0.052999298 16:0.034872396 17:0.0148256 18:0.0073346191 19:0.0073387224 20:0.012405357 21:0.014157044 22:0.0048252044 23:0.009059118 24:0.012506723 25:0.13207544 26:0.049886009 27:0.14686719 28:0.054917024 29:0.41711016 30:0.22406177 31:0.23200577 32:0.24313094 33:0.26746162 34:0.33783136 35:0.35577512 36:0.27288646 
362.039 0:0.15969532 1:0.047442324 2:0.16279356 3:0.1167319 4:0.12619844 5:0.46027274 6:0.46589604 7:0.44921474 8:0.47674148 9:0.43726824 10:0.35065445 11:0.54325711 12:0.26851314 13:0.021597027 14:0.088391068 15:0.085714479 16:0.057739667 17:0.0046292898 18:0.0064562224 19:0.0089707277 20:0.0042115364 21:0.0049507116 22:0.0086020894 23:0.016410963 24:0.0055607823 25:0.12098858 26:0.056997347 27:0.23261661 28:0.061375879 29:0.067874357 30:0.14747385 31:0.16322983 32:0.13337312 33:0.089319724 34:0.17688595 35:0.15223727 36:0.12238003 
362.039 0:0.066885003 1:0.032864543 2:0.12479175 3:0.088411242 4:0.059348183 5:0.4455044 6:0.43979225 7:0.26992635 8:0.41362874 9:0.46361717 10:0.41558896 11:0.54325711 12:0.27658184 13:0.022076166 14:0.099494957 15:0.097962912 16:0.060045982 17:0.0062540871 18:0.0076874709 19:0.014977427 20:0.0053621357 21:0.0054211803 22:0.010687825 23:0.018968923 24:0.0080006585 25:0.15395487 26:0.060584141 27:0.1911175 28:0.065890126 29:0.079328443 30:0.13945431 31:0.15790512 32:0.11947903 33:0.081656923 34:0.13891027 35:0.15498651 36:0.099619885 
362.039 0:0.25590155 1:0.15400439 2:0.05249126 3:0.01608038 4:0.01579432 5:0.35780185 6:0.28724823 7:0.25983507 8:0.3472613 9:0.33351936 10:0.46753664 11:0.74962195 12:0.32523437 13:0.044050462 14:0.055960049 15:0.061217613 16:0.049250324 17:0.0091233842 18:0.004086199 19:0.0050162392 20:0.0068837877 21:0.0083995612 22:0.0037720488 23:0.0098045002 24:0.0059257021 25:0.28603331 26:0.070763468 27:0.14027043 28:0.15203738 29:0.22629776 30:0.12023915 31:0.15524276 32:0.14040959 33:0.027115813 34:0.080691894 35:0.10824939 36:0.060378263 
362.039 0:0.012568332 1:0.022776734 2:0.3500357 3:0.13100614 4:0.16937465 5:0.41348114 6:0.41717028 7:0.13593192 8:0.33210444 9:0.48499145 10:0.62337954 11:0.47644501 12:0.17271044 13:0.024846766 14:0.063233442 15:0.065713432 16:0.042959792 17:0.0062186393 18:0.013268391 19:0.016659941 20:0.010587572 21:0.0044561811 22:0.013157495 23:0.015708083 24:0.01073067 25:0.048266034 26:0.026228106 27:0.10044949 28:0.027083214 29:0.21298308 30:0.17389276 31:0.15430203 32:0.16581859 33:0.053730928 34:0.049563075 35:0.056993329 36:0.026766799 
362.039 0:0.026578781 1:0.035929382 2:0.26699653 3:0.22477745 4:0.076212442 5:0.60790577 6:0.62181397 7:0.19537615 8:0.52359397 9:0.67527587 10:0.39005833 11:0.77081193 12:0.22410248 13:0.01428662 14:0.046522861 15:0.054017236 16:0.033527202 17:0.0051681231 18:0.0040129103 19:0.0062703894 20:0.0028840878 21:0.004747101 22:0.0024604143 23:0.0087851026 24:0.0026856351 25:0.15199638 26:0.048126426 27:0.11207072 28:0.073429868 29:0.12036301 30:0.074834895 31:0.095668727 32:0.087690486 33:0.11039996 34:0.075350176 35:0.084570747 36:0.06508006 
362.039 0:0.043669024 1:0.010853301 2:0.3472852 3:0.2784543 4:0.2474192 5:0.61883933 6:0.63794353 7:0.15546953 8:0.52420604 9:0.66387916 10:0.36364135 11:0.59419178 12:0.23116721 13:0.013613464 14:0.075828021 15:0.079939657 16:0.048318172 17:0.003203385 18:0.019685722 19:0.0096677485 20:0.0035479962 21:0.0057477828 22:0.020670381 23:0.014039609 24:0.0059738141 25:0.052005747 26:0.034810136 27:0.16994923 28:0.038028087 29:0.16614426 30:0.10941981 31:0.11067222 32:0.11749378 33:0.074228236 34:0.13448286 35:0.18568794 36:0.092896538 
362.039 0:0.031870343 1:0.0088414367 2:0.56562052 3:0.25005393 4:0.12170729 5:0.64060828 6:0.65356903 7:0.16877174 8:0.55157418 9:0.68087247 10:0.36364135 11:0.1232047 12:0.01972917 13:0.043232358 14:0.19875244 15:0.20631664 16:0.11804823 17:0.12134348 18:0.12833857 19:0.13327842 20:0.12349576 21:0.12412534 22:0.13927126 23:0.14655282 24:0.13082595 25:0.12811808 26:0.025259036 27:0.12437131 28:0.03740585 29:0.039771522 30:0.27712831 31:0.30281586 32:0.22720651 33:0.24423533 34:0.40794567 35:0.44307717 36:0.32172643 
362.039 0:0.23663804 1:0.011420094 2:0.26495025 3:0.28085838 4:0.1252133 5:0.53890975 6:0.54638093 7:0.43480904 8:0.58422122 9:0.45077355 10:0.1681932 11:0.39669725 12:0.15211187 13:0.015687416 14:0.11200467 15:0.11615582 16:0.067147933 17:0.0039850449 18:0.013619187 19:0.016077841 20:0.0071039326 21:0.0044979491 22:0.01788782 23:0.023548204 24:0.010829576 25:0.069275107 26:0.043426665 27:0.1849594 28:0.04954139 29:0.16520341 30:0.10769662 31:0.14021012 32:0.12511185 33:0.13547295 34:0.22443504 35:0.25535139 36:0.16251804 
362.039 0:0.24832105 1:0.052713522 2:0.24827009 3:0.092388408 4:0.061999739 5:0.56729172 6:0.62676361 7:0.41164919 8:0.59181898 9:0.45139768 10:0.18182457 11:0.56610944 12:0.14917356 13:0.01279507 14:0.038357004 15:0.058048428 16:0.023655747 17:0.0066545577 18:0.011163438 19:0.014390094 20:0.0080463973 21:0.0066409551 22:0.0099744806 23:0.01524585 24:0.0078187048 25:0.05523144 26:0.023457338 27:0.085538135 28:0.030539094 29:0.41092268 30:0.12125913 31:0.11662107 32:0.17160446 33:0.19583657 34:0.19980934 35:0.17535879 36:0.19911367 
362.039 0:0.18535878 1:0.0050114854 2:0.29575304 3:0.21991354 4:0.20331663 5:0.59897107 6:0.62676361 7:0.43799618 8:0.59852288 9:0.56582241 10:0.18182457 11:0.60846249 12:0.13413864 13:0.016174548 14:0.039181746 15:0.053306193 16:0.031816586 17:0.006361848 18:0.0087799697 19:0.0093313551 20:0.0087984325 21:0.006951924 22:0.0076652296 23:0.010715264 24:0.0092164127 25:0.14686255 26:0.032410592 27:0.08548806 28:0.057024195 29:0.24832714 30:0.064924009 31:0.089004625 32:0.11305474 33:0.12487989 34:0.14529275 35:0.14356685 36:0.13060666 
197.0237193248173 0:0.17812499 1:0.0056336498 2:0.34881599 3:0.4234497 4:0.11067024 5:0.52898349 6:0.52216307 7:0.31900979 8:0.55240002 9:0.48468488 10:0.15585077 11:0.52375639 12:0.14277415 13:0.017803396 14:0.030071334 15:0.047663532 16:0.025272175 17:0.0083171491 18:0.011363596 19:0.01565928 20:0.0085605109 21:0.0072058236 22:0.0095580483 23:0.015598476 24:0.0074991894 25:0.095444667 26:0.03014336 27:0.068016428 28:0.034674599 29:0.40282184 30:0.16580898 31:0.17415533 32:0.23540865 33:0.14606601 34:0.21370562 35:0.28611778 36:0.17616089 
362.039 0:0.10484135 1:0.017644146 2:0.2650729 3:0.10982516 4:0.18864195 5:0.50651703 6:0.51443396 7:0.2926628 8:0.47311519 9:0.50132848 10:0.23377225 11:0.2696381 12:0.31060827 13:0.089853267 14:0.1481901 15:0.079598588 16:0.15733489 17:0.0071533351 18:0.012711923 19:0.01860271 20:0.010571779 21:0.013744321 22:0.019673529 23:0.027453881 24:0.016342477 25:0.31495498 26:0.056020981 27:0.1071912 28:0.1078692 29:0.64451583 30:0.30806682 31:0.2941944 32:0.39455141 33:0.08738383 34:0.15747347 35:0.19894635 36:0.12744479 
362.039 0:0.078552402 1:0.0069869745 2:0.26779885 3:0.32273448 4:0.16856124 5:0.51130507 6:0.51443396 7:0.21277194 8:0.43137222 9:0.54085702 10:0.18182457 11:0.48140335 12:0.19488879 13:0.019036449 14:0.060416896 15:0.059909306 16:0.048350155 17:0.0043058547 18:0.01117762 19:0.01326493 20:0.0054384813 21:0.0073024918 22:0.01162731 23:0.015040523 24:0.008325712 25:0.10048146 26:0.033981593 27:0.11745165 28:0.052148478 29:0.36186402 30:0.159047 31:0.19261539 32:0.2149624 33:0.071578314 34:0.094749981 35:0.087161812 36:0.078260273 
362.039 0:0.14628324 1:0.024753182 2:0.24344584 3:0.094755481 4:0.07781195 5:0.55291787 6:0.58347901 7:0.3342182 8:0.54298577 9:0.52898144 10:0.22077382 11:0.58110385 12:0.25247858 13:0.026955659 14:0.081881424 15:0.10285859 16:0.057924235 17:0.0062429229 18:0.0054252928 19:0.0121654 20:0.0043684927 21:0.0060444135 22:0.0072198944 23:0.016935454 24:0.0063787222 25:0.13324784 26:0.053250073 27:0.20928227 28:0.063485361 29:0.20430374 30:0.16569592 31:0.17597377 32:0.18360833 33:0.1731595 34:0.19075823 35:0.24777782 36:0.16381212 
362.039 0:0.14686035 1:0.0080571837 2:0.44317734 3:0.32157115 4:0.12002623 5:0.54697274 6:0.5368788 7:0.25878583 8:0.54307177 9:0.52667959 10:0.27272065 11:0.53980697 12:0.24016115 13:0.03343006 14:0.078507207 15:0.097841401 16:0.055112423 17:0.0059406127 18:0.011405405 19:0.014392697 20:0.007468497 21:0.0077104285 22:0.012691688 23:0.016829245 24:0.010529396 25:0.087351078 26:0.040010319 27:0.14956023 28:0.043981296 29:0.17052988 30:0.18517666 31:0.21235812 32:0.17523945 33:0.13002263 34:0.1853384 35:0.18057259 36:0.1411164 
362.039 0:0.11732062 1:0.022331759 2:0.4612069 3:0.15222693 4:0.18823158 5:0.49087448 6:0.46796998 7:0.22260283 8:0.43961611 9:0.49175151 10:0.25973391 11:0.45721323 12:0.26283141 13:0.032495942 14:0.11778048 15:0.086917913 16:0.07099692 17:0.0082045803 18:0.015221242 19:0.0092537733 20:0.012098331 21:0.014899397 22:0.020254391 23:0.015267354 24:0.019971553 25:0.063980449 26:0.061494339 27:0.21723849 28:0.046145638 29:0.27223093 30:0.2171375 31:0.23608878 32:0.22622194 33:0.18816363 34:0.23309972 35:0.25707216 36:0.21287732 
362.039 0:0.13480948 1:0.023834455 2:0.22983464 3:0.17318778 4:0.11669607 5:0.53287498 6:0.53737455 7:0.26103449 8:0.50342667 9:0.49565465 10:0.20778716 11:0.4985101 12:0.22907679 13:0.0095617448 14:0.093490159 15:0.10082631 16:0.050981173 17:0.0021197475 18:0.0049998913 19:0.0089503444 20:0.0022473675 21:0.0030547153 22:0.0079479252 23:0.015361067 24:0.0052847511 25:0.073143665 26:0.055497657 27:0.2535175 28:0.060539926 29:0.08875162 30:0.17094241 31:0.19929965 32:0.17108577 33:0.092512305 34:0.13151728 35:0.14696998 36:0.11540003 
362.039 0:0.12330808 1:0.0052062073 2:0.41414136 3:0.29672091 4:0.20649858 5:0.53020884 6:0.49127008 7:0.2266913 8:0.53008606 9:0.52517838 10:0.27272065 11:0.41591636 12:0.21463555 13:0.024684787 14:0.11788205 15:0.1286431 16:0.070798364 17:0.0040326994 18:0.01062432 19:0.015599957 20:0.0049657412 21:0.0032356621 22:0.015803292 23:0.021808554 24:0.0098280994 25:0.13814277 26:0.052349651 27:0.22812423 28:0.071437622 29:0.21663689 30:0.15625769 31:0.15930327 32:0.18902349 33:0.13049151 34:0.2853568 35:0.2692263 36:0.23483828 
362.039 0:0.060186498 1:0.023539275 2:0.24763738 3:0.25809048 4:0.11637692 5:0.59709559 6:0.61421532 7:0.21647011 8:0.54307177 9:0.60634365 10:0.20778716 11:0.58110385 12:0.18152944 13:0.020674523 14:0.055477638 15:0.053194818 16:0.037882869 17:0.0087588156 18:0.010207894 19:0.0077366287 20:0.010262271 21:0.0097318166 22:0.0092663068 23:0.008138883 24:0.011183212 25:0.095875125 26:0.035235068 27:0.14899657 28:0.050573889 29:0.14415592 30:0.11456853 31:0.14345565 32:0.11964176 33:0.10353096 34:0.14152465 35:0.14696998 36:0.11303249 
362.039 0:0.14246794 1:0.012382541 2:0.30826527 3:0.27859505 4:0.16338796 5:0.62344688 6:0.65337933 7:0.36937909 8:0.58426484 9:0.6357673 10:0.20778716 11:0.62240072 12:0.18235085 13:0.012847262 14:0.055193539 15:0.064054798 16:0.034372908 17:0.0076268319 18:0.0074242303 19:0.0068263419 20:0.0055795249 21:0.0060411532 22:0.0065369808 23:0.010575433 24:0.0054669727 25:0.16450428 26:0.042147977 27:0.17559331 28:0.062328568 29:0.10639751 30:0.10187493 31:0.12232548 32:0.10259632 33:0.10001437 34:0.16831785 35:0.1240916 36:0.11499183 
362.039 0:0.19522823 1:0.014804901 2:0.31027926 3:0.16463274 4:0.20879223 5:0.67068912 6:0.67667943 7:0.32849434 8:0.63758363 9:0.58963021 10:0.14285366 11:0.41591636 12:0.18845979 13:0.033768275 14:0.087633778 15:0.096888772 16:0.059724051 17:0.0094406931 18:0.010942806 19:0.014993099 20:0.0084983042 21:0.0093503611 22:0.013139683 23:0.021021361 24:0.0094052684 25:0.18385296 26:0.048088396 27:0.17202064 28:0.069109736 29:0.20980622 30:0.12274135 31:0.13364521 32:0.14994819 33:0.19707233 34:0.36792145 35:0.3707491 36:0.28929168 
362.039 0:0.11739659 1:0.02676208 2:0.28702189 3:0.35029674 4:0.036607464 5:0.47143769 6:0.47587378 7:0.35499542 8:0.47444267 9:0.46399925 10:0.48052354 11:0.4172952 12:0.23273655 13:0.025200956 14:0.092237095 15:0.084078876 16:0.059515358 17:0.005656466 18:0.010891148 19:0.017654719 20:0.0075516795 21:0.0090178297 22:0.01398762 23:0.025557411 24:0.011001757 25:0.041922016 26:0.034608867 27:0.16145044 28:0.036872899 29:0.15882002 30:0.21169725 31:0.240722 32:0.21559001 33:0.11790036 34:0.19007058 35:0.16788583 36:0.21235748 
362.039 0:0.16547436 1:0.021105511 2:0.37188613 3:0.071239674 4:0.015259385 5:0.52215665 6:0.50445479 7:0.30196056 8:0.50310608 9:0.49284865 10:0.50649735 11:0.4172952 12:0.24903303 13:0.017785087 14:0.1153849 15:0.12942582 16:0.073733865 17:0.0050072285 18:0.013048822 19:0.017037643 20:0.0078317632 21:0.0057899113 22:0.017892943 23:0.026328804 24:0.0096532957 25:0.098327655 26:0.055494772 27:0.16741603 28:0.046238541 29:0.19962715 30:0.16819408 31:0.23012235 32:0.17669554 33:0.16842094 34:0.22748681 35:0.24430361 36:0.16731974 
362.039 0:0.29580622 1:0.011305391 2:0.56278626 3:0.06060777 4:0.041385793 5:0.57577366 6:0.61699251 7:0.44780642 8:0.59916725 9:0.46399925 10:0.42857586 11:0.46208678 12:0.16567787 13:0.044057609 14:0.058747418 15:0.045766523 16:0.046434331 17:0.013721642 18:0.012973015 19:0.019849635 20:0.011660507 21:0.015926539 22:0.013819714 23:0.021971253 24:0.014458033 25:0.052491174 26:0.033941603 27:0.10397946 28:0.026286722 29:0.54337867 30:0.10251439 31:0.02146623 32:0.2064346 33:0.29977444 34:0.27169836 35:0.18760655 36:0.29975885 
206.9659312402953 0:0.13263227 1:0.033368246 2:0.33403376 3:0.08650875 4:0.071363992 5:0.32352277 6:0.30974668 7:0.25113549 8:0.33267498 9:0.32335841 10:0.62337954 11:0.19333733 12:0.12434306 13:0.045001179 14:0.12076492 15:0.12308887 16:0.082440869 17:0.0046729575 18:0.020753602 19:0.0282075 20:0.011270791 21:0.0051239859 22:0.026389695 23:0.032803583 24:0.015051357 25:0.092085313 26:0.026724028 27:0.11121469 28:0.033741976 29:0.32464613 30:0.31712988 31:0.32964131 32:0.33259354 33:0.074250575 34:0.18688265 35:0.22581544 36:0.13494886 
362.039 0:0.061240825 1:0.0055106478 2:0.53808218 3:0.29151013 4:0.11776432 5:0.63746242 6:0.64557351 7:0.21762041 8:0.57437727 9:0.6623389 10:0.35065445 11:0.32771205 12:0.18774229 13:0.015308216 14:0.087972804 15:0.098496878 16:0.048838285 17:0.0048304408 18:0.015922645 19:0.021068165 20:0.0087296315 21:0.0073765697 22:0.018987922 23:0.02787159 24:0.012237285 25:0.024405034 26:0.025367403 27:0.12284766 28:0.019029185 29:0.35800876 30:0.27671627 31:0.28783157 32:0.38105957 33:0.10052128 34:0.20306753 35:0.24183852 36:0.12495611 
359.5110077070062 0:0.18436232 1:0.028254202 2:0.30951818 3:0.0043534193 4:0.012205327 5:0.35804449 6:0.33832769 7:0.30932651 8:0.38070557 9:0.32335841 10:0.59740574 11:0.28292048 12:0.12518599 13:0.041285873 14:0.097887099 15:0.079427908 16:0.06789988 17:0.014957124 18:0.021768677 19:0.01697906 20:0.016976496 21:0.017697344 22:0.025846079 23:0.022484148 24:0.021121541 25:0.1130459 26:0.044045921 27:0.097213303 28:0.040626728 29:0.5390356 30:0.24864129 31:0.27605418 32:0.3198528 33:0.12557948 34:0.22079063 35:0.16788583 36:0.14663053 
180.6901866296245 0:0.021250611 1:0.031959754 2:0.2329409 3:0.70688566 4:0.067488304 5:0.3968123 6:0.40000701 7:0.1115507 8:0.32346033 9:0.46040215 10:0.72727483 11:0.53323672 12:0.24362246 13:0.01090763 14:0.10186278 15:0.11004168 16:0.054020698 17:0.002129672 18:0.010058684 19:0.010072463 20:0.0025042964 21:0.0026054239 22:0.013438665 23:0.017142352 24:0.0056543912 25:0.049511379 26:0.050663601 27:0.23116479 28:0.056321058 29:0.13117521 30:0.15126933 31:0.15909208 32:0.14816219 33:0.069365897 34:0.14880756 35:0.15996792 36:0.093845023 
362.039 0:0.086375227 1:0.12987169 2:0.15729558 3:0.24278957 4:0.033701901 5:0.43953947 6:0.43845527 7:0.2661305 8:0.3880729 9:0.46161494 10:0.70130103 11:0.48493935 12:0.25336832 13:0.020191697 14:0.12571999 15:0.13943123 16:0.07336378 17:0.0026178545 18:0.010205531 19:0.013983769 20:0.0046687998 21:0.0049394216 22:0.015929849 23:0.023112425 24:0.0088227289 25:0.04285761 26:0.051907156 27:0.24137919 28:0.052519175 29:0.22570889 30:0.16766512 31:0.18841507 32:0.1815933 33:0.18584605 34:0.21388381 35:0.23377969 36:0.2147411 
362.039 0:0.04428413 1:0.13164058 2:0.12059976 3:0.083012202 4:0.064104509 5:0.47730293 6:0.47450052 7:0.18041798 8:0.41933705 9:0.49921147 10:0.68831413 11:0.5573854 12:0.19434096 13:0.018618564 14:0.084752503 15:0.087770703 16:0.053554043 17:0.0041945136 18:0.0091192652 19:0.011763544 20:0.0058167187 21:0.0056710905 22:0.01088145 23:0.01518248 24:0.006814584 25:0.096819329 26:0.047573401 27:0.1795591 28:0.071598271 29:0.15626319 30:0.10918168 31:0.13976862 32:0.12630121 33:0.048187687 34:0.066853864 35:0.086156153 36:0.053019549 
362.039 0:0.035814699 1:0.13143183 2:0.14532479 3:0.065201406 4:0.1582059 5:0.50805633 6:0.51294879 7:0.18041798 8:0.45268548 9:0.57440453 10:0.42857586 11:0.60568276 12:0.18717178 13:0.023273492 14:0.060771412 15:0.075058959 16:0.040046705 17:0.0058378721 18:0.009037847 19:0.010410679 20:0.0046950667 21:0.0049577789 22:0.0084384778 23:0.010157167 24:0.0053855032 25:0.14870628 26:0.0417745 27:0.18259522 28:0.061699814 29:0.13411041 30:0.094688108 31:0.11869015 32:0.099834174 33:0.12684961 34:0.076261434 35:0.086156153 36:0.094371803 
362.039 0:0.011577001 1:0.059715259 2:0.20907286 3:0.2216675 4:0.20685782 5:0.52995631 6:0.51294879 7:0.081823821 8:0.45268548 9:0.60060082 10:0.64935342 11:0.62983144 12:0.21595347 13:0.018566985 14:0.076552895 15:0.086194447 16:0.045390155 17:0.0026178545 18:0.0071117772 19:0.010748895 20:0.0030464002 21:0.0018632651 22:0.0082173322 23:0.014398531 24:0.0037499824 25:0.1040288 26:0.044561863 27:0.171357 28:0.051933172 29:0.043872611 30:0.096824579 31:0.11558053 32:0.079273185 33:0.089031377 34:0.042469002 35:0.086156153 36:0.053019549 
362.039 0:0.068494041 1:0.021400298 2:0.42014124 3:0.19460988 4:0.15255498 5:0.52516384 6:0.51294879 7:0.23244003 8:0.48603391 9:0.536808 10:0.44156284 11:0.48493935 12:0.13403869 13:0.018592774 14:0.066631642 15:0.074245407 16:0.042872272 17:0.007936773 18:0.01763505 19:0.022504632 20:0.011927403 21:0.0095287428 22:0.016959254 23:0.026881409 24:0.012677996 25:0.032582335 26:0.023003182 27:0.083799918 28:0.015155839 29:0.17515351 30:0.062004183 31:0.084771111 32:0.088991723 33:0.1056714 34:0.20922 35:0.23377969 36:0.17444241 
362.039 0:0.076157426 1:0.012146352 2:0.27293585 3:0.24257621 4:0.15265238 5:0.62027586 6:0.66193581 7:0.35729294 8:0.55064648 9:0.68840692 10:0.20779837 11:0.53323672 12:0.13672329 13:0.021816409 14:0.077500818 15:0.071906446 16:0.051636145 17:0.00439745 18:0.011196519 19:0.014665656 20:0.0060000281 21:0.0047715836 22:0.012084445 23:0.01894644 24:0.0079510361 25:0.067613046 26:0.030325836 27:0.13697415 28:0.033009727 29:0.056918115 30:0.035543543 31:0.058285822 32:0.043902995 33:0.18584605 34:0.15922839 35:0.12075542 36:0.2121072 
362.039 0:0.05563246 1:0.017950612 2:0.14955387 3:0.35564859 4:0.29003463 5:0.57214183 6:0.5874423 7:0.32756606 8:0.49541315 9:0.61321385 10:0.32468064 11:0.5573854 12:0.14788324 13:0.010727106 14:0.081843714 15:0.08461819 16:0.045785016 17:0.0030379185 18:0.0096913964 19:0.01211267 20:0.0057513309 21:0.0036255645 22:0.011122792 23:0.017855947 24:0.0072341732 25:0.061451 26:0.042071557 27:0.17022376 28:0.047862273 29:0.042921301 30:0.045420264 31:0.081122628 32:0.046613607 33:0.13743871 34:0.2170238 35:0.22916645 36:0.20815635 
-254.6700302748748 0:0.08828206 1:0.0086342504 2:0.56889591 3:0.15000366 4:0.041817043 5:0.64620039 6:0.64660285 7:0.37716621 8:0.5812031 9:0.68886249 10:0.24674724 11:0.41943544 12:0.11675462 13:0.012305406 14:0.087562474 15:0.092089918 16:0.049889372 17:0.0015862788 18:0.012631697 19:0.01648536 20:0.0054255413 21:0.00227228 22:0.015147245 23:0.022815291 24:0.0069548103 25:0.042729421 26:0.034958796 27:0.1495585 28:0.031929835 29:0.045519087 30:0.077500666 31:0.11012443 32:0.072957534 33:0.16462011 34:0.16798961 35:0.17442944 36:0.15382591 
-292.0956042128776 0:0.14035036 1:0.0089460751 2:0.37098071 3:0.10691489 4:0.049380543 5:0.71234896 6:0.73561358 7:0.3525667 8:0.65840731 9:0.72231602 10:0.22077382 11:0.32359678 12:0.13460147 13:0.028271948 14:0.095761731 15:0.10573351 16:0.056813543 17:0.0135981 18:0.015098282 19:0.028517099 20:0.01218983 21:0.014967083 22:0.01845687 23:0.035132343 24:0.015907105 25:0.14925628 26:0.080206338 27:0.10828882 28:0.063891388 29:0.56188981 30:0.10749457 31:0.20412125 32:0.18537357 33:0.17200262 34:0.21919946 35:0.26748637 36:0.16633724 
-362.039 0:0.10922372 1:0.062888425 2:0.23350979 3:0.20284684 4:0.1638635 5:0.49658727 6:0.51516331 7:0.25078775 8:0.47807709 9:0.48599239 10:0.51948425 11:0.71300832 12:0.29900734 13:0.012566592 14:0.047457273 15:0.036331039 16:0.023578118 17:0.009705835 18:0.0034203595 19:0.0053471596 20:0.0061953825 21:0.0098579975 22:0.0023702129 23:0.0065840651 24:0.0057432663 25:0.19226476 26:0.060293985 27:0.12479706 28:0.067332977 29:0.47254751 30:0.19392687 31:0.10032841 32:0.30055359 33:0.17091798 34:0.15859567 35:0.119147 36:0.15009563 
-178.0490882830556 0:0.053362304 1:0.018439526 2:0.22001558 3:0.49248539 4:0.20345756 5:0.55269737 6:0.55365541 7:0.13529061 8:0.46742184 9:0.58899568 10:0.44156284 11:0.96659089 12:0.12549438 13:0.011733 14:0.033006091 15:0.038905934 16:0.01750036 17:0.0074747755 18:0.0026532714 19:0.0096966036 20:0.0027941395 21:0.0076482334 22:0.00038165455 23:0.008701298 24:0.0020716923 25:0.090931365 26:0.035816613 27:0.10803344 28:0.052309202 29:0.081002152 30:0.033911326 31:0.041323645 32:0.042755131 33:0.10280821 34:0.075930527 35:0.080503595 36:0.072460599 
-149.4715492762759 0:0.062924614 1:0.060716286 2:0.16399174 3:0.40021017 4:0.13951835 5:0.57887639 6:0.59214752 7:0.23930558 8:0.52140844 9:0.61544918 10:0.48052354 11:0.52282138 12:0.19387314 13:0.008231912 14:0.12191005 15:0.13127348 16:0.063276924 17:0.002332036 18:0.0058130174 19:0.011028355 20:0.0025899682 21:0.0022528073 22:0.01107106 23:0.01984242 24:0.0057643398 25:0.083737762 26:0.064572234 27:0.28789795 28:0.067626302 29:0.069589826 30:0.097423107 31:0.12930081 32:0.092050299 33:0.059249631 34:0.12074466 35:0.1565828 36:0.093144888 
-362.039 0:0.31578693 1:0.087454701 2:0.1443251 3:0.093207677 4:0.11255677 5:0.3095992 6:0.25964127 7:0.32981212 8:0.38999369 9:0.20459333 10:0.74026173 11:0.36433227 12:0.2424644 13:0.042562023 14:0.096395023 15:0.091937832 16:0.058939615 17:0.0199348 18:0.016499097 19:0.020548962 20:0.016690854 21:0.019687554 22:0.019483534 23:0.0308483 24:0.020692981 25:0.12910645 26:0.049820249 27:0.11076267 28:0.088582674 29:0.40763466 30:0.33002995 31:0.23317747 32:0.3175253 33:0.292882 34:0.28558765 35:0.3630835 36:0.29088669 
-362.039 0:0.17747724 1:0.031919939 2:0.33839936 3:0.085400472 4:0.0086354658 5:0.4994043 6:0.4643865 7:0.25450257 8:0.49441514 9:0.46168824 10:0.55844503 11:0.30093663 12:0.19186435 13:0.043451189 14:0.1311455 15:0.15011952 16:0.091245658 17:0.019029354 18:0.021938789 19:0.018329376 20:0.023378191 21:0.021512799 22:0.027825544 23:0.020206174 24:0.030646366 25:0.18750278 26:0.051583539 27:0.17167617 28:0.076412677 29:0.17139527 30:0.1755454 31:0.18936554 32:0.1741897 33:0.19546918 34:0.24613383 35:0.2507761 36:0.18429365 
-362.039 0:0.11983454 1:0.014550983 2:0.5115766 3:0.12937155 4:0.0045341191 5:0.56737319 6:0.56594013 7:0.23930558 8:0.54484999 9:0.53774204 10:0.48052354 11:0.33263445 12:0.14047695 13:0.026459798 14:0.11500614 15:0.12875336 16:0.070835444 17:0.0037891046 18:0.020465784 19:0.020029485 20:0.0091752197 21:0.0052924497 22:0.024994365 23:0.027714423 24:0.012222402 25:0.055135525 26:0.046603897 27:0.13314314 28:0.035678077 29:0.086646236 30:0.12256316 31:0.14679025 32:0.10423724 33:0.24536355 34:0.25159396 35:0.2688902 36:0.24441599 
-64.74967754721449 0:0.029061479 1:0.055871293 2:0.18360962 3:0.31573504 4:0.033544514 5:0.53774229 6:0.5413707 7:0.15555327 8:0.45889764 9:0.58899568 10:0.53247115 11:0.52282138 12:0.1212912 13:0.020374574 14:0.081463937 15:0.077419802 16:0.052060699 17:0.0017570714 18:0.0086408336 19:0.015306961 20:0.0037995141 21:0.001264741 22:0.010431882 23:0.018531974 24:0.0048663224 25:0.07099257 26:0.035094174 27:0.12996393 28:0.043555994 29:0.01735457 30:0.050739715 31:0.082838975 32:0.043648264 33:0.036282381 34:0.066742249 35:0.11673179 36:0.051086833 
-362.039 0:0.047742239 1:0.0035899773 2:0.28142031 3:0.59665467 4:0.11143225 5:0.53660991 6:0.51792764 7:0.16199025 8:0.50095735 9:0.56545424 10:0.23376057 11:0.35069139 12:0.098214074 13:0.033255159 14:0.11915041 15:0.12992256 16:0.083497907 17:0.0054399876 18:0.022005052 19:0.02579001 20:0.012376514 21:0.012277247 22:0.027033151 23:0.029758959 24:0.017601879 25:0.12901238 26:0.051858781 27:0.14101272 28:0.050085255 29:0.057285865 30:0.086420446 31:0.12220675 32:0.088985177 33:0.066608908 34:0.16085662 35:0.16899979 36:0.10225889 
-40.56599225724758 0:0.19144622 1:0.009167394 2:0.72542831 3:0.35291101 4:0.13815353 5:0.56573853 6:0.51877109 7:0.37762779 8:0.53358568 9:0.53991301 10:0.46752106 11:0.31878341 12:0.11508193 13:0.027034844 14:0.15592147 15:0.15754878 16:0.082994225 17:0.0053359198 18:0.019346254 19:0.021358884 20:0.0096262425 21:0.009575077 22:0.02793379 23:0.029564021 24:0.017124524 25:0.16943015 26:0.051315059 27:0.16308807 28:0.07320242 29:0.057881087 30:0.098788394 31:0.12378499 32:0.089950376 33:0.21453751 34:0.32205117 35:0.25166201 36:0.2900369 
-362.039 0:0.055767329 1:0.040606135 2:0.14940136 3:0.44352078 4:0.3048289 5:0.43113079 6:0.42599117 7:0.31293653 8:0.37044405 9:0.48542504 10:0.5818055 11:0.70167927 12:0.31822048 13:0.023058973 14:0.069713673 15:0.076503442 16:0.044663428 17:0.006815283 18:0.0025818426 19:0.0090625081 20:0.0035494169 21:0.0078377404 22:0.0029940199 23:0.014517244 24:0.0044336289 25:0.11459363 26:0.073734922 27:0.21952444 28:0.062333363 29:0.21085318 30:0.13465353 31:0.16166266 32:0.15748216 33:0.053632715 34:0.092288975 35:0.10040774 36:0.07484531 
-200.8869721196768 0:0.086670724 1:0.0086921477 2:0.60863839 3:0.55387066 4:0.089146471 5:0.58793355 6:0.57022178 7:0.16199025 8:0.52992779 9:0.59269823 10:0.51946781 11:0.47832335 12:0.18874969 13:0.037295158 14:0.099725708 15:0.089399892 16:0.067411979 17:0.005945917 18:0.012362527 19:0.01867559 20:0.0073236313 21:0.0053279009 22:0.015591761 23:0.024142308 24:0.0096501278 25:0.091474324 26:0.036877845 27:0.15530877 28:0.058093392 29:0.15331504 30:0.11901755 31:0.12477138 32:0.11832724 33:0.12514596 34:0.14797241 35:0.15405024 36:0.13589827 
-362.039 0:0.14113597 1:0.011076362 2:0.44554942 3:0.42479493 4:0.10168902 5:0.57554857 6:0.54660507 7:0.37762779 8:0.57309082 9:0.56545424 10:0.35064081 11:0.41450737 12:0.11560921 13:0.01677453 14:0.097633817 15:0.079537901 16:0.051893489 17:0.0023916029 18:0.015958321 19:0.019629514 20:0.0080121448 21:0.0058206496 22:0.018959666 23:0.025001253 24:0.013379505 25:0.079678474 26:0.032796575 27:0.11446585 28:0.048070288 29:0.27434354 30:0.077275554 31:0.094784892 32:0.1386286 33:0.069204147 34:0.1606667 35:0.18306996 36:0.11892796 
-362.039 0:0.16629797 1:0.0034259486 2:0.63559012 3:0.31370078 4:0.24379872 5:0.60904964 6:0.57022178 7:0.2259859 8:0.57528555 9:0.56715699 10:0.53245448 11:0.6378633 12:0.41905021 13:0.017528022 14:0.074383772 15:0.090284943 16:0.045581531 17:0.0060179639 18:0.0062031584 19:0.01175811 20:0.0036887589 21:0.0079807964 22:0.0070382135 23:0.017380396 24:0.0050561303 25:0.10232496 26:0.070599603 27:0.18201822 28:0.062307536 29:0.26303432 30:0.23021902 31:0.25438405 32:0.21652019 33:0.19694756 34:0.20345245 35:0.16724102 36:0.18821503 
-282.7710550164301 0:0.22684338 1:0.012604208 2:0.3203125 3:0.11464605 4:0.33291269 5:0.54531103 6:0.50866313 7:0.3577676 8:0.5620295 9:0.49570948 10:0.33765407 11:0.37891379 12:0.16700713 13:0.032918208 14:0.12308472 15:0.13656045 16:0.07615718 17:0.007644685 18:0.011724567 19:0.008100285 20:0.010472038 21:0.0062864851 22:0.01793092 23:0.018239809 24:0.012324821 25:0.26582992 26:0.068450149 27:0.35501734 28:0.097414855 29:0.081963717 30:0.12582634 31:0.085154029 32:0.068911745 33:0.14098109 34:0.26120338 35:0.29567063 36:0.20416001 
-235.4492157791194 0:0.17704125 1:0.013891624 2:0.37020675 3:0.10750565 4:0.28981893 5:0.54743418 6:0.54172578 7:0.25640508 8:0.54020991 9:0.51747457 10:0.31168073 11:0.53074676 12:0.12723067 13:0.027397111 14:0.090190692 15:0.10010255 16:0.056948692 17:0.0037109815 18:0.010414688 19:0.012178695 20:0.003459485 21:0.0035166547 22:0.013101346 23:0.018327404 24:0.0064026515 25:0.13026313 26:0.045391927 27:0.22334663 28:0.05777778 29:0.076218215 30:0.039139931 31:0.063902258 32:0.055197443 33:0.15545558 34:0.18591436 35:0.1756365 36:0.15897255 
-13.78813553437672 0:0.19507027 1:0.014051007 2:0.38697066 3:0.18303827 4:0.41500781 5:0.59647201 6:0.59778855 7:0.50477289 8:0.57138075 9:0.57914233 10:0.3246674 11:0.53074676 12:0.12958745 13:0.021679301 14:0.096120216 15:0.093690094 16:0.056312407 17:0.0041860732 18:0.0076843855 19:0.014340358 20:0.0043573275 21:0.0033595215 22:0.010913136 23:0.018842023 24:0.0080033747 25:0.10254442 26:0.044017782 27:0.15079258 28:0.054323938 29:0.054155489 30:0.044488065 31:0.073042805 32:0.050837189 33:0.14986894 34:0.21129853 35:0.19886891 36:0.18665097 
-362.039 0:0.17163581 1:0.071946853 2:0.18413176 3:0.21143142 4:0.065577366 5:0.35303395 6:0.32897477 7:0.20839126 8:0.32388427 9:0.31433372 10:0.41557423 11:0.53074676 12:0.34371646 13:0.037232794 14:0.074303522 15:0.075900704 16:0.051310795 17:0.0076280637 18:0.010863915 19:0.012349072 20:0.010728409 21:0.011260466 22:0.011884318 23:0.018502593 24:0.012531729 25:0.11287447 26:0.0447544 27:0.14078009 28:0.053105777 29:0.52390769 30:0.33317035 31:0.2988143 32:0.39771958 33:0.089939439 34:0.091868095 35:0.079609194 36:0.071250531 
-362.039 0:0.13965992 1:0.026811543 2:0.27567016 3:0.10169017 4:0.12280177 5:0.47999138 6:0.50866313 7:0.264111 8:0.44295688 9:0.44927728 10:0.28570732 11:0.58135775 12:0.27897037 13:0.020197391 14:0.06024934 15:0.058990442 16:0.045135707 17:0.012625529 18:0.013425067 19:0.017747907 20:0.01137479 21:0.014674543 22:0.013038838 23:0.016789021 24:0.012694219 25:0.12190383 26:0.03483534 27:0.14377266 28:0.050895412 29:0.30259097 30:0.25287996 31:0.1633057 32:0.25029084 33:0.11711086 34:0.11967624 35:0.12762285 36:0.1077719 
-362.039 0:0.051979244 1:0.0057019424 2:0.24606085 3:0.41777008 4:0.39838137 5:0.54193659 6:0.55951998 7:0.21755722 8:0.48440554 9:0.55218601 10:0.28827765 11:0.48840188 12:0.13964098 13:0.033626034 14:0.10490198 15:0.10318554 16:0.073674787 17:0.0047118292 18:0.010575293 19:0.01538237 20:0.0055306141 21:0.008139052 22:0.014691791 23:0.023644778 24:0.011443754 25:0.084242001 26:0.044751621 27:0.22748179 28:0.053393014 29:0.042747761 30:0.061833331 31:0.097276621 32:0.058201374 33:0.069407692 34:0.1735298 35:0.19945852 36:0.13601855 
-362.039 0:0.049100621 1:0.016103868 2:0.25292156 3:0.10496446 4:0.50104641 5:0.42232754 6:0.40995063 7:0.21642556 8:0.39157107 9:0.44414963 10:0.40260205 11:0.5383743 12:0.24288597 13:0.020516661 14:0.12049615 15:0.13370518 16:0.070018172 17:0.0028290114 18:0.0025675118 19:0.0059946737 20:0.0010830069 21:0.0039483442 22:0.0080546752 23:0.015447409 24:0.0051329014 25:0.11702142 26:0.084053019 27:0.36412122 28:0.087569292 29:0.083844835 30:0.092736447 31:0.11216368 32:0.089045034 33:0.11155045 34:0.15155164 35:0.20063759 36:0.11797718 
-362.039 0:0.046318274 1:0.015629337 2:0.38084887 3:0.16098544 4:0.036350293 5:0.43697836 6:0.4524887 7:0.1994506 8:0.39157107 9:0.46631094 10:0.40260205 11:0.5383743 12:0.23918436 13:0.024971448 14:0.074946612 15:0.078225668 16:0.054932401 17:0.010004032 18:0.013245731 19:0.014811781 20:0.0098496172 21:0.0085100539 22:0.014320293 23:0.016795091 24:0.013941429 25:0.11848718 26:0.043890602 27:0.15640453 28:0.061941637 29:0.26192502 30:0.16898953 31:0.17080047 32:0.1927491 33:0.14518733 34:0.081773447 35:0.08862561 36:0.11474589 
-362.039 0:0.095412082 1:0.094201985 2:0.068611536 3:0.10096433 4:0.042581567 5:0.35082051 6:0.3879955 7:0.24415132 8:0.33563234 9:0.32849531 10:0.25974606 11:0.38845705 12:0.18314095 13:0.027086347 14:0.045877516 15:0.032032169 16:0.050375054 17:0.012033725 18:0.014217844 19:0.019136248 20:0.012806894 21:0.013578262 22:0.012288373 23:0.019787192 24:0.01143931 25:0.045407109 26:0.028361041 27:0.044974231 28:0.024845012 29:0.38802429 30:0.19485013 31:0.18538371 32:0.23568249 33:0.081779878 34:0.078378112 35:0.089804684 36:0.070719554 
-362.039 0:0.042301266 1:0.02665667 2:0.36861306 3:0.19539323 4:0.045208752 5:0.32016611 6:0.3235023 7:0.16436902 8:0.27969362 9:0.35785904 10:0.32468064 11:0.43842947 12:0.15468652 13:0.026366382 14:0.057568881 15:0.056104838 16:0.039643816 17:0.016233737 18:0.016443833 19:0.023460714 20:0.015670026 21:0.015471984 22:0.015806756 23:0.021814897 24:0.014053171 25:0.16030829 26:0.074561361 27:0.084043502 28:0.057024359 29:0.3336356 30:0.17278525 31:0.19814405 32:0.20560682 33:0.082166508 34:0.033300412 35:0.054432479 36:0.043926769 
-184.5471802591295 0:0.10456997 1:0.016592726 2:0.21053245 3:0.35658885 4:0.36804185 5:0.63772033 6:0.67591475 7:0.47355483 8:0.57300017 9:0.63634698 10:0.48052354 11:0.38323828 12:0.12456542 13:0.010353189 14:0.095450548 15:0.097173907 16:0.051350769 17:0.0039240168 18:0.011888631 19:0.016724473 20:0.0063935349 21:0.0043721487 22:0.014960732 23:0.022267211 24:0.0086000863 25:0.038669471 26:0.033184585 27:0.13802593 28:0.033136103 29:0.0935671 30:0.080528133 31:0.11330749 32:0.091961374 33:0.12821593 34:0.22723448 35:0.25487301 36:0.14609746 
-362.039 0:0.14026881 1:0.023502319 2:0.33346259 3:0.22371381 4:0.13915402 5:0.60588222 6:0.6256733 7:0.55124479 8:0.57300017 9:0.58119631 10:0.45453431 11:0.57629821 12:0.28668653 13:0.032527773 14:0.082133091 15:0.075216341 16:0.065595728 17:0.0030105478 18:0.006732875 19:0.012329275 20:0.0032464847 21:0.0042543881 22:0.0088688168 23:0.017302712 24:0.0063675422 25:0.19823839 26:0.089936227 27:0.16412655 28:0.093845347 29:0.28260645 30:0.17557966 31:0.17149308 32:0.22231397 33:0.08536811 34:0.16793697 35:0.12634596 36:0.10720509 
-130.9438600332833 0:0.11612372 1:0.073920527 2:0.28247628 3:0.099656958 4:0.090066578 5:0.50544923 6:0.52833048 7:0.27156096 8:0.48584546 9:0.53048305 10:0.70128155 11:0.38323828 12:0.11148898 13:0.0087537754 14:0.11833088 15:0.099821273 16:0.061637923 17:0.0024095814 18:0.013499837 19:0.015848647 20:0.0091471009 21:0.0028379897 22:0.017868106 23:0.021615307 24:0.01241584 25:0.0094432442 26:0.034193366 27:0.16228019 28:0.026897174 29:0.037720348 30:0.065833547 31:0.084214693 32:0.050250192 33:0.088177803 34:0.1757549 35:0.19060949 36:0.10965116 
-362.039 0:0.087338788 1:0.028457163 2:0.44545882 3:0.11831981 4:0.068735973 5:0.57983973 6:0.6256733 7:0.31040593 8:0.52942281 9:0.58119631 10:0.54544122 11:0.47976825 12:0.15965481 13:0.018034323 14:0.12614308 15:0.11679556 16:0.071697346 17:0.0015431447 18:0.0079062841 19:0.013341697 20:0.0034111225 21:0.003297038 22:0.012452419 23:0.019793319 24:0.0074018427 25:0.072040098 26:0.059412646 27:0.20178784 28:0.056978717 29:0.08567986 30:0.081987623 31:0.1117896 32:0.086907349 33:0.15912255 34:0.13006256 35:0.12206172 36:0.14511904 
-362.039 0:0.17349934 1:0.042792193 2:0.30437425 3:0.069741593 4:0.05295694 5:0.49337774 6:0.52833048 7:0.35443024 8:0.48856905 9:0.4322261 10:0.63634806 11:0.28670832 12:0.11867871 13:0.01994967 14:0.10201825 15:0.1044931 16:0.06605119 17:0.0040358488 18:0.019949803 19:0.020621495 20:0.0099044345 21:0.0056326234 22:0.023721344 23:0.026579806 24:0.012696946 25:0.015736081 26:0.022700518 27:0.12311996 28:0.019359572 29:0.097510721 30:0.13226207 31:0.14417115 32:0.11304388 33:0.15209832 34:0.23130268 35:0.25915725 36:0.18547904 
-362.039 0:0.14210051 1:0.04527175 2:0.20493875 3:0.038866427 4:0.046786215 5:0.33103091 6:0.33050474 7:0.31040593 8:0.35783699 9:0.2832559 10:0.76623561 11:0.47976825 12:0.24925361 13:0.057545759 14:0.098494809 15:0.089854718 16:0.089483913 17:0.0028485482 18:0.010834261 19:0.014964787 20:0.0053414998 21:0.0058539697 22:0.014024156 23:0.021222493 24:0.0095476944 25:0.094028067 26:0.06044504 27:0.18812662 28:0.051831075 29:0.20246191 30:0.19396771 31:0.2372681 32:0.19442583 33:0.14858621 34:0.15222458 35:0.18632525 36:0.14511904 
-362.039 0:0.10241471 1:0.049300518 2:0.26910965 3:0.10999886 4:0.15964551 5:0.57617968 6:0.57857193 7:0.39068555 8:0.52942281 9:0.58119631 10:0.54300028 11:0.43150326 12:0.20431788 13:0.028479875 14:0.09619428 15:0.079031663 16:0.07663675 17:0.0063895467 18:0.0085956228 19:0.014904523 20:0.0068462887 21:0.007951853 22:0.011565723 23:0.019851823 24:0.0091395534 25:0.046278742 26:0.046055776 27:0.1653533 28:0.070236815 29:0.13949119 30:0.16869962 31:0.19818256 32:0.17592008 33:0.12821593 34:0.11687302 35:0.18632525 36:0.10720509 
-311.7773715999871 0:0.081957485 1:0.011747796 2:0.33013791 3:0.17552829 4:0.055079274 5:0.54166873 6:0.56544308 7:0.29348013 8:0.48279995 9:0.53980147 10:0.12986699 11:0.14384739 12:0.19321676 13:0.044778978 14:0.17544692 15:0.11125382 16:0.069052045 17:0.0071066441 18:0.022128739 19:0.021211974 20:0.013654962 21:0.0071243799 22:0.032513585 23:0.027658025 24:0.01633844 25:0.083140876 26:0.032842191 27:0.11248102 28:0.035752305 29:0.16204918 30:0.13014655 31:0.11159911 32:0.16509702 33:0.088784636 34:0.21184329 35:0.15305263 36:0.11007949 
-362.039 0:0.09721429 1:0.0064771385 2:0.2912455 3:0.31951904 4:0.24991359 5:0.51185858 6:0.50559352 7:0.15223876 8:0.43663907 9:0.54537792 10:0.27272065 11:0.69327539 12:0.3191792 13:0.032247411 14:0.086270382 15:0.090772775 16:0.059320276 17:0.0058289956 18:0.002308353 19:0.0091090828 20:0.0029766976 21:0.0051376711 22:0.0043578864 23:0.012697152 24:0.0055166749 25:0.15097087 26:0.082313723 27:0.23509173 28:0.08025088 29:0.19832244 30:0.15908577 31:0.16537959 32:0.17654621 33:0.13769302 34:0.25825684 35:0.15750492 36:0.18379771 
-276.6699834729633 0:0.023898778 1:0.022284652 2:0.27302691 3:0.31610463 4:0.065499124 5:0.57354855 6:0.59214519 7:0.15375748 8:0.48232077 9:0.63683178 10:0.3246674 11:0.44353539 12:0.09081709 13:0.010792113 14:0.077217895 15:0.083212658 16:0.045783135 17:0.0035615292 18:0.015163589 19:0.017179726 20:0.0073583313 21:0.0036212851 22:0.016575856 23:0.021815391 24:0.0084153734 25:0.030326258 26:0.025705232 27:0.13904741 28:0.025983917 29:0.024468353 30:0.052096582 31:0.08726985 32:0.046515871 33:0.11652372 34:0.16894366 35:0.15305263 36:0.14109198 
-362.039 0:0.21833109 1:0.004788085 2:0.37386472 3:0.29408597 4:0.066365953 5:0.59134744 6:0.65107399 7:0.3906785 8:0.58183021 9:0.54110264 10:0.12986699 11:0.39358739 12:0.22046134 13:0.032805144 14:0.10097965 15:0.094003007 16:0.072427666 17:0.010079296 18:0.016388349 19:0.018611912 20:0.01060205 21:0.015682635 22:0.019964633 23:0.027738828 24:0.015649034 25:0.1861306 26:0.054717122 27:0.17509716 28:0.065577104 29:0.2828885 30:0.18396879 31:0.17519666 32:0.19659371 33:0.59100807 34:0.66186327 35:0.53372298 36:0.65584854 
-357.5666879067397 0:0.39309533 1:0.10549358 2:0.037934171 3:0.022645235 4:0.046055478 5:0.49175355 6:0.53689944 7:0.55052425 8:0.53343316 9:0.31674327 10:0.24674724 11:0.49348339 12:0.25107516 13:0.025694046 14:0.095721937 15:0.092972082 16:0.06114325 17:0.0083363208 18:0.0094056299 19:0.013909671 20:0.0073255856 21:0.005747469 22:0.012408794 23:0.019490768 24:0.0087568849 25:0.19327237 26:0.060761398 27:0.15351398 28:0.072871656 29:0.38119118 30:0.2227167 31:0.16217837 32:0.30215635 33:0.31507717 34:0.41327269 35:0.28884732 36:0.4425741 
-362.039 0:0.15328524 1:0.018527101 2:0.33383564 3:0.1000205 4:0.10524614 5:0.59538115 6:0.60779815 7:0.36637891 8:0.5805524 9:0.57790724 10:0.28570732 11:0.54343139 12:0.19239555 13:0.039619946 14:0.091908693 15:0.087611272 16:0.070798773 17:0.0037885957 18:0.006507183 19:0.013331879 20:0.0039722944 21:0.0047597909 22:0.0091251112 23:0.016569451 24:0.0075912774 25:0.089468346 26:0.054661986 27:0.2032899 28:0.064233394 29:0.17041993 30:0.099132007 31:0.13080643 32:0.11146143 33:0.26981866 34:0.28968766 35:0.22428919 36:0.28624062 
-187.0083143432695 0:0.070602534 1:0.017154812 2:0.3126726 3:0.20969584 4:0.38028664 5:0.55591358 6:0.55930323 7:0.45858439 8:0.4863353 9:0.59244022 10:0.53247115 11:0.46843789 12:0.16117373 13:0.0063205321 14:0.1107896 15:0.1204229 16:0.060496688 17:0.0018033691 18:0.0095725365 19:0.015238708 20:0.0053495466 21:0.0029569661 22:0.013661177 23:0.021875844 24:0.0080028171 25:0.036433786 26:0.047041322 27:0.17141409 28:0.037803827 29:0.05724462 30:0.08398329 31:0.11251014 32:0.07769921 33:0.023774886 34:0.10546506 35:0.13254877 36:0.038752614 
-362.039 0:0.10043096 1:0.022622152 2:0.43265487 3:0.41076245 4:0.27336286 5:0.48224245 6:0.49236841 7:0.376672 8:0.42827882 9:0.55756879 10:0.50649735 11:0.43343935 12:0.14621187 13:0.022794529 14:0.085854861 15:0.10791099 16:0.05087119 17:0.0022980987 18:0.011743845 19:0.018701339 20:0.0062985553 21:0.0018907688 22:0.014147148 23:0.024671126 24:0.0074389185 25:0.051320311 26:0.03047835 27:0.13797906 28:0.030948318 29:0.17188882 30:0.12518322 31:0.13564806 32:0.14311945 33:0.048883598 34:0.16238168 35:0.13254877 36:0.10328908 
-102.5016118019818 0:0.06611954 1:0.040635587 2:0.29480016 3:0.21285977 4:0.25003676 5:0.57612075 6:0.55930323 7:0.21106652 8:0.51629994 9:0.59244022 10:0.44156284 11:0.50343642 12:0.22592024 13:0.039052765 14:0.091901568 15:0.1141169 16:0.057654971 17:0.0056681115 18:0.011426147 19:0.013589187 20:0.0070977756 21:0.0054145195 22:0.014240846 23:0.021235546 24:0.0085727258 25:0.12340265 26:0.055476551 27:0.20635982 28:0.072470139 29:0.16126196 30:0.13026069 31:0.13156389 32:0.10036502 33:0.14015177 34:0.14732525 35:0.098516855 36:0.13521034 
-259.9443047305992 0:0.028423532 1:0.021116675 2:0.70087041 3:0.13915409 4:0.10479639 5:0.56942589 6:0.55930323 7:0.15408398 8:0.4863353 9:0.62513218 10:0.53247115 11:0.36344228 12:0.060820409 13:0.016258236 14:0.10125891 15:0.12512738 16:0.056342632 17:0.0012607625 18:0.010569979 19:0.018060616 20:0.0055803394 21:0.0033189522 22:0.014016607 23:0.023060052 24:0.0090761688 25:0.015339841 26:0.070320301 27:0.16071082 28:0.032282037 29:0.024833995 30:0.052055809 31:0.090466905 32:0.051322098 33:0.047687945 34:0.076014015 35:0.11553281 36:0.061791438 
-179.4167307044474 0:0.088204971 1:0.066018736 2:0.21256211 3:0.18931761 4:0.13561978 5:0.51668354 6:0.52691541 7:0.29297891 8:0.46667101 9:0.5477612 10:0.51948425 11:0.71342764 12:0.2411225 13:0.033925266 14:0.051472049 15:0.04845439 16:0.045626884 17:0.0098387351 18:0.0039507052 19:0.0010201093 20:0.0059385744 21:0.0098320075 22:0.0038906188 23:0.0084295745 24:0.0061965741 25:0.4469209 26:0.1047009 27:0.18436366 28:0.18129089 29:0.12837477 30:0.081549299 31:0.026141196 32:0.048080055 33:0.071601005 34:0.12529606 35:0.13254877 36:0.060542345 
-362.039 0:0.1102809 1:0.030345547 2:0.45870612 3:0.22399662 4:0.12024171 5:0.55454564 6:0.55930323 7:0.34640003 8:0.51629994 9:0.55756879 10:0.44156284 11:0.50343642 12:0.13737672 13:0.042885699 14:0.087746661 15:0.078182691 16:0.063303073 17:0.010102059 18:0.0097168202 19:0.014018608 20:0.0082185694 21:0.010802094 22:0.012223914 23:0.020257886 24:0.010962312 25:0.29093349 26:0.093338627 27:0.098145909 28:0.12743008 29:0.18179984 30:0.0915149 31:0.12696919 32:0.10850301 33:0.16007932 34:0.18976454 35:0.21033599 36:0.17129525 
-13.62597519026926 0:0.15113984 1:0.020708987 2:0.22229833 3:0.14756496 4:0.2565106 5:0.75022388 6:0.75348062 7:0.43120033 8:0.67295731 9:0.74893242 10:0.31168073 11:0 12:0.0042908906 13:0.04052449 14:0.062944366 15:0.058343386 16:0.057467172 17:0.13360209 18:0.21585296 19:0.017562473 20:0.26535225 21:0.14162355 22:0.21807023 23:0.021205186 24:0.27120053 25:0.088063348 26:0.01264447 27:0.075042957 28:0.026116085 29:0.1907826 30:0.073242516 31:0.1131957 32:0.1132033 33:0.83160533 34:0.88804309 35:1 36:0.86141828 
-362.039 0:0.11679207 1:0.013106349 2:0.49298899 3:0.20404999 4:0.095250341 5:0.59256273 6:0.60248969 7:0.55257159 8:0.54365181 9:0.61292199 10:0.3896009 11:0.52040237 12:0.20879137 13:0.052638034 14:0.0854279 15:0.086698138 16:0.071246063 17:0.0034825967 18:0.0088022771 19:0.014314666 20:0.0068141827 21:0.009615637 22:0.011004491 23:0.019701893 24:0.010258508 25:0.099335598 26:0.040034697 27:0.18121347 28:0.044646435 29:0.23588727 30:0.17104998 31:0.16043234 32:0.16872969 33:0.1932888 34:0.2385893 35:0.30869859 36:0.22213806 
-362.039 0:0.089924392 1:0.026923343 2:0.30391132 3:0.07626263 4:0.081178393 5:0.61772441 6:0.63307013 7:0.30667657 8:0.57001024 9:0.64668345 10:0.35064081 11:0.76058808 12:0.20909136 13:0.023043095 14:0.047459638 15:0.054834414 16:0.03812307 17:0.011746359 18:0.0045646235 19:0.0048503088 20:0.0059114796 21:0.011719087 22:0.0027039239 23:0.0070706385 24:0.0062493333 25:0.23190017 26:0.062143702 27:0.2167865 28:0.099481643 29:0.10511041 30:0.074312799 31:0.11372645 32:0.087409282 33:0.12348417 34:0.15977177 35:0.10679469 36:0.18179149 
-362.039 0:0.093314474 1:0.18970077 2:0.041591735 3:0.022684118 4:0.020436292 5:0.47145444 6:0.4820792 7:0.25623657 8:0.43971009 9:0.46244237 10:0.3246674 11:0.64049523 12:0.22831703 13:0.021894892 14:0.07712055 15:0.084943652 16:0.049624505 17:0.0049144672 18:0.0060475037 19:0.011814984 20:0.0025105274 21:0.0048102065 22:0.0073396497 23:0.013155681 24:0.0044231229 25:0.13647005 26:0.057800293 27:0.16590818 28:0.069391377 29:0.074684776 30:0.092516974 31:0.11797244 32:0.088318132 33:0.085343497 34:0.15212726 35:0.17263292 36:0.10410553 
-362.039 0:0.076645998 1:0.071430311 2:0.14790046 3:0.072401845 4:0.062183806 5:0.39418077 6:0.39416043 7:0.25781282 8:0.36129791 9:0.42868092 10:0.53245448 11:0.56043332 12:0.38296528 13:0.03001843 14:0.10962604 15:0.12207083 16:0.07177119 17:0.0053454185 18:0.0072325507 19:0.0073618667 20:0.0029655287 21:0.0065167204 22:0.011974827 23:0.015407626 24:0.0065913248 25:0.15817248 26:0.07471828 27:0.28982498 28:0.082514156 29:0.46488022 30:0.21030815 31:0.16467833 32:0.28129721 33:0.13355906 34:0.1799444 35:0.10679469 36:0.13969071 
-362.039 0:0.12051443 1:0.020717378 2:0.25910122 3:0.065867857 4:0.12256606 5:0.53021154 6:0.54324008 7:0.30667657 8:0.46822361 9:0.55311599 10:0.40258756 11:0.52040237 12:0.23174768 13:0.031970376 14:0.066376317 15:0.061060009 16:0.046068479 17:0.0094695763 18:0.01288733 19:0.014136542 20:0.010386065 21:0.012834885 22:0.013122628 23:0.018018924 24:0.01080225 25:0.19972953 26:0.046871415 27:0.14047469 28:0.070904156 29:0.16649547 30:0.23761491 31:0.19758476 32:0.28008542 33:0.13355906 34:0.2634669 35:0.24286036 36:0.20209008 
-80.65515089755596 0:0.54671149 1:0.058402113 2:0.12258801 3:0.45827202 4:0.39426601 5:0.45311481 6:0.4841054 7:0.5461734 8:0.54288841 9:0.30914437 10:0.55844503 11:0.5046941 12:0.19795866 13:0.01861741 14:0.06172615 15:0.073914944 16:0.043382507 17:0.0097101771 18:0.010791235 19:0.0079639163 20:0.0065687348 21:0.010022266 22:0.011128395 23:0.014517048 24:0.006136118 25:0.3856193 26:0.078915836 27:0.26538603 28:0.13558778 29:0.24303086 30:0.19069272 31:0.16108221 32:0.2235707 33:0.24465006 34:0.41006484 35:0.437125 36:0.33652056 
-362.039 0:0.23085617 1:0.064747658 2:0.31449834 3:0.30105234 4:0.15795301 5:0.51920302 6:0.56391605 7:0.5461734 8:0.50300911 9:0.50441513 10:0.48052354 11:0.5046941 12:0.22015071 13:0.023004987 14:0.1019833 15:0.10208618 16:0.066319314 17:0.0076350148 18:0.010122647 19:0.016340775 20:0.0065484851 21:0.0086072031 22:0.013555136 23:0.021573786 24:0.010794195 25:0.17514142 26:0.063633875 27:0.15195071 28:0.078934601 29:0.21572782 30:0.14451479 31:0.15433961 32:0.15970615 33:0.1940754 34:0.19713982 35:0.17897025 36:0.21615824 
-155.6403084234722 0:0.75449006 1:0.01444447 2:0.42218696 3:0.68351119 4:0.28496069 5:0.4027394 6:0.40169222 7:0.65778234 8:0.5978165 9:0.14504688 10:0.62337954 11:0.59334336 12:0.069275025 13:0.038565391 14:0.054990589 15:0.059765007 16:0.049116709 17:0.0040625525 18:0.0070882864 19:0.013997137 20:0.0050586854 21:0.0072786968 22:0.0066366328 23:0.016235997 24:0.0063911147 25:0.063824374 26:0.046132807 27:0.10506441 28:0.035386497 29:0.044593083 30:0.029880885 31:0.057813969 32:0.036491268 33:0.3525607 34:0.53929489 35:0.66888693 36:0.4387061 
-62.42127354196172 0:0.5975175 1:0.0039409046 2:0.60298693 3:0.38966156 4:0.26936448 5:0.55767446 6:0.64546172 7:0.68067648 8:0.62038969 9:0.45748009 10:0.51948425 11:0.90361577 12:0.1715475 13:0.030426354 14:0.046203276 15:0.04773756 16:0.038945636 17:0.0077917232 18:0.0031722437 19:0.0065614985 20:0.0044092485 21:0.0096065336 22:0.0017564657 23:0.0068923535 24:0.0047656399 25:0.15296357 26:0.060219024 27:0.15000399 28:0.076757528 29:0.12418234 30:0.064655239 31:0.080525886 32:0.071158115 33:0.37744235 34:0.30720201 35:0.17814547 36:0.37861912 
-362.039 0:0.082441902 1:0.014949202 2:0.36412318 3:0.17944158 4:0.20685479 5:0.5360587 6:0.55090344 7:0.41167031 8:0.45635786 9:0.5823483 10:0.51948425 11:0.5046941 12:0.17640096 13:0.023559551 14:0.10666515 15:0.11404931 16:0.071378904 17:0.0067461842 18:0.0056866534 19:0.0063450178 20:0.0063170599 21:0.0061495321 22:0.0091696077 23:0.014044589 24:0.010157219 25:0.2789761 26:0.10067759 27:0.29082208 28:0.11553931 29:0.096879297 30:0.097532169 31:0.092946465 32:0.086292306 33:0.032885572 34:0.055309094 35:0.051130038 36:0.046351305 
-152.8485030976054 0:0.044344206 1:0.0079425665 2:0.27003579 3:0.69086678 4:0.12210727 5:0.58306792 6:0.58123723 7:0.1662378 8:0.5082423 9:0.60922816 10:0.3896009 11:0.44143639 12:0.14764804 13:0.026388246 14:0.099924646 15:0.11177033 16:0.059665362 17:0.0026751458 18:0.010080842 19:0.015557344 20:0.0055987328 21:0.00042635044 22:0.013620483 23:0.023011808 24:0.0068159568 25:0.091780169 26:0.040791653 27:0.1751025 28:0.042480676 29:0.059439259 30:0.12438884 31:0.14427297 32:0.11022004 33:0.042010159 34:0.13830183 35:0.19388896 36:0.09802551 
-114.5081591481707 0:0.17383636 1:0.019044449 2:0.23227495 3:0.10533615 4:0.04100676 5:0.50618695 6:0.51988521 7:0.37066858 8:0.50051766 9:0.47198736 10:0.42856098 11:0.52123119 12:0.25618753 13:0.031232919 14:0.11883392 15:0.12561379 16:0.067818906 17:0.0057804707 18:0.0077263985 19:0.011817825 20:0.0076056226 21:0.0070896593 22:0.012646383 23:0.018792881 24:0.012686955 25:0.12848097 26:0.11599949 27:0.23771791 28:0.062835391 29:0.070016262 30:0.13696869 31:0.15169665 32:0.12347037 33:0.092682206 34:0.1746014 35:0.17539819 36:0.12064809 
-362.039 0:0.24904158 1:0.25185529 2:0.042185582 3:0.12858769 4:0.028868423 5:0.43345293 6:0.48624055 7:0.42085817 8:0.47305226 9:0.30657924 10:0.40258756 11:0.52123119 12:0.20629554 13:0.034940147 14:0.082344894 15:0.080650222 16:0.061201132 17:0.0067844399 18:0.0062853359 19:0.011438094 20:0.0047876888 21:0.0039512001 22:0.0083919083 23:0.014573954 24:0.0068085909 25:0.24568132 26:0.055270143 27:0.20621758 28:0.095498689 29:0.28031196 30:0.16089774 31:0.13148774 32:0.19459839 33:0.14162188 34:0.12323072 35:0.15426588 36:0.12170381 
-362.039 0:0.16618935 1:0.061556534 2:0.27330799 3:0.1396398 4:0.031932574 5:0.54815626 6:0.54957167 7:0.3502663 8:0.52712475 9:0.46439617 10:0.37661415 11:0.44143639 12:0.13693964 13:0.022006977 14:0.088619372 15:0.11177033 16:0.054991035 17:0.0039497034 18:0.012377582 19:0.017365191 20:0.0084162437 21:0.0066570341 22:0.015114212 23:0.022480223 24:0.011721165 25:0.04923778 26:0.036775685 27:0.13711628 28:0.029174796 29:0.10610251 30:0.14287899 31:0.15788305 32:0.13984831 33:0.13252689 34:0.1953341 35:0.23747435 36:0.16785388 
-308.577804296196 0:0.072156282 1:0.0088701162 2:0.077303689 3:0.36706646 4:0.26208564 5:0.59861045 6:0.61092369 7:0.24295035 8:0.55373185 9:0.58825249 10:0.36362748 11:0.40153899 12:0.11547145 13:0.018931663 14:0.096086756 15:0.10656518 16:0.055113897 17:0.0017184222 18:0.012920237 19:0.016465395 20:0.0052528339 21:0.00046487941 22:0.016238825 23:0.023011808 24:0.0073796593 25:0.057697779 26:0.031886869 27:0.15113571 28:0.032553824 29:0.060683612 30:0.11186816 31:0.14489161 32:0.10719331 33:0.092682206 34:0.16617348 35:0.15690742 36:0.12743487 
-38.95236135042167 0:0.049578941 1:0.011333679 2:0.25836735 3:0.4517966 4:0.30448403 5:0.59607744 6:0.61092369 7:0.1662378 8:0.52626646 9:0.65018065 10:0.35064081 11:0.40153899 12:0.1508814 13:0.024604845 14:0.10821041 15:0.11093972 16:0.06130724 17:0.0039024578 18:0.011711769 19:0.019499111 20:0.0067780871 21:0.0059315888 22:0.015922897 23:0.026572582 24:0.0099516333 25:0.071270049 26:0.044217099 27:0.15403848 28:0.048441497 29:0.094695935 30:0.11752871 31:0.14695374 32:0.10527639 33:0.093548395 34:0.11054917 35:0.13445434 36:0.09696979 
-362.039 0:0.16631361 1:0.070612673 2:0.10748663 3:0.10989457 4:0.054189661 5:0.47691618 6:0.48821965 7:0.31803071 8:0.48249349 9:0.42144599 10:0.3896009 11:0.44143639 12:0.22818821 13:0.023312932 14:0.10073358 15:0.11697547 16:0.057978806 17:0.0056816844 18:0.012088475 19:0.012857956 20:0.007258878 21:0.0057972879 22:0.015739935 23:0.02182207 24:0.0096821307 25:0.14382532 26:0.053012191 27:0.20840517 28:0.064520142 29:0.12808608 30:0.17990947 31:0.17190555 32:0.14418661 33:0.099611716 34:0.15162787 35:0.1146428 36:0.13014958 
-66.3382340620111 0:0.3348535 1:0.29164068 2:0.042892635 3:0.034113345 4:0.03156001 5:0.51283315 6:0.54957167 7:0.47145581 8:0.57707743 9:0.40047032 10:0.41557423 11:0.40153899 12:0.27830225 13:0.036878017 14:0.090105285 15:0.077217043 16:0.065506873 17:0.0069197341 18:0.013356095 19:0.0053087498 20:0.0049416096 21:0.0086858592 22:0.016230315 23:0.01510132 24:0.0079723919 25:0.27697356 26:0.11889052 27:0.21510228 28:0.11225286 29:0.95910668 30:0.3078462 31:0.29315897 32:0.44736352 33:0.1862306 34:0.20072797 35:0.13445434 36:0.18022089 
