svm_type c_svc
kernel_type rbf
gamma 0.00390625
nr_class 2
total_sv 282
rho -0.0203217
label 1 0
probA -1.67407
probB 0.138812
nr_sv 134 148
SV
32 0:2.1786655 1:2.8230931 2:-1.1701237 3:-0.93383065 4:-0.87516088 5:-0.78703456 6:-0.43194771 7:1.023979 8:-0.039427222 9:-1.8297962 10:0.073497783 11:2.4309432 12:1.705493 13:-0.043903078 14:-1.0037629 15:-0.98342963 16:-0.56918103 17:-0.0072479733 18:-0.23532639 19:-0.24065911 20:-0.13557078 21:0.0087012808 22:-0.32961684 23:-0.40037681 24:-0.17828118 25:1.0315999 26:0.12235845 27:-1.2662183 28:0.60866316 29:2.89504 30:2.1242187 31:1.1120815 32:3.5829625 33:0.29091098 34:-0.20887725 35:-0.77429827 36:-0.015540024 
32 0:0.89733823 1:0.73900271 2:-0.89742519 3:-1.1262019 4:-0.95941416 5:-0.68064953 6:-0.16087069 7:0.3388783 8:-0.40851165 9:-1.454525 10:0.24022615 11:0.30704979 12:-0.28202764 13:-0.084173081 14:-0.45324998 15:-0.34058228 16:-0.29725212 17:-0.13711736 18:-0.18067331 19:-0.12614596 20:-0.15903609 21:-0.10956676 22:-0.22187314 23:-0.15792861 24:-0.14015829 25:-0.29409335 26:-0.41752909 27:-0.37651216 28:-0.41608345 29:-0.34511374 30:-0.25269133 31:-0.14218402 32:-0.25192505 33:-0.39133645 34:-0.49352191 35:-1.0121768 36:0.074539708 
32 0:1.3383674 1:-0.41219975 2:-0.19501951 3:-0.60065324 4:-0.83673985 5:-0.61854262 6:-0.53435458 7:3.0668249 8:-0.039427222 9:-0.91155459 10:0.073497783 11:-0.11772891 12:0.91840791 13:0.05822497 14:0.25518986 15:0.5871287 16:0.016467042 17:-0.15115535 18:-0.17597634 19:-0.071213451 20:-0.15627836 21:-0.1680856 22:-0.15215468 23:-0.026554175 24:-0.1478875 25:-0.53747219 26:-0.13028307 27:0.73318845 28:0.029223125 29:0.76785337 30:0.56680268 31:0.31622183 32:0.35396738 33:0.21510571 34:1.0463658 35:0.058276467 36:0.26840696 
32 0:1.1075128 1:-0.35019762 2:0.43201239 3:-0.88163561 4:-0.44706341 5:-0.80495793 6:-0.43797164 7:0.53818034 8:-0.58829149 9:-1.2610258 10:-0.42668682 11:-0.5425076 12:1.6765602 13:-0.17384649 14:0.93125181 15:1.2314994 16:0.26501679 17:-0.13700938 18:-0.16932885 19:-0.095440095 20:-0.12904579 21:-0.11983255 22:-0.083348535 23:0.014337207 24:-0.090513542 25:-0.0015935871 26:0.25235497 27:1.6676909 28:0.34226996 29:0.099250204 30:0.94596009 31:1.0856888 32:0.70301977 33:0.69520576 34:0.37877626 35:0.85686856 36:0.61697635 
32 0:1.860729 1:-0.15820588 2:-0.47919939 3:-1.0756028 4:-0.89235999 5:-0.42449701 6:-0.71507259 7:2.1855362 8:0.32965721 9:-0.90334554 10:-0.0098661517 11:-0.96728629 12:1.0616009 13:-0.21328618 14:0.81356092 15:0.94358907 16:0.33559264 17:-0.14777184 18:-0.14393855 19:-0.068959809 20:-0.1265466 21:-0.119871 22:-0.067444499 23:-0.022059023 24:-0.077762321 25:0.01387393 26:0.049583215 27:1.5913677 28:0.32694022 29:-0.050928352 30:1.1472001 31:0.84420713 32:0.61184937 33:3.3294389 34:1.4683048 35:0.31314628 36:2.3010757 
16.42748970190356 0:-0.62326336 1:-0.52870252 2:1.5426944 3:-1.0452552 4:-0.7707297 5:-1.6459709 6:-1.6668541 7:-1.2057125 8:-1.6610175 9:-1.454525 10:0.65704633 11:2.8557219 12:1.2687237 13:0.18899869 14:-0.74316273 15:-0.8646095 16:-0.44030339 17:-0.022869735 18:-0.29052714 19:-0.33319926 20:-0.13619865 21:-0.003986773 22:-0.36376108 23:-0.41632735 24:-0.1680802 25:0.92542669 26:1.2733834 27:0.44317196 28:0.35950714 29:-0.0056690613 30:0.17446404 31:0.20980618 32:0.013771544 33:-0.39765356 34:-0.63362278 35:-0.77429827 36:-0.53447761 
32 0:-0.51207101 1:0.17792808 2:-0.26550323 3:-1.0024137 4:-0.64675997 5:-0.84197135 6:-0.72712045 7:-0.43341709 8:-0.95023235 9:-0.90334554 10:0.32359009 11:1.1566072 12:1.9521487 13:0.49413737 14:0.28877609 15:0.42108519 16:0.22424937 17:-0.11976785 18:-0.2727482 19:-0.26699854 20:-0.20674232 21:-0.10910538 22:-0.25071971 23:-0.25305183 24:-0.15173248 25:2.4084576 26:0.54187216 27:1.9741277 28:1.5421503 29:-0.34099926 30:0.24972375 31:0.56998221 32:0.055970416 33:-0.36606803 34:-1.3320537 35:-1.7937775 36:-1.0475404 
32 0:-0.26156827 1:-0.10681218 2:-0.025786847 3:-0.24439246 4:0.42267213 5:-0.7727917 6:-0.90783846 7:-0.83202116 8:-0.78950204 9:-0.72743719 10:0.24022615 11:0.73182848 12:1.3695415 13:0.20103818 14:0.28842864 15:0.56427867 16:0.25522676 17:-0.10954531 18:-0.23623032 19:-0.23615183 20:-0.1505413 21:-0.057353496 22:-0.21239791 23:-0.18968469 24:-0.13538476 25:1.0463671 26:0.59522145 27:1.9169167 28:0.53359946 29:-0.16613382 30:0.097118884 31:0.24664237 32:0.084102996 33:-0.59348384 34:-0.8880258 35:-1.2840379 36:-0.91046258 
32 0:0.03821797 1:-0.60550567 2:1.4349684 3:-0.47016548 4:0.10754492 5:-1.1355235 6:-1.1006043 7:-0.62026275 8:-1.2478811 9:-1.0909811 10:0.15686172 11:1.5813859 12:1.9072109 13:0.31728148 14:-0.076460994 15:0.30074173 16:-0.011880196 17:-0.10162645 18:-0.26090855 19:-0.24953282 20:-0.18135645 21:-0.083652371 22:-0.27168509 23:-0.28944806 24:-0.18873064 25:2.0776513 26:0.39179871 27:2.019055 28:1.1258692 29:-0.44180405 30:0.27766928 31:0.5249602 32:0.1117146 33:-0.60611805 34:-0.58075173 35:-1.0121768 36:-1.067123 
32 0:-0.19006352 1:-0.12625973 2:-0.20133119 3:-0.76257012 4:-0.71456083 5:-0.21126753 6:-0.16087069 7:-0.25902781 8:-0.40851165 9:-0.17625769 10:-0.8435075 11:-0.11772891 12:1.36993 13:0.11302539 14:0.41447781 15:0.58560536 16:0.18508927 17:-0.10177043 18:-0.22436881 19:-0.16600724 20:-0.15812505 21:-0.11271955 22:-0.18841319 23:-0.11268709 24:-0.1535765 25:-0.46709198 26:0.10606314 27:1.4319852 28:0.32693253 29:0.33994734 30:0.62735169 31:0.7869064 32:0.69781004 33:-0.80194833 34:-0.64096844 35:-0.19659335 36:-0.60693305 
32 0:-0.45662536 1:0.094429956 2:0.052100825 3:-0.57739937 4:-0.62177254 5:-0.7940527 6:-0.80426917 7:-0.5101231 8:-0.94134862 9:-0.55215264 10:1.1573379 11:0.93592012 12:0.77985253 13:-0.070169265 14:0.21796515 15:0.46564706 16:-0.0070008097 17:-0.14903902 18:-0.2005143 19:-0.15339877 20:-0.19570845 21:-0.15716437 22:-0.17813867 23:-0.10847733 24:-0.18759911 25:-0.64798703 26:0.010485731 27:1.79245 28:0.15917874 29:-0.73087653 30:0.10687266 31:-0.043089862 32:-0.20814403 33:-0.62342217 34:-0.65733832 35:-0.82242472 36:-0.84884944 
32 0:0.16889339 1:-0.11179472 2:-0.24045043 3:0.094121826 4:1.5141631 5:-1.5765077 6:-1.4607317 7:0.28710519 8:-1.6055243 9:-1.4893399 10:1.6575311 11:0.65493624 12:1.8933604 13:-0.065081494 14:-0.66489699 15:-0.70247729 16:-0.37153934 17:-0.024746435 18:-0.14295285 19:-0.22849482 20:-0.086527087 21:0.0415923 22:-0.20110209 23:-0.2768624 24:-0.073731537 25:0.32177689 26:-0.23133875 27:-0.90134124 28:-0.11799162 29:3.2429693 30:1.8903791 31:0.90113196 32:2.0779011 33:2.2431684 34:0.56995188 35:-0.82242472 36:1.3002278 
32 0:-0.69410272 1:-0.58858732 2:1.2088784 3:0.41500807 4:-0.49553775 5:0.54652927 6:0.65453648 7:-0.56129654 8:0.34581358 9:0.71568733 10:0.073586794 11:-0.74998317 12:0.73202709 13:-0.37688915 14:0.87432081 15:0.92436255 16:0.29089752 17:0.15741678 18:-0.041746075 19:-0.0055412706 20:0.051403517 21:0.17404138 22:0.03756853 23:0.098997139 24:0.08797917 25:1.4914202 26:0.21519501 27:1.1329056 28:0.91585053 29:-0.1928363 30:0.71547974 31:0.8815626 32:0.40773683 33:-0.14565708 34:-0.083582307 35:0.038838903 36:0.061829928 
32 0:0.12463115 1:0.43117998 2:-0.52424925 3:-1.0274591 4:-1.0769108 5:-0.045965307 6:0.0084939799 7:0.1281982 8:0.18105682 9:-0.23772832 10:0.40704853 11:-1.5929348 12:0.25249129 13:0.63884792 14:0.70502575 15:0.75634467 16:0.77285582 17:0.06935134 18:0.20921171 19:-0.05002822 20:0.42563111 21:0.1936081 22:0.26960169 23:-0.010503273 24:0.52017197 25:0.27456931 26:-0.23283402 27:0.99209424 28:-0.014139964 29:1.0935618 30:0.86045753 31:0.39722083 32:1.0681429 33:-0.2269788 34:-0.29968903 35:-0.38495748 36:-0.22492378 
32 0:-0.67709381 1:-0.14005023 2:-0.0095074641 3:-0.30983524 4:-0.80978636 5:-0.041021374 6:0.0084939799 7:-0.21654917 8:-0.13815941 9:0.086838709 10:0.40704853 11:-1.030967 12:0.045531516 13:0.40699094 14:0.20438124 15:0.42297585 16:0.18921045 17:-0.065182956 18:-0.024833613 19:-0.013452944 20:-0.051202704 21:0.0010968323 22:-0.006234818 23:0.11077407 24:-0.0045431744 25:-0.53307167 26:-0.36951427 27:-0.056592323 28:-0.27876628 29:0.10643443 30:0.65275132 31:0.51952936 32:0.52698979 33:-0.6437526 34:-0.53547177 35:-0.82242472 36:-0.79370449 
32 0:-0.40672967 1:1.3542128 2:-0.68659333 3:-0.050970808 4:-0.25506548 5:-1.5857266 6:-1.4520313 7:0.20900296 8:-1.5670183 9:-1.5207402 10:1.8241439 11:1.676583 12:2.334129 13:-0.023710384 14:-0.68681712 15:-0.64754758 16:-0.34179753 17:-0.10447725 18:-0.27792932 19:-0.2168183 20:-0.21193641 21:-0.056081303 22:-0.34702813 23:-0.30879794 24:-0.21111929 25:0.021380745 26:-0.055942778 27:0.099734981 28:0.25914814 29:0.28927795 30:0.9298213 31:0.35021243 32:0.65623908 33:-0.59073696 34:-1.1505132 35:-1.1739374 36:-0.91086015 
32 0:0.33093011 1:1.2219952 2:-0.089187803 3:0.98239486 4:-0.70155609 5:-0.7121275 6:-0.95838629 7:-0.31247551 8:-0.82466807 9:-0.62762377 10:0.57368239 11:-0.0204984 12:0.074584467 13:-0.30048205 14:-0.067867793 15:0.047959582 16:-0.16158191 17:-0.019299065 18:-0.078598649 19:-0.013483524 20:-0.042823672 21:-0.0099961557 22:-0.086883191 23:-0.022232232 24:-0.017623244 25:-0.7413604 26:-0.34509925 27:-0.13082625 28:-0.50715008 29:-0.30936462 30:-0.28445688 31:-0.051343003 32:-0.25474995 33:0.74168828 34:0.39942876 35:0.69763745 36:0.72524412 
32 0:-0.42654778 1:-0.36815807 2:0.31302378 3:3.6397215 4:0.80002242 5:-0.73220541 6:-0.94765487 7:0.031478373 8:-0.90950809 9:-0.53883441 10:1.9075083 11:-0.0204984 12:-0.22525976 13:-0.50848015 14:-0.24044266 15:-0.14130453 16:-0.38489578 17:-0.10585945 18:-0.066865241 19:-0.058443665 20:-0.090054687 21:-0.14573471 22:-0.092926317 23:-0.091459699 24:-0.088651011 25:-0.50472801 26:-0.47193119 27:-0.044626143 28:-0.60940756 29:-0.56200277 30:-0.3461452 31:-0.17973147 32:-0.45363763 33:-0.18730821 34:-0.25899224 35:-0.10873255 36:-0.041177796 
32 0:0.49136931 1:0.03374405 2:0.12543531 3:-0.35227099 4:-0.45677488 5:-1.3880981 6:-1.4217449 7:-0.18382321 8:-1.0441531 9:-1.6467446 10:0.49031846 11:-0.90170985 12:1.0670016 13:-0.14316617 14:0.067419261 15:0.53007419 16:0.031575243 17:0.002518008 18:-0.08082657 19:-0.098482107 20:-0.058237055 21:0.024666165 22:-0.063679166 23:0.0086851043 24:-0.032228175 25:-0.2847107 26:-0.19306872 27:-0.044671699 28:-0.3223297 29:0.22642902 30:1.8494449 31:0.98731229 32:1.004501 33:-0.35342776 34:-0.4213056 35:-0.18292871 36:-0.29501517 
32 0:0.22002858 1:0.040039931 2:-1.1101344 3:-1.0240954 4:0.1176602 5:-0.91540631 6:-1.1291104 7:-0.070364364 8:-0.61669798 9:-1.0859534 10:-1.1769637 11:0.89284524 12:1.8488246 13:0.081865747 14:0.11190991 15:0.41049672 16:0.042803758 17:-0.094415048 18:-0.22792779 19:-0.22409079 20:-0.17304885 21:-0.1569109 22:-0.20963089 23:-0.16133781 24:-0.17476284 25:0.35143817 26:0.063320225 27:1.2345171 28:0.42412789 29:0.07056808 30:0.35304424 31:0.72152295 32:0.27269346 33:-0.56202769 34:-1.2006335 35:-0.86674238 36:-0.79414351 
32 0:-0.25178949 1:-0.52086413 2:-0.36421452 3:0.12692339 4:-0.47791184 5:-1.1374182 6:-1.4217449 7:-0.94967045 8:-1.2294138 9:-0.95243174 10:-1.1769637 11:-0.0044323066 12:1.3352159 13:-0.025847699 14:0.21308535 15:0.6672736 16:0.06550226 17:-0.085073003 18:-0.11820034 19:-0.12816611 20:-0.15553887 21:-0.16416462 22:-0.085677862 23:-0.11530219 24:-0.16019765 25:0.19491323 26:-0.026918759 27:0.8807158 28:0.33347088 29:-0.3588447 30:0.57938788 31:0.70570216 32:0.39553403 33:-0.13830908 34:-0.50592724 35:-0.44593397 36:-0.23439229 
32 0:-0.53383369 1:-0.18500006 2:0.08106093 3:0.21229574 4:-0.9430737 5:-1.0355171 6:-0.99193794 7:-0.94021555 8:-1.1769986 9:-0.8100086 10:0.073497783 11:-0.0044323066 12:-0.27515041 13:-0.17541159 14:-0.83513983 15:-0.5914366 16:-0.23464921 17:-0.024536553 18:-0.032799778 19:0.066022856 20:-0.03155031 21:-0.059336626 22:-0.11571501 23:-0.021024782 24:-0.017251754 25:-0.42057013 26:-0.57493481 27:-1.6629871 28:-0.46193199 29:1.5496566 30:0.17740158 31:0.88289505 32:0.53972065 33:-0.87492758 34:-0.72805903 35:-0.72647291 36:-0.59105688 
32 0:0.39781453 1:0.073926227 2:-0.015089526 3:0.39382012 4:-0.45032672 5:-0.39115604 6:-0.27864134 7:0.96022019 8:-0.19195396 9:-0.53406376 10:-0.67677913 11:0.89284524 12:-0.47151857 13:-0.079361386 14:-1.2577545 15:-1.3189711 16:-0.81563429 17:0.13211085 18:-0.11606296 19:-0.18972753 20:0.028571551 21:0.16732272 22:-0.24859563 23:-0.33592016 24:-0.013059948 25:0.45851385 26:-0.39346309 27:-1.4697689 28:-0.068779247 29:0.14372729 30:-0.15067323 31:-0.6485578 32:-0.50663928 33:0.25607517 34:-0.55238617 35:-1.0070119 36:-0.084855862 
32 0:-0.58259509 1:-0.48065974 2:0.029890583 3:1.2232272 4:-0.51768141 5:-0.34529866 6:-0.41581376 7:-0.50528996 8:-0.48114138 9:-0.25811893 10:-0.67677913 11:3.1360391 12:0.17446094 13:-0.21829115 14:-1.1473149 15:-1.2610704 16:-0.69248284 17:-0.02502234 18:-0.18360201 19:-0.20361906 20:-0.098152142 21:-0.02232704 22:-0.30550245 23:-0.28076567 24:-0.17894139 25:-0.36846487 26:-0.49647435 27:-0.79438398 28:-0.56211727 29:-0.2506963 30:-0.67708143 31:-0.3954251 32:-0.52879086 33:-0.10245596 34:-0.92098319 35:-0.72647291 36:-0.692095 
0.447940649035759 0:-0.68871202 1:-0.64320234 2:2.6329584 3:0.30767294 4:-0.40759665 5:-1.8661349 6:-1.920138 7:0.080914103 8:-1.89093 9:-1.6333924 10:0.40695402 11:-2.6962649 12:1.2676332 13:-0.22892528 14:-0.092140459 15:-0.29563971 16:0.0075486368 17:0.11223098 18:0.25954754 19:0.30612699 20:0.16359012 21:0.14774546 22:0.26767989 23:0.35108419 24:0.20350785 25:-0.65897023 26:-0.67302462 27:-1.0935809 28:-0.86721823 29:2.7806399 30:6.6435865 31:7.6320457 32:5.121875 33:-0.3599465 34:-0.5567417 35:-0.18292871 36:-0.54963124 
32 0:-0.65826877 1:-0.53082231 2:0.35710027 3:0.44139605 4:-0.5147908 5:-1.0326972 6:-0.99783966 7:-0.59936575 8:-1.0084423 9:-0.86290363 10:-0.093144076 11:-0.37413589 12:-0.53296898 13:-0.20926167 14:-0.88834085 15:-0.80549839 16:-0.66470665 17:-0.048185705 18:-0.032882425 19:0.10649466 20:-0.062179926 21:-0.091068607 22:-0.1231925 23:-0.088615926 24:-0.10015149 25:-0.48698147 26:-0.70822615 27:-1.6811872 28:-0.72100323 29:-0.14076365 30:0.051764238 31:0.36631965 32:-0.0086885692 33:-0.32839805 34:-0.23470592 35:-0.12681416 36:-0.25661879 
32 0:-0.55336625 1:-0.59594631 2:0.93092984 3:0.47715721 4:1.7404685 5:-0.79932748 6:-0.79270002 7:-0.59936575 8:-0.87904456 9:-0.72695128 10:-0.17650951 11:0.51182045 12:1.2441768 13:-0.066840638 14:0.34259745 15:0.72627532 16:0.12710936 17:-0.14943987 18:-0.22228226 19:-0.16172154 20:-0.19684344 21:-0.11167807 22:-0.18131291 23:-0.1404335 24:-0.14765036 25:-0.45961663 26:0.078984882 27:1.4045938 28:0.19771795 29:-0.28349377 30:0.13925659 31:0.18963116 32:0.10637285 33:-0.48223608 34:-0.36838196 35:0.47383867 36:-0.39968467 
32 0:-0.26096033 1:0.043193811 2:1.2016604 3:-0.20164453 4:-1.0014153 5:-0.99500051 6:-1.0201446 7:0.026401846 8:-1.0266936 9:-0.88834904 10:1.4908002 11:-0.0076901883 12:0.41882134 13:0.083127277 14:0.18320871 15:0.22580001 16:0.25243408 17:-0.080158454 18:-0.19963581 19:-0.19407276 20:-0.13740621 21:-0.074020101 22:-0.19205978 23:-0.20329905 24:-0.14388818 25:0.60166932 26:0.058544075 27:1.5578788 28:0.60934617 29:-0.45467447 30:0.51616082 31:0.24864591 32:0.20177708 33:-0.42492946 34:-0.78928094 35:-0.78942827 36:-0.49481655 
32 0:-0.12680076 1:-0.30891023 2:0.52906645 3:-0.99663642 4:-0.58125276 5:-0.60321974 6:-0.42086554 7:0.33620135 8:-0.50356603 9:-0.59668415 10:1.3240693 11:-0.86337561 12:0.65171755 13:0.63991739 14:0.93756426 15:-0.24800346 16:0.57874851 17:0.1829466 18:0.0017664467 19:0.15768514 20:0.075285979 21:0.24035922 22:0.059930033 23:0.19996255 24:0.11645779 25:0.45994437 26:0.59689885 27:-0.48451942 28:-0.066264635 29:0.18798296 30:0.87212628 31:1.0192945 32:0.62157255 33:1.4864209 34:0.1429959 35:0.73832773 36:0.79080571 
32 0:0.24427482 1:-0.54602483 2:1.6035653 3:-0.5363922 4:0.46046972 5:-0.18058996 6:-0.10125002 7:1.379193 8:-0.098882439 9:0.006089967 10:1.4908002 11:0.42015252 12:0.11123645 13:0.0097838671 14:-0.76949534 15:-0.54555205 16:-0.50308838 17:0.082001782 18:-0.1486465 19:-0.044123264 20:-0.038109993 21:0.072527517 22:-0.19334886 23:-0.10697431 24:-0.071015205 25:1.2573675 26:-0.17910442 27:-0.75756494 28:0.16934315 29:-0.56471855 30:-0.0056665531 31:0.23463412 32:-0.18524625 33:0.656967 34:0.17713158 35:-0.061925414 36:-0.09515572 
32 0:0.076864241 1:-0.59816992 2:1.2207834 3:0.16562526 4:1.2425336 5:-0.45706419 6:-0.40088957 7:1.2862532 8:-0.41473305 9:-0.59668415 10:1.9076279 11:-1.2912183 12:0.064672013 13:0.33311468 14:0.30502662 15:0.045754692 16:0.40641086 17:0.044951087 18:0.032633109 19:0.083537932 20:0.072556683 21:-0.024337392 22:0.055973437 23:0.10891434 24:0.055036717 25:0.27109675 26:-0.31957418 27:-0.57622472 28:0.031310045 29:0.3784168 30:0.70973741 31:0.66899971 32:1.0108253 33:1.7388635 34:1.5285027 35:0.3745763 36:1.3441822 
16.85393461451521 0:1.3652121 1:-0.24214175 2:-0.57260168 3:-0.61608542 4:1.1783921 5:-0.74180599 6:-0.72050509 7:1.6373593 8:-0.41473305 9:-1.1994583 10:1.5741656 11:-0.86337561 12:1.46517 13:0.1771308 14:-0.085530345 15:-0.42615357 16:-0.14259727 17:0.2217455 18:-0.044739135 19:0.044036888 20:0.071756219 21:0.26560244 22:-0.046566923 23:0.05266878 24:0.079732727 25:-0.41235135 26:-0.21602715 27:-0.38890503 28:-0.29670489 29:2.6925862 30:2.1347449 31:1.5237191 32:2.7116323 33:4.6239207 34:3.4039569 35:3.7938397 36:4.3262669 
32 0:-0.14520693 1:-0.17139942 2:0.45063492 3:-0.85650934 4:-0.50358136 5:-0.47611013 6:-0.40088957 7:-0.30405096 8:-0.41473305 9:-0.30501925 10:1.3240693 11:-0.0076901883 12:0.748434 13:0.039741035 14:0.12426095 15:-0.1305002 16:0.18062672 17:0.0079567851 18:-0.13015911 19:-0.14927549 20:-0.065846582 21:-0.060981739 22:-0.12329595 23:-0.17163987 24:-0.083742915 25:0.86725901 26:0.034452307 27:0.12781621 28:1.3265114 29:0.24168447 30:0.075992383 31:-0.31182582 32:0.20512118 33:-0.44296107 34:-0.62003683 35:-0.76517817 36:-0.90006705 
32 0:-0.47544228 1:-0.6042787 2:2.8550157 3:-0.52938367 4:-0.36185428 5:-0.27676748 6:-0.40088957 7:-0.78940351 8:-0.41473305 9:-0.19807546 10:1.7408965 11:-2.1469037 12:-0.19145196 13:-0.0201733 14:0.86794417 15:-0.24989868 16:1.1332104 17:0.0502521 18:0.10188247 19:0.28876682 20:0.13687355 21:0.022279217 22:0.15989088 23:0.24049079 24:0.19708687 25:-0.22019704 26:-0.27246917 27:-0.53915046 28:0.19359746 29:1.1995081 30:0.36176804 31:0.1277942 32:0.78476441 33:0.079955553 34:-0.060211764 35:0.32607611 36:0.13402042 
32 0:-0.50346266 1:0.084256372 2:0.41825466 3:-0.43034295 4:-0.11573343 5:-0.26667422 6:-0.10125002 7:0.97645365 8:-0.41473305 9:0.006089967 10:1.5741656 11:1.2758379 12:-0.053998979 13:0.52731976 14:-1.0207378 15:-1.493159 16:-0.23349266 17:0.062658725 18:-0.186207 19:-0.061225672 20:-0.061612798 21:0.091102718 22:-0.24663546 23:-0.085755926 24:-0.10952235 25:-0.038250331 26:-0.073003711 27:-0.32022023 28:0.1544768 29:0.23112024 30:-0.51108332 31:-0.21024031 32:-0.28289384 33:0.061923946 34:-0.70236405 35:-0.78942827 36:-0.51438037 
3.974876952555888 0:-0.20784227 1:0.053942576 2:-0.31430296 3:-0.15970046 4:1.6681521 5:-1.3418663 6:-1.3397602 7:1.616706 8:-1.3425442 9:-1.1994583 10:2.4078205 11:2.5593661 12:1.399994 13:0.31038855 14:-1.6043719 15:-1.9688577 16:-0.43728012 17:-0.02413126 18:-0.26156938 19:-0.29403909 20:-0.11354657 21:-0.0041547221 22:-0.35807732 23:-0.38943705 24:-0.2007933 25:1.986823 26:0.022161625 27:-0.16994096 28:0.9463873 29:1.8949867 30:0.52468429 31:0.27316655 32:1.1773612 33:-0.46099268 34:-0.60477618 35:-0.76517817 36:-0.94198951 
4.461221095756506 0:0.18306574 1:-0.58282364 2:1.3064312 3:-0.44213659 4:1.0262655 5:-0.65468083 6:-0.72050509 7:1.616706 8:-0.710843 9:-0.59668415 10:2.0743587 11:0.84799523 12:1.5147859 13:1.0598342 14:-1.3043687 15:-2.0257141 16:-0.15841307 17:0.16704356 18:-0.14226574 19:-0.37326185 20:0.046228141 21:0.14221429 22:-0.21716447 23:-0.35081735 24:-0.0043592649 25:1.727145 26:-0.37938842 27:-0.84133209 28:0.44802318 29:3.5843328 30:1.3100946 31:0.55690537 32:1.8914371 33:0.0078291227 34:0.32532057 35:-0.74092808 36:-0.29917838 
32 0:1.1711759 1:4.2492701 2:-1.5333982 3:-1.3765253 4:-1.0417556 5:-0.69651585 6:-0.30282703 7:1.2152204 8:-0.5708983 9:-1.0127532 10:-0.83886194 11:0.55664878 12:1.5356641 13:0.00083857516 14:0.19269432 15:0.26571764 16:0.081343008 17:-0.12943828 18:-0.19686461 19:-0.15222731 20:-0.16970831 21:-0.10867676 22:-0.17686896 23:-0.13536276 24:-0.14487739 25:-0.057168924 26:-0.0058774965 27:1.7117541 28:0.092712845 29:1.6053819 30:1.4257695 31:0.49197673 32:1.7001853 33:-0.27659884 34:-1.0093574 35:-1.1946312 36:-0.72227917 
32 0:-0.15557927 1:0.055312858 2:-1.1065219 3:0.53835491 4:-0.18646171 5:-0.40924015 6:-0.49026745 7:1.1576872 8:-0.38566584 9:-0.12444075 10:-1.3436921 11:-0.32887469 12:0.73128708 13:0.043693563 14:0.50894918 15:0.52668344 16:0.53529043 17:-0.15057703 18:-0.11375607 19:-0.025616997 20:-0.11859613 21:-0.1376777 22:-0.062674105 23:-0.046861747 24:-0.11377764 25:-0.5326683 26:0.29020216 27:0.4158994 28:-0.1977627 29:0.43345597 30:0.56842263 31:0.013252701 32:1.7671389 33:0.18250419 34:-0.006878535 35:-0.43859201 36:-0.28661039 
32 0:0.83973108 1:1.2933707 2:-1.1100887 3:-1.1843412 4:-0.50966148 5:-1.1303659 6:-1.0408737 7:0.63383235 8:-0.9297862 9:-1.5304603 10:-0.42668682 11:0.11388704 12:2.6491519 13:0.22970245 14:0.2571309 15:-0.30807256 16:0.026144029 17:-0.049240442 18:-0.14356566 19:-0.21823349 20:-0.082932706 21:0.075246763 22:-0.1169042 23:-0.12267205 24:-0.057707721 25:2.536028 26:0.31086244 27:0.16675049 28:2.4471721 29:2.8248384 30:2.1463965 31:0.12554599 32:1.7448822 33:1.3349465 34:0.93322951 35:0.31744722 36:1.5141539 
32 0:0.77971245 1:-0.20846333 2:0.36231873 3:-0.60747029 4:-0.96760818 5:-0.48840676 6:-0.48440993 7:1.3000061 8:-0.3683003 9:-0.49504607 10:-0.92687143 11:-1.2143982 12:-0.50634039 13:0.065576961 14:-0.060862663 15:0.5835606 16:0.098031072 17:0.0013631432 18:0.017929222 19:0.016924068 20:0.11276612 21:-0.062408086 22:0.015570794 23:0.073032085 24:0.077564904 25:-0.080817407 26:-0.4077413 27:0.17746165 28:-0.28868277 29:0.25967228 30:-0.0058225327 31:-0.27634579 32:0.05493239 33:5.1295736 34:2.4423629 35:1.52711 36:3.8086762 
24.20389827172765 0:-0.080875983 1:-0.19975687 2:-0.45054362 3:-0.41523383 4:-0.73695913 5:-1.5196515 6:-1.4040395 7:-0.55014011 8:-1.659139 9:-1.3719553 10:-0.67677913 11:1.4421723 12:1.2567758 13:0.31404471 14:-0.082964129 15:0.058283282 16:0.10091939 17:-0.010716144 18:-0.27843121 19:-0.28390204 20:-0.161106 21:-0.063692097 22:-0.28561477 23:-0.20315788 24:-0.17400423 25:2.0957254 26:0.39396287 27:1.7401711 28:1.4795543 29:0.56267974 30:0.48388644 31:0.1905579 32:0.2636922 33:0.29493759 34:-0.59102661 35:-1.1946312 36:-0.28661039 
32 0:-0.53423517 1:-0.63710737 2:1.3868622 3:-0.28389128 4:-0.072475132 5:-0.91796297 6:-1.0291586 7:-1.0164617 8:-1.1150187 9:-0.65925273 10:-0.51005076 11:2.3276957 12:2.225855 13:0.023177877 14:-0.35132503 15:-0.20268252 16:-0.1683361 17:0.0086538557 18:-0.31533125 19:-0.21536365 20:-0.18257488 21:-0.049346593 22:-0.34858641 23:-0.27663043 24:-0.17938079 25:2.9150612 26:1.3593969 27:0.98572126 28:3.8386133 29:0.58050371 30:0.68669843 31:0.70474297 32:0.57852455 33:1.344316 34:0.32223083 35:0.36784983 36:0.22166986 
32 0:0.16850705 1:-0.4352153 2:-0.10202103 3:0.080174672 4:-0.41684148 5:-0.51026199 6:-0.47855242 7:-0.071706228 8:-0.38566584 9:-0.83030133 10:-0.51005076 11:-1.2143982 12:0.97488714 13:0.12256498 14:0.73306609 15:1.1021465 16:0.46147784 17:0.11106895 18:-0.011700107 19:0.085462452 20:0.042309819 21:0.036460771 22:0.061805502 23:0.21897527 24:0.041043404 25:0.40263881 26:0.50125253 27:0.26200905 28:0.20105215 29:-0.2334575 30:1.3807594 31:1.6385503 32:0.73763338 33:4.4456038 34:2.041708 35:1.1238891 36:4.0410329 
32 0:-0.75988748 1:-0.30809437 2:0.57685538 3:-0.61212955 4:-0.57252038 5:-0.65522816 6:-0.52346913 7:-0.80071257 8:-0.91028312 9:-0.430522 10:0.74051077 11:2.0635727 12:2.5454383 13:-0.21634806 14:-0.69252714 15:-0.76490811 16:-0.36992255 17:-0.11096033 18:-0.21501939 19:-0.20989217 20:-0.17512181 21:-0.12803446 22:-0.2640729 23:-0.27590009 24:-0.20798837 25:0.36780472 26:-0.36939788 27:-0.28576784 28:-0.091492767 29:0.6792647 30:0.6295189 31:0.85470024 32:0.58094104 33:-0.60700431 34:-1.0861957 35:-1.0834894 36:-0.89576329 
32 0:-0.48646381 1:-0.53169703 2:0.63292064 3:-0.93302001 4:-0.90943582 5:-0.098218661 6:-0.097657292 7:-0.55928518 8:-0.089052237 9:-0.11632001 10:0.99060708 11:1.4430869 12:2.3040132 13:-0.080897287 14:-0.10561658 15:0.33875111 16:-0.05875696 17:-0.15437424 18:-0.26874025 19:-0.25968749 20:-0.20667659 21:-0.11386063 22:-0.27541746 23:-0.2181908 24:-0.2084805 25:0.22495971 26:0.13660411 27:1.5481974 28:0.31340033 29:-0.48443112 30:0.18708555 31:0.4835759 32:0.019693576 33:-0.78093186 34:-0.97962757 35:-1.0697301 36:-1.0590977 
32 0:-0.25879188 1:-0.29261997 2:0.24117345 3:-0.10317258 4:0.00024340963 5:0.063501677 6:0.12211656 7:-0.36046262 8:-0.027968948 9:-0.0066835747 10:0.65714534 11:0.82260107 12:1.4969594 13:-0.26315825 14:0.047092916 15:0.18769841 16:-0.15363734 17:-0.11184535 18:-0.22771747 19:-0.14268721 20:-0.16798783 21:-0.13308604 22:-0.22292792 23:-0.163256 24:-0.17498246 25:0.10069929 26:0.029122168 27:0.84711554 28:0.12216495 29:-0.20191556 30:0.13035829 31:0.20081449 32:0.03296556 33:-0.36145955 34:-0.72065483 35:-0.64318971 36:-0.63093949 
32 0:-0.56811064 1:-0.54450068 2:3.81283 3:-0.70143684 4:-0.53097117 5:-0.49219948 6:-0.52346913 7:-0.81491418 8:-0.57500374 9:-0.430522 10:1.3240693 11:0.51235816 12:0.30978492 13:0.40745586 14:-0.27885541 15:-0.63090975 16:-0.13482485 17:-0.0758704 18:-0.16702552 19:-0.075388653 20:-0.12804735 21:-0.079088142 22:-0.1855229 23:-0.15456261 24:-0.12295875 25:0.64319823 26:-0.13471636 27:0.080664554 28:-0.00031009514 29:-0.10953376 30:-0.18043007 31:-0.13496468 32:-0.17893629 33:0.65141262 34:-0.30834201 35:-0.23040872 36:0.14608843 
32 0:1.8889285 1:1.9674774 2:-1.2299183 3:-0.8692675 4:-0.51952486 5:-1.6076879 6:-1.5740398 7:0.42542031 8:-0.97245529 9:-2.3041247 10:0.15686172 11:0.70736167 12:1.5169694 13:-0.27552517 14:0.45573804 15:0.53235101 16:0.29798074 17:-0.12439897 18:-0.20418748 19:-0.21734918 20:-0.17929597 21:-0.10093145 22:-0.14397169 23:-0.057995773 24:-0.14407989 25:-0.058246262 26:0.18791941 27:1.7602823 28:0.3748111 29:-0.1905569 30:0.34794897 31:0.29468509 32:0.25783655 33:1.3029059 34:0.83782734 35:-0.26661972 36:0.56423951 
32 0:0.83767898 1:1.7484304 2:-1.1722684 3:-1.2019987 4:-0.99101663 5:-1.6536978 6:-1.3916584 7:0.27142515 8:-1.1586961 9:-2.0319158 10:-0.25995846 11:-0.0023433763 12:0.58047436 13:-0.29917709 14:0.09429829 15:-0.071021333 16:-0.019809079 17:-0.19136561 18:-0.16303904 19:-0.14103363 20:-0.16853496 21:-0.07878892 22:-0.14310745 23:-0.15324976 24:-0.12023675 25:-0.80761609 26:-0.20848833 27:0.31850677 28:-0.24053473 29:0.6978321 30:0.20588441 31:-0.1389128 32:0.31770511 33:-0.39665151 34:-0.2108957 35:-0.19208678 36:-0.60112969 
32 0:3.242926 1:-0.3110106 2:0.25099497 3:-0.33406115 4:0.97012363 5:-1.4885487 6:-1.0018469 7:1.8860597 8:-0.82978309 9:-2.6206335 10:1.3240693 11:-0.57256342 12:0.49746178 13:0.14973785 14:-0.22055608 15:-0.29848977 16:-0.066927132 17:0.016850776 18:-0.15211835 19:-0.059857906 20:-0.093532263 21:0.088966184 22:-0.17277872 23:-0.099891279 24:-0.065270013 25:2.1474055 26:0.60594479 27:0.40279598 28:1.1655455 29:1.0696066 30:0.77228531 31:0.39635439 32:1.4630452 33:2.5449974 34:1.2047383 35:0.15359445 36:1.7906729 
32 0:0.37563844 1:-0.59342517 2:1.2487047 3:-0.40589192 4:0.81507338 5:-1.4376777 6:-1.3440078 7:0.99594732 8:-1.4569605 9:-0.95536066 10:0.74051077 11:-0.17964978 12:0.28700466 13:0.028996521 14:0.38650573 15:0.4607811 16:0.12693583 17:-0.095680478 18:-0.072209436 19:-0.019532368 20:-0.093340213 21:-0.11361064 22:-0.037307015 23:0.015963969 24:-0.11650486 25:-0.55073779 26:-0.29099643 27:-0.096042784 28:-0.083085368 29:-0.052946118 30:0.14673651 31:0.015532757 32:0.15206883 33:0.58716267 34:-0.30269785 35:-1.0135267 36:0.589758 
32 0:-0.64691525 1:-0.16085037 2:-0.20668251 3:0.55568784 4:0.42230471 5:-1.5427864 6:-1.5316444 7:-0.43051485 8:-1.6314794 9:-1.2776715 10:1.3240693 11:-0.57256342 12:-0.37630906 13:-0.43007653 14:0.21382315 15:0.53435993 16:-0.0034073534 17:-0.15612433 18:-0.13150521 19:-0.039695137 20:-0.14229023 21:-0.19030197 22:-0.11481482 23:-0.015632917 24:-0.14802275 25:-0.73328659 26:-0.29193863 27:0.42901362 28:-0.38490729 29:-0.43947966 30:-0.29201531 31:-0.12451133 32:-0.36081315 33:0.00050652037 34:-0.52119779 35:-0.71474367 36:-0.1828736 
32 0:-0.17522375 1:0.062377848 2:0.069671802 3:-0.096824188 4:1.3513339 5:-0.041880407 6:0.024635784 7:0.81336016 8:-0.093531409 9:0.065290414 10:0.5737799 11:0.21326386 12:-0.2166922 13:0.49020281 14:-0.19157224 15:-0.1012359 16:0.20712392 17:0.037857491 18:-0.14936097 19:-0.14464493 20:-0.041464262 21:0.054737933 22:-0.16743816 23:-0.08314763 24:-0.025531651 25:1.7864255 26:0.092216131 27:0.22163061 28:0.91973226 29:-0.36818349 30:-0.57181643 31:-0.35054739 32:-0.53813272 33:-0.065448905 34:-0.65150795 35:-0.72408064 36:-0.68002653 
32 0:-0.22378547 1:-0.41724743 2:0.076883301 3:0.38400133 4:0.51371282 5:0.037920716 6:0.024635784 7:-0.076752234 8:0.073352307 9:0.0062000884 10:0.65714534 11:0.99909114 12:-0.38224731 13:0.64294273 14:-0.36991551 15:-0.39868222 16:0.07933354 17:0.097277427 18:-0.18412155 19:-0.25786664 20:-0.025207839 21:0.029675406 22:-0.21926484 23:-0.31971919 24:-0.084853001 25:4.562867 26:0.63774146 27:0.40279598 28:2.5888769 29:-0.34315501 30:-0.79726552 31:-0.95003434 32:-0.69793924 33:-0.28414321 34:-0.58185269 35:-0.45330854 36:-0.68325479 
32 0:2.2849935 1:-0.63547659 2:0.50655869 3:0.59419591 4:2.3211701 5:-0.68931177 6:-0.65968599 7:1.3497099 8:0.046083726 9:-1.1154417 10:0.82387621 11:1.7849184 12:0.52681869 13:0.2572531 14:-0.75571538 15:-1.034278 16:-0.26394356 17:-0.065722789 18:-0.22569759 19:-0.27802941 20:-0.1850043 21:-0.049235751 22:-0.29554607 23:-0.32377007 24:-0.2229569 25:1.7112145 26:0.19166069 27:1.0577628 28:0.74690923 29:2.7108304 30:0.81581359 31:-0.37511653 32:1.4317719 33:-0.32579927 34:2.4302119 35:3.0573918 36:1.3225743 
26.06511268385419 0:1.5504837 1:-0.589736 2:1.3098464 3:0.66026256 4:1.6404781 5:-1.731271 6:-1.5316444 7:1.3497099 8:-1.0261169 9:-1.9545243 10:1.8242619 11:-1.3583907 12:-0.31062446 13:0.48380309 14:-0.35002581 15:-0.348586 16:-0.12053602 17:0.11894473 18:-0.038875189 19:-0.1043194 20:0.0014531464 21:0.086066091 22:-0.062809748 23:-0.049390274 24:0.0015045627 25:0.85372573 26:0.037029036 27:-1.1091466 28:1.0138381 29:-0.18878858 30:-0.022547678 31:-0.060631569 32:0.034168524 33:-0.09321961 34:1.9668228 35:2.3197713 36:1.5840639 
19.04401625419715 0:2.6994556 1:-0.44525261 2:0.65817528 3:0.63752928 4:1.2438536 5:-1.9746147 6:-2.0504044 7:1.1671228 8:-1.2824415 9:-2.1264235 10:2.2410896 11:-1.7513044 12:0.24130338 13:0.27133248 14:0.25534041 15:0.55627703 16:0.44573604 17:0.11293338 18:0.053930523 19:-0.11039408 20:0.075742401 21:-0.021810186 22:0.086267169 23:-0.060057598 24:-0.007239582 25:3.699071 26:0.33171476 27:0.65150545 28:2.1661302 29:1.152347 30:1.3070457 31:1.1629115 32:1.4402157 33:2.767163 34:3.3982161 35:3.6549578 36:3.0841313 
32 0:0.9640953 1:0.42435581 2:-1.1176705 3:-0.69153806 4:-0.89282761 5:-0.88158707 6:-0.78682062 7:1.2901661 8:-0.62423894 9:-1.1430394 10:-0.76014306 11:0.0061874999 12:0.88988074 13:0.32846919 14:0.48508819 15:0.89353978 16:0.35489881 17:-0.15019049 18:-0.17256305 19:-0.13573744 20:-0.17436239 21:-0.17231525 22:-0.12826308 23:-0.057712363 24:-0.15705113 25:-0.43424264 26:0.16111921 27:1.7669156 28:0.16639292 29:-0.42154827 30:0.34139021 31:0.20045411 32:0.015614244 33:-0.35599638 34:-0.63772333 35:-0.15572262 36:-0.55010473 
32 0:-0.59600045 1:-0.52943264 2:-0.0031509228 3:1.7775969 4:-0.35502755 5:-1.128769 6:-0.98826391 7:-0.33697195 8:-1.2090082 9:-1.0021055 10:-0.42668682 11:0.0061874999 12:0.91240186 13:-0.20046896 14:0.27959837 15:0.85040994 16:0.13847904 17:-0.12307589 18:-0.14577834 19:-0.05944754 20:-0.13302578 21:-0.11593529 22:-0.1175425 23:-0.029490032 24:-0.13248641 25:0.20443819 26:0.30809181 27:0.77666073 28:1.2380669 29:-0.23784128 30:0.29741967 31:0.48313599 32:0.2347755 33:-0.35599638 34:-0.098917676 35:-0.42485728 36:-0.62764937 
32 0:-0.23202176 1:-0.64954195 2:1.945081 3:-0.2290316 4:0.23239319 5:-0.96319199 6:-0.88124717 7:0.88663589 8:-1.0223797 9:-0.81827856 10:-0.25995846 11:-0.70114983 12:0.93074816 13:-0.074111511 14:0.43298516 15:0.47167603 16:0.1296878 17:-0.097815276 18:-0.15062557 19:-0.1002564 20:-0.11853022 21:-0.11870019 22:-0.11009498 23:-0.033003655 24:-0.10127706 25:-0.10243815 26:-0.078667093 27:0.85198249 28:0.052988112 29:-0.174692 30:0.59991428 31:0.10051607 32:0.056684264 33:0.055361534 34:-0.81402371 35:-0.90331891 36:-0.50702438 
32 0:-0.36603439 1:-0.14124031 2:-0.36494533 3:-0.15484821 4:0.075227691 5:-0.98704659 6:-0.78682062 7:-0.1384611 8:-1.0099378 9:-0.87342664 10:-0.17659452 11:-0.34748117 12:0.52462696 13:0.11505734 14:0.20965885 15:0.78571518 16:0.0672441 17:0.0086732748 18:-0.082405237 19:-0.11442614 20:-0.022609857 21:-0.079390496 22:-0.05854874 23:-0.10735646 24:-0.066632932 25:1.0723699 26:-0.13921966 27:0.65693138 28:0.46778483 29:0.51420922 30:0.38137614 31:0.049119367 32:0.23441205 33:0.17765713 34:-0.52099154 35:-0.64913617 36:-0.17616727 
32 0:0.97575552 1:-0.64623318 2:3.1300489 3:-1.2087422 4:-0.95746742 5:0.010794597 6:0.19521541 7:0.83782175 8:0.34622921 9:-0.40895729 10:-0.0098661517 11:-1.0548185 12:0.50845703 13:0.43095096 14:-0.16589082 15:-0.22244485 16:0.094910665 17:0.10687681 18:-0.056704989 19:-0.15704873 20:0.050363334 21:0.18685154 22:-0.062673348 23:-0.033003655 24:0.058684951 25:0.99371008 26:-0.1719976 27:-0.55304441 28:0.29641973 29:1.642285 30:1.267386 31:0.67159058 32:1.3331259 33:1.0114907 34:0.96928435 35:0.75634486 36:1.5763415 
32 0:0.073121628 1:-0.66917199 2:2.6278495 3:-0.4835434 4:-0.71158882 5:-0.085517634 6:0.0063623269 7:0.45707144 8:-0.03946967 9:-0.24228756 10:0.15686172 11:1.7745308 12:1.7216605 13:-0.085498374 14:-0.67601796 15:-0.81278454 16:-0.47186608 17:0.022607168 18:-0.20967778 19:-0.25249612 20:-0.089628277 21:0.037126084 22:-0.25992684 23:-0.38368595 24:-0.11663128 25:1.5714473 26:0.23848137 27:0.31754697 28:0.74104103 29:1.7456202 30:0.085731828 31:-0.3392113 32:0.48373978 33:0.16098046 34:-0.98904233 35:-0.87341506 36:-0.62592615 
32 0:0.16312345 1:-0.43697901 2:0.96784142 3:-0.45393096 4:-0.32253344 5:-0.21572616 6:-0.18878586 7:0.47008854 8:-0.03946967 9:-0.37464294 10:0.073497783 11:0.35985617 12:-0.10933293 13:-0.24675104 14:-0.73400834 15:-0.55939673 16:-0.51220238 17:-0.016268685 18:-0.10602375 19:-0.10014304 20:-0.052244998 21:-0.0286305 22:-0.15887892 23:-0.16062753 24:-0.095552443 25:-0.052687976 26:-0.46742023 27:-0.76329568 28:-0.49241298 29:0.51420922 30:-0.12164522 31:-0.21357491 32:-0.11450139 33:-0.15587631 34:0.17114545 35:0.74139293 36:-0.11930121 
10.81198242631547 0:-0.5067112 1:-0.45087562 2:0.43422074 3:-0.31987606 4:-0.45724581 5:-1.103745 6:-0.98196881 7:-0.12869828 8:-1.2090082 9:-0.82930818 10:0.40695402 11:4.6038802 12:0.26252886 13:-0.45244921 14:-1.6851846 15:-1.783206 16:-1.0863483 17:-0.11140155 18:-0.2757252 19:-0.33048639 20:-0.16122424 21:-0.11223873 22:-0.40882851 23:-0.47572022 24:-0.26477605 25:0.63867748 26:-0.49032637 27:-1.1078958 28:-0.18164564 29:1.1988048 30:-0.3606242 31:-0.88744283 32:0.37543123 33:-0.30596637 34:-1.5682265 35:-1.8004345 36:-0.99124754 
32 0:0.14256365 1:-0.23493123 2:0.66422597 3:-0.96169206 4:-0.98371299 5:-0.91592624 6:-0.78682062 7:0.27483197 8:-0.72377413 9:-0.91019202 10:0.57368239 11:2.1281995 12:1.8112356 13:-0.17769523 14:-1.0896586 15:-1.6982941 16:-0.63838261 17:9.8570975e-05 18:-0.22759479 19:-0.32164447 20:-0.080691167 21:0.0024746486 22:-0.31162082 23:-0.41734873 24:-0.15356525 25:1.0125243 26:-0.19410996 27:-0.73508096 28:0.07822327 29:2.3742425 30:0.49231612 31:0.08623921 32:1.1430408 33:-0.00022737346 34:-0.80486204 35:-0.87341506 36:-0.55010473 
32 0:-0.55866565 1:-0.51091336 2:1.8574799 3:-0.70981366 4:-0.81551082 5:-0.94037843 6:-1.1645268 7:-0.94877588 8:-1.0211355 9:-0.65283434 10:0.32359009 11:1.4208622 12:-0.49172809 13:-0.3165415 14:-1.1517058 15:-1.8465529 16:-0.85105317 17:0.06336598 18:-0.11094273 19:-0.14435264 20:-0.057654823 21:0.047434361 22:-0.19764193 23:-0.24359438 24:-0.10604075 25:0.73569759 26:0.74929107 27:-2.2342871 28:-0.26495778 29:1.5934878 30:0.021631472 31:-0.96168251 32:0.48119562 33:0.060920425 34:-1.1096444 35:-1.3518767 36:-0.31574761 
19.7338327613864 0:0.20247501 1:-0.47366291 2:1.6557602 3:-0.7056197 4:-0.91562024 5:-1.6556748 6:-1.5511861 7:-0.069441368 8:-1.3466802 9:-1.5918664 10:0.40704853 11:-0.57676077 12:2.5806706 13:0.67532513 14:0.31971797 15:0.1847697 16:0.32588512 17:-0.033172192 18:0.0016658618 19:0.091208495 20:-0.0091842689 21:-0.023758352 22:0.031340213 23:0.039313779 24:0.011351378 25:-0.87388954 26:0.11663694 27:-0.39629589 28:-0.40735365 29:0.23311202 30:1.5719948 31:2.1151112 32:1.3538046 33:-0.23412852 34:0.58523529 35:0.87351253 36:0.19239402 
32 0:0.078044669 1:0.13914523 2:-0.77879446 3:-0.56690128 4:-0.89990786 5:-0.71347867 6:-0.97553841 7:-0.58613116 8:-0.48445836 9:-0.69769148 10:0.073497783 11:0.39523392 12:0.62702334 13:-0.12980283 14:-0.21150641 15:-0.33566245 16:-0.19724671 17:-0.11797982 18:-0.13737497 19:-0.080898399 20:-0.11907995 21:-0.16315552 22:-0.15435091 23:-0.13596346 24:-0.16110284 25:-0.1981818 26:-0.033749501 27:-0.24609792 28:0.052258375 29:-0.013058999 30:0.51373645 31:0.71374872 32:0.384023 33:-0.42571099 34:-0.93022899 35:-0.69452671 36:-0.71810272 
32 0:0.59081593 1:-0.6533032 2:-0.34829184 3:0.53710836 4:0.29310437 5:-0.20721022 6:-0.25066135 7:-0.11279076 8:-0.35040673 9:-0.37419517 10:-1.0935998 11:0.075121514 12:-0.14661443 13:-0.29751747 14:-0.35072106 15:-0.31853406 16:-0.3471092 17:0.023497426 18:-0.064568854 19:0.014178501 20:-0.041533528 21:-0.022523404 22:-0.09285839 23:-0.032200687 24:-0.054103077 25:-0.62827816 26:-0.52043856 27:-0.59141695 28:-0.70016869 29:-0.54197347 30:-0.31942296 31:-0.10402541 32:-0.40074851 33:-0.69271761 34:0.10032413 35:0.11533158 36:-0.58602288 
32 0:-0.13913507 1:-0.64465102 2:0.88437256 3:-0.26870392 4:-0.66306939 5:-0.42958533 6:-0.51348227 7:-0.78773911 8:-0.22221987 9:-0.47322465 10:-0.59341519 11:1.0354587 12:0.69708691 13:-0.23016487 14:-0.30819187 15:-0.068948984 16:-0.29441675 17:-0.08321446 18:-0.21990932 19:-0.17260686 20:-0.16454409 21:-0.13958906 22:-0.24545962 23:-0.18629215 24:-0.17976188 25:-0.30443199 26:-0.14139922 27:0.54155693 28:-0.14709116 29:-0.35257171 30:-0.30614846 31:-0.0078166889 32:-0.22802734 33:-0.32913412 34:-1.0714542 35:-0.81676948 36:-0.6767177 
32 0:0.18652839 1:-0.68856612 2:2.4758244 3:0.23050738 4:0.011548645 5:-0.37087254 6:-0.64065369 7:-0.2442742 8:-0.2565706 9:-0.55987545 10:0.073497783 11:0.075121514 12:0.083516504 13:-0.11946654 14:-0.1180849 15:0.38984711 16:-0.18633268 17:-0.058973118 18:-0.099272532 19:-0.097740593 20:-0.097055437 21:-0.090951306 22:-0.10818791 23:-0.062397902 24:-0.12287691 25:-0.22979194 26:-0.31968599 27:-0.26509838 28:-0.09927733 29:-0.68906206 30:-0.20000192 31:-0.053916701 32:-0.3333949 33:0.10262126 34:0.28441925 35:0.6119428 36:0.13249145 
32 0:-0.33679553 1:-0.49322634 2:0.53596507 3:0.57874652 4:0.29073008 5:-1.0549621 6:-1.0391241 7:0.57092316 8:-1.1337709 9:-0.95186715 10:0.57368239 11:-0.24499089 12:1.1856712 13:-0.29585032 14:0.27703032 15:0.39107057 16:0.0057776552 17:-0.11881286 18:-0.098237888 19:0.031020695 20:-0.09620067 21:-0.14592077 22:-0.073924609 23:0.058069711 24:-0.10676755 25:-0.051724866 26:-0.17802842 27:0.074079426 28:0.1839081 29:0.79492082 30:0.57123741 31:0.41710516 32:0.46056118 33:-1.0335771 34:-0.57098592 35:-0.46532154 36:-0.8950897 
7.211623545429042 0:-0.20086955 1:-0.50397352 2:1.2323722 3:-0.55093498 4:-0.43687498 5:-1.4312281 6:-1.5011803 7:-0.52477222 8:-1.3976851 9:-1.273713 10:0.57368239 11:1.0354587 12:2.2551022 13:-0.025106224 14:-1.2293411 15:-1.4441138 16:-0.6690143 17:-0.018543114 18:-0.1164545 19:-0.0094005698 20:-0.11622123 21:-0.044812161 22:-0.2189019 23:-0.19614372 24:-0.16805652 25:-0.50959167 26:-0.15199549 27:-1.6752939 28:-0.84382949 29:2.6033046 30:1.9747821 31:1.3272932 32:2.1055238 33:0.81842625 34:-0.81977191 35:-1.3057405 36:0.16683221 
5.942789696914343 0:0.66640511 1:-0.53057949 2:1.4104246 3:-0.32740018 4:-0.23040292 5:-0.73188635 6:-0.71271749 7:1.5351351 8:-0.44424287 9:-0.81817735 10:0.24022615 11:1.0354587 12:-0.32803005 13:-0.32885976 14:-1.3256368 15:-1.7132742 16:-0.90219893 17:0.033410552 18:-0.14138913 19:-0.23389071 20:-0.078374015 21:0.015949544 22:-0.25206784 23:-0.19635789 24:-0.1615471 25:1.2566947 26:-0.32511993 27:-0.81725175 28:0.1695452 29:1.3570813 30:0.29784582 31:-0.14010368 32:0.52128147 33:0.19351713 34:-0.13284495 35:0.12297176 36:0.25224384 
32 0:0.8157339 1:0.51791473 2:-0.81506865 3:-0.96380862 4:-0.85547639 5:-1.6190973 6:-1.8442214 7:-0.5733061 8:-1.9868439 9:-1.5742698 10:1.1573379 11:0.5471999 12:0.22426573 13:0.097997529 14:-0.37080394 15:-0.58587432 16:-0.041094093 17:0.10126544 18:0.2895208 19:-0.11292397 20:0.10545352 21:0.12485064 22:0.2326086 23:-0.19614667 24:0.073233952 25:0.5557575 26:-0.40656232 27:-0.022026982 28:-0.1473256 29:0.020739195 30:0.22435481 31:-0.29757621 32:-0.23068136 33:0.76538048 34:1.1729947 35:-0.13847962 36:1.4753689 
0.5120685570661727 0:-1.015881 1:-0.19871568 2:0.034517218 3:0.63242225 4:0.31168828 5:-2.3212467 6:-2.3440748 7:-1.5423099 8:-2.4530237 9:-2.0304106 10:1.4908002 11:-1.8384491 12:-1.5330257 13:3.0739764 14:1.8181719 15:1.7622893 16:2.4735574 17:2.6767883 18:2.2691065 19:1.0188732 20:3.0073298 21:2.6627991 22:2.3855598 23:1.6299513 24:2.9594128 25:0.003819365 26:-0.58256479 27:-0.64970686 28:-0.40910504 29:2.4146966 30:0.96806157 31:0.9701635 32:1.666753 33:3.1097133 34:1.534832 35:-0.64158814 36:3.1994091 
5.557925892760218 0:0.41634744 1:0.74222435 2:-0.86749071 3:-0.78867281 4:-0.22328282 5:-0.44060868 6:-0.8757555 7:-1.0255079 8:-1.0020005 9:-0.46432716 10:0.90724164 11:-2.2360573 12:-1.9326607 13:0.20188043 14:1.0233136 15:1.3053625 16:0.57157243 17:17.753802 18:15.507711 19:18.675567 20:15.695367 21:17.177404 22:14.99731 23:17.702174 24:15.227249 25:-0.46692223 26:-1.0781029 27:-2.427481 28:-1.3411749 29:2.8147281 30:2.0977711 31:2.4850011 32:2.2868509 33:3.2094722 34:3.6344406 35:4.0540914 36:3.2573925 
1.009206175262034 0:-0.66776501 1:0.14575965 2:-0.12721592 3:-0.30678139 4:0.28607687 5:-1.120151 6:-0.8757555 7:-1.057808 8:-1.0328733 9:-1.0877196 10:1.2407039 11:-2.0372532 12:0.38777183 13:20.978461 14:15.744357 15:5.2368872 16:21.71431 17:3.2641266 18:2.3759958 19:0.47621145 20:3.3073744 21:2.7873315 22:4.099894 23:6.5546903 24:3.3415888 25:12.310889 26:3.2550242 27:14.366161 28:8.4862981 29:4.4662895 30:3.7006289 31:2.4931124 32:4.6246279 33:-0.38184622 34:1.2348879 35:0.96835913 36:0.70225673 
1.023402017926862 0:-0.46098359 1:0.12389999 2:-0.16780155 3:-0.6094601 4:-0.078695758 5:-1.6349592 6:-1.8442214 7:-1.0255079 8:-1.9590584 9:-1.5742698 10:1.2407039 11:-2.2360573 12:-0.83103848 13:25.485381 14:19.291509 15:21.901274 16:21.573096 17:3.2873994 18:2.7109314 19:3.35476 20:2.8148406 21:6.2564828 22:4.8318315 23:5.7725605 24:5.2041228 25:0.35246474 26:-0.61055203 27:-0.78644574 28:-0.5135745 29:5.9783135 30:4.8599922 31:5.4347064 32:5.1655744 33:6.152358 34:3.6677677 35:4.087632 36:4.4170608 
32 0:1.8694963 1:0.95875617 2:-0.65245557 3:-0.89128639 4:-0.36963788 5:-1.2346802 6:-1.8442214 7:-0.54100598 8:-1.0174369 9:-1.5742698 10:1.4074348 11:-0.049212355 12:1.420249 13:1.0965386 14:0.1363866 15:-1.1380959 16:0.8933747 17:0.26741402 18:0.070970993 19:0.011475142 20:0.21767277 21:0.28095523 22:0.081588837 23:0.15576759 24:0.17998836 25:1.2514478 26:-0.38339987 27:-0.59819563 28:0.068090071 29:1.651316 30:1.5146534 31:0.33787886 32:1.3402566 33:-0.7808816 34:-0.17040563 35:-0.10493905 36:-0.35304139 
32 0:0.84429888 1:2.6067723 2:-1.1299023 3:-0.6942624 4:-0.77238836 5:-1.1702324 6:-1.3756089 7:-1.057808 8:-1.4959659 9:-1.118129 10:1.1573379 11:0.5471999 12:-0.061513305 13:0.026078595 14:-0.4890574 15:-0.98660151 16:-0.5827438 17:0.32367661 18:0.026033476 19:0.0019300526 20:0.17178665 21:0.26261294 22:-0.033919637 23:-0.17539388 24:0.092402488 25:4.1404588 26:0.68262879 27:-1.3442498 28:2.2624285 29:1.2510849 30:0.20854701 31:0.74610223 32:0.52439995 33:-0.73100218 34:0.049394666 35:-0.17202019 36:-0.41489037 
32 0:-0.80624756 1:1.7719661 2:-1.2708798 3:1.2455682 4:-0.14558271 5:-1.118168 6:-1.1489577 7:-1.3514507 8:-1.1900603 9:-0.97820431 10:0.3236831 11:0.49358769 12:-0.006486394 13:-0.043567803 14:0.02344721 15:0.22025518 16:0.030644338 17:-0.1149385 18:-0.19785989 19:-0.18576679 20:-0.1713603 21:-0.16403455 22:-0.19399822 23:-0.1587494 24:-0.13341833 25:0.097950053 26:-0.069291138 27:1.1014785 28:0.35036434 29:-0.37696837 30:-0.2812301 31:0.0065146426 32:-0.31321785 33:-0.41255335 34:-1.3019787 35:-0.92578269 36:-0.95607437 
32 0:-0.84348727 1:0.39916719 2:-0.94495618 3:2.7169863 4:-0.20329491 5:-0.95704665 6:-1.1489577 7:-1.3708866 8:-1.1733409 9:-0.68543291 10:0.40704853 11:1.0729529 12:-0.26121578 13:0.049713492 14:-0.59089138 15:-1.0815746 16:-0.0435778 17:-0.11817479 18:-0.12644583 19:-0.016468537 20:-0.14311962 21:0.014422828 22:-0.18818762 23:-0.1453163 24:-0.11642559 25:0.076772887 26:-0.11493327 27:-0.94546918 28:-0.34910189 29:-0.49671741 30:-0.13960831 31:0.073449338 32:-0.20884896 33:-0.54459852 34:-0.62263486 35:-0.48182506 36:-0.43417857 
32 0:-0.36594494 1:-0.18872676 2:0.013104511 3:-0.6854143 4:-0.79675951 5:-1.5108029 6:-1.4309355 7:0.77192412 8:-1.5133015 9:-0.97820431 10:0.82387621 11:-0.085777545 12:3.1927712 13:0.17408855 14:-0.11560512 15:0.3577518 16:-0.030809909 17:-0.03164654 18:-0.13287905 19:-0.11028243 20:-0.036842015 21:-0.072796617 22:-0.14121078 23:-0.17476579 24:-0.054124063 25:0.79446139 26:1.1137582 27:0.19397202 28:0.74032945 29:1.9760973 30:3.2844194 31:3.4201841 32:2.9003855 33:-0.87471144 34:-1.4313775 35:-1.813698 36:-1.4779702 
1.016985954874201 0:1.560921 1:-0.083045605 2:0.41507285 3:-0.33665532 4:-0.4925606 5:-1.9420312 6:-1.449734 7:1.058604 8:-1.7473728 9:-2.3780175 10:0.82387621 11:2.2316834 12:4.6441479 13:0.99687741 14:-1.079195 15:-1.1942048 16:-0.18977717 17:0.24250154 18:-0.17690179 19:-0.4227177 20:-0.021199676 21:0.43956055 22:-0.29662079 23:-0.5839586 24:0.070743047 25:1.2870709 26:-0.42231705 27:-1.2014252 28:0.07864442 29:5.3909365 30:1.8605804 31:1.5878468 32:2.4222056 33:3.5928168 34:0.99485039 35:-1.3697403 36:2.7961177 
32 0:-0.61199669 1:0.59712924 2:-0.91854368 3:-0.69116516 4:-0.59403047 5:-1.4703334 6:-1.4309355 7:-0.14642334 8:-1.4780051 9:-0.97820431 10:0.15695223 11:0.49358769 12:3.3019231 13:-0.011676762 14:-0.2193983 15:0.12956591 16:-0.11569534 17:-0.038246874 18:-0.12679606 19:-0.0084701936 20:-0.07715672 21:-0.090560159 22:-0.146537 23:-0.1425608 24:-0.12588498 25:0.11842904 26:-0.085499865 27:-0.54621371 28:0.0060989383 29:1.0403808 30:2.8776496 31:2.6755356 32:2.565979 33:-0.20348183 34:-1.742765 35:-0.98497704 36:-1.4336261 
10.20783345418404 0:0.61338302 1:0.027115539 2:-0.26509637 3:-0.80407983 4:-0.720923 5:-2.9432411 6:-2.6152422 7:1.058604 8:-2.6204956 9:-3.1831389 10:0.92819014 11:1.0729529 12:6.4895235 13:-0.074661568 14:-0.052608428 15:0.24512159 16:-0.11218768 17:-0.10216366 18:-0.17331867 19:-0.22992431 20:-0.17337021 21:0.042917558 22:-0.17672468 23:-0.2367647 24:-0.10210447 25:0.18742431 26:0.84182897 27:1.7418259 28:0.19453784 29:2.0433847 30:5.053281 31:4.6835765 32:3.8828375 33:0.84187577 34:-0.34325105 35:-0.95537987 36:0.28897117 
32 0:-0.49767157 1:-0.27865188 2:0.2885994 3:0.67683604 4:0.41054569 5:-0.46581534 6:-0.54740508 7:1.2772582 8:-0.5955937 9:-0.12001815 10:0.3236831 11:0.49358769 12:0.23080423 13:0.025396573 14:-0.43629551 15:-0.41749513 16:-0.2529151 17:-0.0017108307 18:-0.088169424 19:-0.21176141 20:-0.093439899 21:0.025108352 22:-0.13034253 23:-0.35232378 24:-0.093530439 25:-0.8642356 26:-0.38645042 27:-0.25906308 28:-0.16515164 29:-0.12243084 30:0.073627639 31:0.19058505 32:-0.015021022 33:-0.23649312 34:-0.82936159 35:-0.92578269 36:-0.41030098 
32 0:-0.83280495 1:-0.47480083 2:1.8074356 3:0.20302668 4:0.62844312 5:-0.78614288 6:-0.84818138 7:-1.6527075 8:-0.89282701 9:-0.68543291 10:0.40704853 11:-1.8238733 12:-0.65208774 13:-0.31663484 14:0.062440099 15:0.17637327 16:-0.12663925 17:0.18727164 18:0.15384311 19:0.090176035 20:0.1253635 21:0.17415771 22:0.18124777 23:0.14263419 24:0.14999071 25:0.10124708 26:-0.4543963 27:-0.5274433 28:-0.30456262 29:-0.20443744 30:0.08961679 31:0.2240524 32:-0.0096960783 33:-0.86370768 34:-0.96536076 35:-0.92578269 36:-0.92196353 
32 0:-0.95745891 1:-0.49555323 2:1.6917694 3:1.2709367 4:0.079681824 5:-0.76089886 6:-0.5662036 7:-1.3514507 8:-0.97642388 9:-0.41095973 10:0.49041397 11:-0.085777545 12:0.13989519 13:-0.16156465 14:-0.15063532 15:0.26706254 16:-0.16564445 17:-0.0049897064 18:-0.13021723 19:-0.1101158 20:-0.096003262 21:-0.049781643 22:-0.14236645 23:-0.15341061 24:-0.075559143 25:0.32240308 26:-0.10731697 27:0.72455697 28:0.20861378 29:-0.39158073 30:-0.033182368 31:0.28262026 32:-0.09702515 33:-0.54459852 34:-0.34325105 35:-0.45222788 36:-0.43417857 
23.42561293698075 0:2.0250261 1:-0.17430661 2:0.84393066 3:-0.51014737 4:-0.75879452 5:-1.3057751 6:-1.449734 7:1.3695788 8:-0.31693747 9:-1.8382203 10:0.82387621 11:-1.244508 12:0.26923227 13:-0.29949341 14:-0.54894164 15:-0.50964713 16:-0.47936979 17:0.21192708 18:0.019960817 19:0.035520692 20:0.11806666 21:0.29115049 22:-0.02907155 23:-0.021662921 24:0.084256468 25:-0.4159191 26:-0.57631944 27:-1.1832581 28:-0.69154206 29:-0.55559395 30:1.3919765 31:1.7802841 32:0.98340586 33:5.2873965 34:3.3328518 35:3.6913767 36:4.399327 
32 0:1.3687704 1:-0.46377574 2:1.1584654 3:-0.64103211 4:-0.61368526 5:-1.1193022 6:-1.1489577 7:0.83994986 8:-0.40053434 9:-1.5582576 10:0.49041397 11:1.0729529 12:1.2065043 13:0.14857572 14:-0.9471038 15:-0.89873332 16:-0.4775458 17:0.092013915 18:-0.052711192 19:-0.039797037 20:-0.0029357165 21:0.091504726 22:-0.15073334 23:-0.15616611 24:-0.068196659 25:1.6904514 26:-0.29278776 27:-1.3270171 28:0.31759245 29:0.72286805 30:1.1801604 31:1.5501961 32:1.6692586 33:0.53377037 34:1.6896338 35:1.8563518 36:1.3702847 
32 0:2.5644411 1:-0.37871607 2:0.88737438 3:-0.62745945 4:-0.74122929 5:-1.1030123 6:-0.84818138 7:1.9866694 8:-0.29836039 9:-1.6460891 10:0.65714534 11:1.6523182 12:1.0827428 13:-0.19903663 14:-1.1453427 15:-1.1488602 16:-0.62823498 17:0.18795297 18:-0.17831777 19:-0.25875167 20:0.047734392 21:0.14703292 22:-0.30559581 23:-0.36885682 24:-0.012310123 25:0.41696957 26:-0.14371991 27:-0.47398437 28:-0.070399642 29:1.9445562 30:1.447743 31:1.5209121 32:1.3673343 33:1.8762296 34:1.660225 35:1.8563518 36:1.3702847 
32 0:0.22798701 1:0.027714541 2:-0.53814444 3:-0.68239503 4:-0.27064049 5:-1.1408697 6:-1.1176874 7:1.1127874 8:-0.79656973 9:-1.1685264 10:-0.0097786413 11:0.55510388 12:1.1430839 13:-0.1072412 14:-0.20365594 15:-0.3525679 16:-0.098861453 17:-0.087128728 18:-0.19835353 19:-0.21393022 20:-0.14425677 21:-0.10430576 22:-0.21986497 23:-0.17134738 24:-0.17618652 25:0.26503673 26:-0.0024291651 27:1.0176168 28:0.10231994 29:-0.47225111 30:0.48743401 31:0.5685928 32:0.18115171 33:-0.41027258 34:-0.11299431 35:-0.44782241 36:-0.34937846 
32 0:-0.64885969 1:-0.20876315 2:-0.79307901 3:-0.85079995 4:-0.75339332 5:-1.2392844 6:-1.2837489 7:-0.31708738 8:-1.2540137 9:-1.0068844 10:0.40704853 11:0.55510388 12:1.2357616 13:-0.094708106 14:0.033805695 15:-0.054439267 16:-0.045470637 17:-0.043294046 18:-0.1702694 19:-0.048962002 20:-0.11729683 21:-0.091461664 22:-0.17252123 23:-0.10262702 24:-0.11862224 25:0.71680219 26:0.068834605 27:0.29574457 28:0.22303777 29:-0.3929857 30:0.38687978 31:0.49486308 32:0.03099449 33:-0.50862682 34:-0.53139214 35:-0.41669929 36:-0.60943229 
21.54312157939026 0:1.1369174 1:1.7563419 2:-1.2781057 3:-1.2809056 4:-1.0679134 5:-1.8237248 6:-2.2541714 7:-0.39756813 8:-1.7350479 9:-1.8049918 10:0.74051077 11:2.3844155 12:1.7945884 13:0.4800856 14:-0.89720781 15:-0.94882517 16:-0.29538833 17:0.034115436 18:-0.25241251 19:-0.32253644 20:-0.081642677 21:-0.010149993 22:-0.32950121 23:-0.34883192 24:-0.16757693 25:2.526787 26:0.27108131 27:-0.58873421 28:2.5267461 29:0.62408217 30:0.14594771 31:0.45799823 32:0.2571967 33:-1.2086776 34:-1.1728142 35:-0.94579235 36:-1.057801 
31.74902004746321 0:-1.1620289 1:-0.37240546 2:0.71796645 3:-0.59751519 4:0.041152408 5:-1.452684 6:-1.4276606 7:-1.3857303 8:-1.8449055 9:-0.87576019 10:1.7408965 11:-0.037148861 12:0.042686554 13:-0.022236003 14:-0.74166304 15:-0.83939629 16:-0.44101312 17:-0.044250376 18:-0.042971574 19:-0.0027533789 20:0.0051414823 21:-0.11780675 22:-0.11646262 23:-0.19023044 24:-0.054212764 25:-0.73154305 26:-0.61376404 27:-1.2814148 28:-0.81471796 29:0.53194098 30:0.81869145 31:0.4449723 32:0.53179868 33:-0.86706496 34:-1.5157766 35:-1.5260427 36:-1.4418403 
32 0:-1.0296619 1:-0.15904597 2:0.16089952 3:-0.039916898 4:-0.63160967 5:-0.15705901 6:-0.12580145 7:-0.911646 8:-0.45698075 9:0.29157233 10:0.2431625 11:2.5722531 12:0.6329795 13:-0.29846351 14:-1.0990263 15:-1.1240834 16:-0.65937602 17:-0.072591786 18:-0.25408419 19:-0.28809241 20:-0.1753605 21:-0.10986446 22:-0.35927377 23:-0.37621833 24:-0.24402021 25:0.68996338 26:-0.17867997 27:-1.0792648 28:0.4246619 29:-0.10901527 30:-0.42336025 31:-0.36690516 32:-0.31255295 33:-0.13970175 34:-1.2316667 35:-1.2138493 36:-1.004079 
32 0:-0.86819797 1:-0.56582486 2:0.69951482 3:0.27926519 4:0.60474371 5:-0.08419893 6:-0.023191862 7:-1.2299124 8:-0.45254446 9:0.22165723 10:0.073586794 11:1.0066119 12:0.71412561 13:-0.31607164 14:-0.47232233 15:-0.49312792 16:-0.3169675 17:-0.12559758 18:0.10340436 19:-0.19478721 20:-0.15980432 21:-0.082545213 22:0.054071061 23:-0.23505447 24:-0.16644182 25:-0.68029453 26:-0.44325304 27:-0.072474917 28:-0.52203547 29:0.20780353 30:0.01028782 31:-0.15915643 32:0.0095393546 33:-0.60397614 34:-0.58017121 35:-0.069140114 36:-0.68625221 
15.25640788093252 0:-0.97966871 1:-0.5984609 2:2.1642138 3:0.11038624 4:-0.3030729 5:0.060867048 6:0.076211175 7:-1.1238236 8:-0.25417896 9:0.32590564 10:0.073586794 11:-3.1684313 12:-1.7144682 13:0.458686 14:2.1564714 15:2.5829062 16:1.2972717 17:3.0616513 18:2.5817184 19:3.2000611 20:2.6507174 21:3.1492367 22:2.7461714 23:3.3249513 24:2.7792091 25:0.36273839 26:-0.63301788 27:-0.86529759 28:-0.53867501 29:-0.66673042 30:2.1131256 31:2.5013978 32:1.1952346 33:1.5781135 34:2.4327109 35:2.844665 36:1.9283226 
0.6692033522303397 0:0.27649976 1:-0.71204871 2:2.0918382 3:-0.40324422 4:0.20983254 5:-1.0907327 6:-1.0186984 7:-0.24929291 8:-0.83710637 9:-1.27329 10:-0.84343349 11:-0.36863259 12:0.070268593 13:-0.22439198 14:0.38781823 15:0.18236406 16:0.010041882 17:-0.094748974 18:-0.12574322 19:-0.011200208 20:-0.10884198 21:-0.064043383 22:-0.092112511 23:0.0428211 24:-0.08829486 25:-0.63683587 26:-0.2059739 27:0.3664037 28:-0.31023316 29:0.1858987 30:-0.24492897 31:-0.18831677 32:-0.05618034 33:0.38066929 34:0.23238081 35:0.45246735 36:0.43036068 
32 0:0.9549209 1:-0.55663046 2:0.14717209 3:0.29356075 4:-0.27775462 5:-0.61684112 6:-0.60567552 7:0.99789799 8:-0.017551721 9:-1.0856758 10:-1.1810327 11:-0.74406924 12:-0.19391027 13:-0.26182213 14:0.30133151 15:0.38837881 16:0.11893836 17:-0.10450952 18:-0.0349701 19:-0.018740188 20:-0.076484415 21:-0.11666646 22:-0.0090898187 23:0.020396668 24:-0.051879264 25:-0.4436376 26:-0.27205659 27:0.18862528 28:-0.21415225 29:0.20129261 30:-0.011318655 31:0.24984586 32:0.091869926 33:0.18211732 34:0.41087878 35:0.71949314 36:0.10923228 
32 0:1.0652989 1:0.11322281 2:0.035273497 3:-0.82715027 4:-0.73424536 5:-0.42770671 6:-0.094313894 7:0.81319173 8:0.037517168 9:-1.0818469 10:-1.0935303 11:0.75767737 12:-0.22765993 13:-0.33747881 14:-1.2736568 15:-1.0259636 16:-0.88789856 17:-0.032489929 18:-0.090984435 19:-0.065092526 20:-0.054401322 21:-0.058161045 22:-0.1887133 23:-0.20264848 24:-0.12291509 25:-0.63609008 26:-0.66881469 27:-1.5407961 28:-0.7223025 29:1.9017372 30:0.15873681 31:-0.076784466 32:0.59432819 33:0.95690164 34:0.13956462 35:-0.18607257 36:0.52736822 
32 0:0.47044841 1:-0.66058956 2:0.35381209 3:-0.068839431 4:0.2862612 5:-0.2165989 6:-0.094313894 7:1.0233163 8:0.086107365 9:-0.37988872 10:-1.0935303 11:1.133114 12:-0.40035218 13:-0.24907995 14:-1.2560193 15:-1.1413903 16:-0.69897649 17:-0.040386815 18:-0.14535008 19:-0.20402593 20:-0.036780224 21:-0.049671401 22:-0.24113058 23:-0.32436398 24:-0.089938807 25:0.61961006 26:-0.49092808 27:-1.5416671 28:-0.014050699 29:0.77653156 30:-0.54762936 31:-0.45918095 32:-0.038434589 33:0.046152378 34:-0.46107298 35:-0.54597689 36:-0.25538226 
22.67532278160619 0:0.40210548 1:-0.65049694 2:0.70978409 3:1.1414606 4:-0.38277593 5:-0.68298863 6:-0.7597396 7:0.074366685 8:-0.24819319 9:-0.87764089 10:-1.2602612 11:0.38224072 12:-0.30116396 13:-0.20647329 14:-1.4508496 15:-1.2787335 16:-0.85047853 17:0.01236438 18:-0.086418934 19:-0.030235568 20:-0.042355017 21:-0.042739781 22:-0.19816583 23:-0.19317506 24:-0.13045346 25:-0.085013546 26:-0.53597429 27:-1.8455841 28:-0.61171282 29:1.8456771 30:0.71733167 31:0.71987487 32:1.2838774 33:0.31808225 34:0.29266716 35:1.0677876 36:0.26511336 
32 0:-0.29025839 1:-0.45566521 2:0.14799489 3:-0.72346502 4:0.1802894 5:-0.83270275 6:-0.80890899 7:-0.13575787 8:-0.82285324 9:-0.77553788 10:-0.76006805 11:-1.8703792 12:1.6265918 13:1.6781746 14:1.0751732 15:-0.50142958 16:2.2067515 17:-0.019033636 18:-0.055664308 19:0.050602909 20:0.0047714258 21:0.13576533 22:0.031443674 23:0.12532382 24:0.078187254 25:2.9231257 26:-0.021827968 27:-1.1641435 28:1.345622 29:3.5182657 30:2.5010526 31:2.3820191 32:3.0037765 33:-0.43512034 34:-0.32687162 35:0.080953214 36:-0.2915092 
4.977415728946044 0:-0.53862927 1:-0.6285436 2:0.16628185 3:0.54257124 4:0.035278469 5:-0.80079575 6:-0.80890899 7:-0.77290974 8:-1.1254082 9:-0.53304323 10:-1.0935303 11:0.0068040648 12:0.29742882 13:-0.17421965 14:-0.80189613 15:-0.98066957 16:-0.3162271 17:-0.095854538 18:-0.090660941 19:-0.095994085 20:-0.11550796 21:-0.040100678 22:-0.15119602 23:-0.20816465 24:-0.11095321 25:-0.015989985 26:-0.45971483 27:-0.98566413 28:-0.14443478 29:1.5622378 30:0.63254561 31:0.97548566 32:1.0629092 33:-0.63798866 34:-1.017929 35:-1.1845168 36:-0.8534839 
5.07864644142317 0:-0.54505247 1:-0.470793 2:-0.097832481 3:0.20493793 4:-0.33552379 5:-1.2102955 6:-1.1170371 7:-0.67123657 8:-1.3327264 9:-1.0818469 10:-0.67670262 11:-1.8703792 12:1.3248899 13:1.0506223 14:0.45151411 15:-1.0508022 16:0.67281078 17:0.16556396 18:0.11041351 19:-0.037899155 20:0.080268808 21:0.30908761 22:0.14664392 23:-0.12937935 24:0.18401636 25:0.026747973 26:-0.41431654 27:-0.63825949 28:-0.27239898 29:1.6535183 30:2.8560394 31:3.643832 32:2.7765574 33:-0.5689271 34:-0.59971393 35:0.16222193 36:-0.63471518 
0.06347304230872317 0:0.31293917 1:-0.69036253 2:1.6896627 3:0.17677367 4:-0.32556599 5:-0.95122314 6:-0.81218694 7:0.067588473 8:-0.62654885 9:-1.2490406 10:-0.76006805 11:-1.4949425 12:0.85073961 13:-0.099359344 14:-0.46634361 15:-0.432758 16:-0.14538436 17:0.3505406 18:0.11098192 19:0.1395994 20:0.23061534 21:0.18234708 22:0.074835782 23:0.17964611 24:0.19493996 25:2.122296 26:-0.3861319 27:-1.0167255 28:0.51178438 29:2.7466425 30:3.3027912 31:3.2891012 32:2.8460105 33:0.74540063 34:0.058398972 35:0.90525021 36:0.2055708 
32 0:0.10127331 1:-0.34034393 2:0.0029101136 3:-0.81307479 4:-0.62005897 5:-0.52349249 6:-0.36967274 7:0.19565805 8:-0.31642811 9:-0.605896 10:-0.8435075 11:0.89059454 12:0.95890969 13:0.032927461 14:-0.3428676 15:0.064722113 16:-0.094588718 17:-0.043595241 18:-0.22186849 19:-0.12619162 20:-0.14057909 21:-0.074447008 22:-0.25123917 23:-0.15725678 24:-0.15688877 25:0.4330359 26:-0.076881417 27:0.61171863 28:0.1587307 29:0.47187756 30:0.71591415 31:0.74505417 32:0.72405727 33:0.66583489 34:0.039843818 35:0.63375569 36:0.12401817 
32 0:0.10672571 1:-0.61118289 2:1.3428057 3:0.53565365 4:-0.31521256 5:-0.56311023 6:-0.66612414 7:-0.40593611 8:-0.31580479 9:-0.6200171 10:-0.51005076 11:0.52452034 12:0.81743069 13:0.20228192 14:-0.41502674 15:-0.057396863 16:-0.1596817 17:-0.051751133 18:-0.085465291 19:-0.06502104 20:-0.06794223 21:-0.02896375 22:-0.1270359 23:-0.16011011 24:-0.058961446 25:-0.19592698 26:-0.33993384 27:-0.42713924 28:-0.36283762 29:0.23815324 30:0.96017618 31:1.2488571 32:0.63361248 33:0.11216082 34:-0.019869222 35:-0.12704904 36:-0.13529959 
32 0:-0.1723577 1:-0.37962374 2:1.4637567 3:-0.47132863 4:0.17732592 5:-0.93694301 6:-1.1044938 7:-0.69450567 8:-1.0656561 9:-0.83428944 10:-0.59341519 11:-0.20762808 12:1.077823 13:0.17784769 14:0.42484983 15:-0.32327615 16:0.20804176 17:0.009327436 18:0.0015719196 19:-0.20615664 20:0.040540393 21:0.16729962 22:0.044628563 23:-0.20207076 24:0.16380846 25:-0.51619487 26:0.086918769 27:0.75011614 28:-0.30495981 29:0.9419523 30:1.360922 31:1.5774484 32:1.1845942 33:0.85841717 34:0.50634202 35:0.73897337 36:0.68462957 
32 0:-0.0071276942 1:-0.35524732 2:-0.088400403 3:-0.34668781 4:-0.33926095 5:-0.65705619 6:-0.66297041 7:-0.38800241 8:-0.60315429 9:-0.81034497 10:-0.92687143 11:0.15844613 12:0.69011481 13:-0.42205467 14:-0.094609601 15:0.015256199 16:-0.25531946 17:-0.15483255 18:-0.23157167 19:-0.21449003 20:-0.19027963 21:-0.15606765 22:-0.23471373 23:-0.19955312 24:-0.18269896 25:-0.39062341 26:-0.032225565 27:1.3811854 28:0.079965298 29:-0.32777473 30:0.78169794 31:1.0680406 32:0.58872261 33:-0.36929488 34:-0.61284451 35:-0.50745141 36:-0.42913085 
32 0:-0.11578977 1:-0.65743083 2:1.1480183 3:0.38788507 4:0.30923937 5:-0.67482304 6:-0.95626808 7:-0.66189894 8:-0.40992577 9:-0.62922651 10:-0.51005076 11:-0.57370229 12:0.52424167 13:-0.026472984 14:0.42702195 15:0.6923209 16:0.20344522 17:-0.10322387 18:-0.10328142 19:-0.031864812 20:-0.12658484 21:-0.15112769 22:-0.056406149 23:-0.026339529 24:-0.075507213 25:0.50011546 26:-0.09477134 27:0.9394724 28:0.37138622 29:0.55722632 30:0.59757153 31:0.5142229 32:0.78258037 33:0.11817902 34:1.0820854 35:0.87656571 36:0.93555215 
32 0:-0.71214535 1:-0.36003567 2:0.031028973 3:0.1581745 4:-0.34156566 5:-0.22909688 6:-0.17414096 7:-0.74341576 8:-0.31580479 9:-0.13130426 10:-0.92687143 11:0.89059454 12:0.14398233 13:-0.13137164 14:-0.90752438 15:-1.1441012 16:-0.55854304 17:0.024279905 18:-0.11277988 19:-0.24782356 20:-0.0024807159 21:0.026221416 22:-0.20478801 23:-0.3935792 24:-0.043535886 25:-0.079114603 26:-0.43481032 27:-0.43694405 28:-0.18654168 29:0.055638186 30:0.074845759 31:0.2947857 32:0.032753172 33:-0.22786727 34:-0.50258806 35:-0.50745141 36:-0.45618199 
32 0:0.065227387 1:-0.54101785 2:0.43775024 3:0.28010213 4:-0.0020798771 5:-0.0534947 6:0.075004377 7:0.47607592 8:-0.017235569 9:0.049200233 10:-0.92687143 11:1.2566688 12:0.15341701 13:-0.3361136 14:-0.91359997 15:-0.87976769 16:-0.63979807 17:-0.00625938 18:-0.17627378 19:-0.27282371 20:-0.11220314 21:-0.074536016 22:-0.2667405 23:-0.32812058 24:-0.17839978 25:0.86136994 26:-0.29746205 27:0.025703126 28:0.1277963 29:-0.20566035 30:-0.084314808 31:0.0022027777 32:-0.15146158 33:-0.27300374 34:-0.20739348 35:-0.76644876 36:-0.43379484 
32 0:0.5636923 1:-0.50172284 2:0.45126105 3:-0.39755921 4:0.32580274 5:0.26132251 6:0.22323008 7:0.15000863 8:0.36922146 9:-0.23383572 10:-1.3436921 11:-0.57370229 12:0.22358487 13:0.2111288 14:-0.21985093 15:-0.08058401 16:-0.052923277 17:0.042675972 18:-0.096016936 19:-0.048531579 20:-0.043812595 21:0.015807441 22:-0.11686694 23:-0.047487701 24:-0.085483115 25:1.1265216 26:-0.17943556 27:-0.036443038 28:0.30913502 29:0.50995624 30:0.17732191 31:0.15894363 32:0.36028301 33:0.9727629 34:1.9917431 35:2.0258665 36:1.5577282 
32 0:-0.17163995 1:-0.307756 2:0.29523936 3:0.70646644 4:-0.91761328 5:-1.0664677 6:-1.054213 7:0.36136213 8:-0.81323161 9:-1.0045404 10:0.82387621 11:-0.5614796 12:0.73215113 13:-0.012971256 14:-0.12140693 15:-0.39237872 16:-0.057754499 17:-0.059417 18:-0.097195225 19:0.02456725 20:-0.065993161 21:0.0067291264 22:-0.097619752 23:0.074374605 24:-0.047816962 25:-0.8184806 26:-0.44725193 27:-0.22031036 28:-0.55292693 29:0.15711777 30:1.2927085 31:1.6416032 32:1.069692 33:-0.043431996 34:0.032267677 35:-0.270671 36:0.67869 
32 0:0.28258582 1:-0.39951568 2:0.86454973 3:-0.95290834 4:-1.0717764 5:-0.72848198 6:-0.87239239 7:-0.061605629 8:-0.6054779 9:-0.8275588 10:0.99060708 11:-0.5614796 12:0.91933377 13:-0.2069522 14:0.37361918 15:0.71137243 16:0.2714016 17:-0.076932489 18:-0.047979831 19:0.0076198503 20:-0.05943046 21:-0.081395076 22:-0.0089735268 23:0.095098307 24:-0.079631377 25:-0.045505465 26:-0.032282897 27:-0.11653961 28:-0.30247546 29:0.43951431 30:0.74723771 31:1.494833 32:0.64934885 33:0.6050141 34:0.4445017 35:0.59442549 36:0.16409574 
32 0:1.5139259 1:-0.55849115 2:2.1452002 3:-1.0161295 4:-0.88310702 5:-0.37118395 6:-0.15647364 7:1.1015557 8:0.090777749 9:-1.0045404 10:0.49041397 11:-0.16442675 12:-0.038090078 13:0.48027254 14:-0.83759868 15:-1.3249069 16:-0.36057811 17:0.15816979 18:-0.049708939 19:0.084848506 20:0.030281667 21:0.19534123 22:-0.10143102 23:-0.021968563 24:0.03372736 25:-0.67364231 26:-0.46050937 27:-1.2200113 28:-0.83601739 29:2.8183689 30:-0.076296827 31:-1.3943644 32:0.970747 33:2.2909739 34:0.93160334 35:-0.04742029 36:1.6773245 
32 0:0.74639974 1:-0.73292263 2:4.5922426 3:-0.73054182 4:-0.89417312 5:-0.22374203 6:-0.33829428 7:0.73733347 8:0.26034969 9:-0.48465689 10:0.3236831 11:-0.95853245 12:0.037833043 13:0.5265503 14:-0.24891692 15:-0.30605972 16:-0.087751818 17:0.20186258 18:0.0086596827 19:0.072942421 20:0.066170267 21:0.25467527 22:0.0038208291 23:0.10038947 24:0.089969281 25:0.37845973 26:0.055550258 27:-1.4728588 28:-0.3529247 29:1.015057 30:0.79275637 31:1.2556521 32:0.93995643 33:2.2287231 34:1.7794631 35:1.8781171 36:1.9088919 
3.537630765192187 0:-0.027697323 1:-0.20059218 2:0.61061772 3:-0.86211285 4:-0.66662229 5:-2.0521569 6:-2.1110455 7:-0.46694973 8:-1.8407702 9:-1.8673259 10:1.7408965 11:-2.5467438 12:-0.51286498 13:0.50495401 14:0.48867342 15:0.55713028 16:0.4729673 17:-0.085950637 18:0.12776213 19:0.31438923 20:0.021150137 21:-0.09957526 22:0.18389276 23:0.26904513 24:0.047725703 25:-0.13104967 26:-0.60391086 27:-1.0941553 28:-0.63665257 29:1.3046798 30:2.6146911 31:2.8728416 32:2.3341809 33:-0.60368942 34:-0.0028554008 35:0.38512796 36:-0.20576889 
32 0:-0.70218435 1:-0.65249226 2:1.9794733 3:0.35689992 4:-0.33154672 5:0.039903384 6:0.02534699 7:-0.73424185 8:-0.088901128 9:0.21220828 10:-0.0097786413 11:-1.3555853 12:0.21534351 13:-0.27174107 14:-0.2126007 15:-0.041442458 16:-0.30492698 17:-0.081701965 18:0.017570554 19:0.11831426 20:-0.038392315 21:-0.038078304 22:0.015881212 23:0.13654571 24:-0.018667004 25:-1.0585309 26:-0.63086481 27:-0.89180121 28:-1.0300949 29:1.5355584 30:2.1079592 31:2.2939149 32:2.8579665 33:-0.26649745 34:0.17546177 35:0.56651915 36:-0.3199445 
32 0:0.46103414 1:-0.28355112 2:0.44615532 3:-1.3506383 4:-1.093831 5:-1.8221078 6:-1.9292248 7:-0.0028601069 8:-1.4926424 9:-1.8673259 10:1.5741656 11:-1.7526381 12:-0.50318295 13:0.40777071 14:-0.00057905831 15:-0.50558397 16:0.1363458 17:0.1915013 18:0.15091547 19:0.0060109199 20:0.15484174 21:0.24368532 22:0.1715533 23:-0.0081895057 24:0.19094028 25:0.15619131 26:-0.25975298 27:-1.3377079 28:-0.45254386 29:2.7883137 30:1.7559369 31:2.130837 32:2.1964882 33:0.055131811 34:0.37072643 35:-0.270671 36:-0.072296005 
24.94289636692916 0:-1.0800011 1:-0.22344044 2:-0.067562117 3:2.8268739 4:-0.69461021 5:-1.5637633 6:-1.5368463 7:-1.5801773 8:-1.9075584 9:-1.0266075 10:2.4078205 11:0.46627858 12:0.85718759 13:-0.38684962 14:0.084442719 15:0.23955966 16:-0.18495497 17:-0.1545648 18:-0.11618329 19:-0.18367211 20:-0.18425948 21:-0.16833359 22:-0.1100804 23:-0.15169838 24:-0.173978 25:-0.71447702 26:-0.12827042 27:0.99236258 28:-0.032853641 29:-0.034191909 30:0.53502418 31:0.51129855 32:0.34098116 33:-0.66638566 34:-0.42234856 35:-0.36030669 36:-0.67541497 
32 0:-0.46472135 1:1.3648663 2:-0.57502758 3:0.067189754 4:-0.93859553 5:-1.2790341 6:-1.2922542 7:-0.34736037 8:-1.4392436 9:-1.0191674 10:2.2410896 11:0.038148857 12:0.96912922 13:-0.14400118 14:0.59463972 15:0.95490562 16:0.26283419 17:-0.14139434 18:-0.11283379 19:-0.076251871 20:-0.13354253 21:-0.10461398 22:-0.053533456 23:0.0086893381 24:-0.099227035 25:-0.80565935 26:-0.103563 27:1.1700408 28:-0.13452177 29:0.62000703 30:0.74060519 31:0.91732514 32:0.70228034 33:0.8286704 34:0.29463038 35:0.47528811 36:0.70592489 
32 0:-0.86238661 1:1.3935608 2:-0.82120091 3:-0.8829046 4:-0.71904596 5:-1.0273824 6:-1.0629492 7:-1.0309415 8:-1.2126396 9:-0.788525 10:2.1577242 11:0.68034345 12:0.29113638 13:-0.1851505 14:-0.28146828 15:-0.30251912 16:-0.19575795 17:-0.098858359 18:-0.13761093 19:-0.13722821 20:-0.1066454 21:-0.084638959 22:-0.16812617 23:-0.20435092 24:-0.14660543 25:-0.066175363 26:-0.18966767 27:0.094687637 28:0.37568222 29:0.13942383 30:0.0073019363 31:0.24373264 32:0.10472367 33:-0.93821404 34:-1.325275 35:-1.1959015 36:-1.1418805 
32 0:-0.9424035 1:1.3901747 2:-0.65533341 3:-0.98881407 4:-0.039501685 5:-0.82244499 6:-0.81835708 7:-1.0309415 8:-0.9709287 9:-0.32724024 10:0.49041397 11:1.1084732 12:0.20879063 13:-0.063388995 14:-0.79431465 15:-0.61192481 16:-0.50845059 17:-0.054522925 18:-0.13946804 19:-0.17438333 20:-0.13292707 21:-0.10411282 22:-0.22357876 23:-0.33935742 24:-0.1803219 25:0.64487623 26:-0.30488242 27:0.14750064 28:0.11098246 29:-0.0138795 30:-0.17442781 31:-0.048134532 32:-0.18131281 33:0.071434215 34:-1.2216269 35:-1.1959015 36:-0.66939606 
32 0:-1.1713947 1:0.2268035 2:-0.22768049 3:-0.058409785 4:0.31183357 5:-0.6765059 6:-0.81835708 7:-1.8172574 8:-0.9709287 9:-0.16653458 10:1.9076279 11:1.322538 12:0.53937937 13:-0.18649966 14:-0.45682057 15:-0.34088543 16:-0.38475062 17:-0.14139434 18:-0.18340067 19:-0.16509455 20:-0.17155733 21:-0.18859499 22:-0.2285985 23:-0.22541193 24:-0.21890894 25:0.032622217 26:-0.24950205 27:-0.047986946 28:-0.15019238 29:-0.63834976 30:-0.14763936 31:-0.091192525 32:-0.40352101 33:-0.4139736 34:-1.5939357 35:-1.1959015 36:-1.1418805 
32 0:-0.63365794 1:-0.39473371 2:1.1882684 3:-0.21930421 4:-0.08030928 5:-0.70844238 6:-0.81835708 7:-0.61605123 8:-0.7292178 9:-0.55788262 10:0.5737799 11:0.038148857 12:-0.40150014 13:-0.18582508 14:-0.668991 15:-0.63172678 16:-0.44303919 17:0.0021023829 18:0.056629616 19:0.15776544 20:0.036535354 21:0.020677376 22:-0.030167163 23:0.10994421 24:-0.0082692767 25:-0.9464703 26:-0.67783804 27:-1.5710321 28:-1.1336741 29:0.27014999 30:-0.58424003 31:-0.51780111 32:-0.29849013 33:-0.20039416 34:0.24324681 35:0.47528811 36:0.24547827 
32 0:-0.56125636 1:-0.54484926 2:0.20074334 3:0.065921046 4:-0.079605913 5:-0.074626041 6:0.1294372 7:0.37968549 8:-0.26090293 9:0.37212698 10:-0.92679942 11:0.46627858 12:-0.37066464 13:-0.10150271 14:-0.43654881 15:-0.68865743 16:-0.24015698 17:-0.093383431 18:-0.090229864 19:-0.057524494 20:-0.10235024 21:-0.10919607 22:-0.1408196 23:-0.10323105 24:-0.11979299 25:-0.46641426 26:-0.53234879 27:-0.64607259 28:-0.65623401 29:-0.5480713 30:-0.91602067 31:-0.88453481 32:-0.78577627 33:0.8286704 34:-0.30753679 35:-0.80421643 36:0.67583034 
32 0:-0.75517067 1:-0.45069378 2:-0.62696272 3:0.73829049 4:0.91248702 5:-0.39538605 6:-0.34445994 7:0.14260532 8:-0.6612366 9:-0.089157781 10:-0.17650951 11:0.68034345 12:-0.24248065 13:-0.39157167 14:-0.34367404 15:-0.37925173 16:-0.37560964 17:-0.13006162 18:-0.12456092 19:-0.1276398 20:-0.10817751 21:-0.14048311 22:-0.16264798 23:-0.13252746 24:-0.13670601 25:-0.55085809 26:-0.29898038 27:-0.067699448 28:-0.2590544 29:-0.64493309 30:-0.79217995 31:-0.56832055 32:-0.75648194 33:0.2073484 34:0.32922526 35:0.42306344 36:0.63068851 
-32 0:0.49378068 1:0.0092195859 2:-0.12193195 3:-0.080633624 4:-0.30058864 5:-0.50216564 6:-0.53435458 7:1.3104757 8:-0.22992241 9:-0.54801067 10:0.073586794 11:-0.96728629 12:-0.86498615 13:-0.35609939 14:-0.65904564 15:-0.55537251 16:-0.51613955 17:-0.097235078 18:0.017121307 19:0.12471249 20:-0.02890579 21:-0.074270901 22:-0.032955318 23:0.052763505 24:-0.05061203 25:-0.75764634 26:-0.4158878 27:-1.2164807 28:-0.82375108 29:-0.37597235 30:-0.30493794 31:-0.20357766 32:-0.26859621 33:0.77101103 34:0.90858686 35:0.33013761 36:0.46031595 
-32 0:-0.44670611 1:-0.60182183 2:2.1861868 3:-0.48454904 4:-0.8799928 5:0.098132287 6:0.031895182 7:0.53818034 8:-0.039427222 9:0.37492181 10:-0.67677913 11:-0.5425076 12:-0.60002639 13:-0.35028722 14:-0.2213758 15:-0.1973888 16:-0.28059447 17:-0.16922476 18:-0.057494224 19:-0.0075480829 20:-0.11581116 21:-0.17742862 22:-0.071297627 23:0.00070674637 24:-0.14329706 25:-0.80741604 26:-0.4402994 27:-0.42716927 28:-0.68511196 29:-0.62695569 30:-0.38993509 31:-0.16674148 32:-0.47177596 33:0.55622943 34:-0.21100986 35:-0.19659335 36:0.0099172913 
-21.27505530181424 0:0.045221078 1:-0.59676348 2:0.85847577 3:-0.74077052 4:-0.8253737 5:0.53893928 6:0.59814494 7:0.34199239 8:0.5201524 9:0.58014822 10:-0.8435075 11:-1.392065 12:-0.39503606 13:0.067358373 14:-0.046031004 15:0.13469822 16:-0.12030107 17:0.1548368 18:-0.0012327326 19:0.32289208 20:0.042684341 21:0.16914749 22:0.003826963 23:0.33160793 24:0.067915471 25:0.65241348 26:0.4586958 27:-1.1450505 28:0.16958846 29:2.9464711 30:-0.013852108 31:1.1348037 32:0.74313475 33:0.65098602 34:0.35319567 35:0.85686856 36:0.15286991 
-32 0:-0.24885499 1:0.27827794 2:-0.063745764 3:-0.17032424 4:0.0013541452 5:-0.89887362 6:-0.80426917 7:-0.46972302 8:-0.78688915 9:-0.86961976 10:1.0739725 11:2.0598556 12:1.4933427 13:-0.34345523 14:-1.0790435 15:-1.554568 16:-0.88969568 17:0.049829117 18:-0.26759996 19:-0.31344803 20:-0.097772847 21:0.029666235 22:-0.36132123 23:-0.43534984 24:-0.17188116 25:1.2417957 26:0.063069689 27:-0.85789171 28:0.26162177 29:2.3281979 30:1.0698921 31:-0.30238394 32:1.9879165 33:0.63706444 34:-0.31450778 35:-0.82242472 36:-0.032704262 
-32 0:-0.77661849 1:-0.44276272 2:-0.15427142 3:1.5519719 4:0.28727888 5:-0.52496186 6:-0.55939822 7:-1.3908449 8:-0.86411889 9:-0.23772832 10:0.5737799 11:4.3077267 12:-0.49964078 13:-0.36525996 14:-1.3880885 15:-1.4918947 16:-1.0303948 17:-0.010361639 18:-0.28509683 19:-0.19399473 20:-0.1774681 21:-0.030661714 22:-0.40645917 23:-0.37846976 24:-0.25850503 25:-0.14686321 26:-0.42325596 27:-1.1494929 28:-0.14013677 29:-0.38140317 30:-0.93648647 31:-1.1194049 32:-0.79818155 33:-0.23714402 34:-1.2252727 35:-1.259892 36:-0.91975008 
-20.87762245755743 0:-0.68627638 1:0.24304196 2:-0.53010647 3:1.0032699 4:-0.17445208 5:-0.35050769 6:-0.31452727 7:-0.56129654 8:-0.47282158 9:-0.075444807 10:0.82387621 11:0.37395236 12:0.28576294 13:-0.45683984 14:0.51316257 15:0.75634467 16:0.029325135 17:-0.14910531 18:-0.2130247 19:-0.15741946 20:-0.18225208 21:-0.17796024 22:-0.16382224 23:-0.079160283 24:-0.17138397 25:-0.24544336 26:0.14807154 27:1.9792293 28:0.26946573 29:-0.46037959 30:-0.14013463 31:0.098788028 32:-0.26543527 33:-0.79623082 34:-0.73153202 35:-0.39862833 36:-0.6834146 
-32 0:1.7026982 1:0.67678688 2:-0.66203981 3:-0.8222786 4:-0.36915253 5:-2.1449421 6:-2.4297955 7:0.16051827 8:-1.4253216 9:-2.5959107 10:2.4911859 11:-1.030967 12:0.84388598 13:0.44115169 14:-0.032487785 15:-0.20109059 16:-0.071082845 17:0.3257918 18:0.030719137 19:0.10405486 20:0.14814879 21:0.2980193 22:0.027131027 23:0.21651589 24:0.18082921 25:0.37628288 26:-0.14502646 27:-1.1020182 28:0.82987095 29:1.8789832 30:2.7764405 31:1.5371363 32:2.1713344 33:2.2025075 34:1.0846289 35:1.9390872 36:1.5759525 
-32 0:0.39598578 1:-0.22408631 2:0.63990428 3:-0.86870308 4:-1.1196104 5:-0.88010121 6:-1.1272904 7:-0.44009629 8:-0.66847023 9:-1.0187177 10:1.3240693 11:-1.5929348 12:0.26268981 13:0.46441007 14:0.71066665 15:1.2150602 16:0.67679672 17:0.30136417 18:0.15479561 19:0.043096065 20:0.30484122 21:0.34784966 22:0.21648483 23:-0.069387934 24:0.41566059 25:1.1765382 26:-0.10999274 27:-0.042435069 28:0.50442673 29:0.24414196 30:0.83941329 31:0.93048601 32:0.62226762 33:0.9521861 34:0.64994567 35:0.66769805 36:0.35803706 
-32 0:-0.14860682 1:-0.50584185 2:1.8016611 3:-0.60723504 4:-1.1492279 5:-0.42716379 6:-0.48124792 7:-0.56129654 8:-0.30291617 9:-0.55215264 10:0.82387621 11:-1.3119509 12:-0.32754983 13:0.019956959 14:0.36551932 15:0.6950048 16:0.20430363 17:-0.10979571 18:0.12119716 19:0.089787907 20:-0.027951643 21:-0.094976091 22:0.15222041 23:0.13232335 24:-0.019018153 25:-0.6374045 26:-0.20893014 27:-0.71271248 28:-0.58487829 29:-0.34234457 30:0.17508766 31:0.34095891 32:-0.13372768 33:1.5925946 34:0.71010273 35:0.87276082 36:1.0449855 
-7.848342277084154 0:-1.0062061 1:0.1644475 2:-0.39850025 3:0.50095005 4:-0.93973208 5:-0.62462096 6:-0.63754852 7:-1.2292446 8:-0.92590267 9:-0.23772832 10:1.1573379 11:0.37395236 12:-0.54791882 13:-0.13921758 14:-0.35179575 15:-0.55446154 16:-0.23032862 17:-0.16461703 18:-0.14852371 19:-0.039911655 20:-0.15391095 21:-0.20493507 22:-0.17833084 23:-0.11436579 24:-0.192571 25:-0.42010173 26:-0.43760967 27:-0.76801452 28:-0.37421084 29:-0.82186186 30:-0.72548123 31:-0.54455482 32:-0.78852922 33:-1.091022 34:-1.3265047 35:-0.84976642 36:-1.1639634 
-32 0:0.52796086 1:-0.59317329 2:3.2362818 3:0.72201188 4:-0.18430798 5:-0.438057 6:-0.78131796 7:0.54186155 8:-0.38456043 9:-0.53883441 10:0.74041076 11:-1.4347329 12:-0.61923903 13:0.034998757 14:1.240512 15:1.3958894 16:0.48577741 17:-0.068064872 18:0.095661278 19:0.12629857 20:-0.017383632 21:0.021942327 22:0.21894188 23:0.18201334 24:0.096638175 25:0.92887336 26:-0.115327 27:-0.19182399 28:0.41857959 29:-0.54140727 30:-0.12301578 31:0.022412076 32:-0.2881297 33:1.1969336 34:1.4863665 35:0.67772708 36:1.566243 
-32 0:-0.75389646 1:-0.083180666 2:-0.62798581 3:1.2608105 4:1.0193225 5:-1.3350686 6:-1.3715457 7:0.025930729 8:-1.5670183 9:-0.87310022 10:1.4740247 11:1.9594299 12:1.7140262 13:-0.069000293 14:-0.6030804 15:-0.57676588 16:-0.40157421 17:-0.028153795 18:-0.28672608 19:-0.21140956 20:-0.15977103 21:-0.025488056 22:-0.34716155 23:-0.22222269 24:-0.20277958 25:0.17740122 26:0.33011927 27:0.78988012 28:0.12792452 29:0.51720149 30:0.32668456 31:0.54689264 32:0.44170464 33:-0.86832555 34:-1.0450432 35:-1.0345648 36:-0.89250273 
-32 0:-0.46192957 1:-0.60088264 2:2.4527985 3:1.916991 4:-0.5382078 5:-0.29015174 6:-0.45400983 7:-1.1779079 8:-0.41107294 9:-0.21501442 10:1.073867 11:-0.0204984 12:0.22691461 13:0.3033834 14:0.03874041 15:-0.26286442 16:0.12505097 17:-0.051608032 18:-0.063633848 19:0.052604503 20:-0.071336609 21:-0.094008251 22:-0.061207655 23:0.036357444 24:-0.079706117 25:-0.13942258 26:-0.40217102 27:-0.32714403 28:0.014541269 29:0.1190218 30:0.13063053 31:0.036070424 32:0.018546757 33:0.049567394 34:-0.43154975 35:-0.42729848 36:-0.19492111 
-32 0:0.052643264 1:-0.56220642 2:1.3587188 3:1.1494598 4:-0.447633 5:-0.37268393 6:-0.60424963 7:0.54186155 8:-0.098225346 9:-0.38214732 10:-0.0098661517 11:-0.58619219 12:-0.61318264 13:-0.23338589 14:-0.0059956068 15:-0.50290671 16:-0.2341995 17:-0.14749828 18:0.018384318 19:0.078803081 20:-0.0552039 21:-0.080555901 22:0.015239823 23:0.059433266 24:0.0082815218 25:-0.30107128 26:-0.48325921 27:-1.0376019 28:-0.25349175 29:0.95657218 30:-0.39275769 31:-0.37914335 32:0.23794908 33:-0.66846177 34:-0.29169024 35:-0.098777368 36:-0.38882127 
-32 0:0.29036701 1:-0.68630981 2:2.6336038 3:0.48885357 4:0.57859876 5:-0.14943641 6:-0.45400983 7:-0.66752468 8:-0.082317841 9:-0.37170151 10:1.1572309 11:1.3937361 12:2.8721644 13:-0.21367639 14:-0.50320825 15:-0.24132216 16:-0.38032028 17:-0.049664311 18:-0.20412579 19:-0.13737745 20:-0.15650608 21:-0.021582535 22:-0.25536311 23:-0.14530328 24:-0.18809284 25:0.0092729906 26:0.26782558 27:0.13746369 28:0.12723385 29:0.87830928 30:1.5249465 31:1.8307773 32:1.0797447 33:0.97116152 34:0.17970264 35:-0.2779707 36:0.40284208 
-22.08013733943384 0:0.16431613 1:-0.52104411 2:-0.4375605 3:0.34761081 4:1.0622976 5:-0.13972258 6:-0.26949651 7:0.82548781 8:-0.056397362 9:-0.11569579 10:-0.99907854 11:-0.0044323066 12:0.73315861 13:-0.34555767 14:0.68832211 15:1.0209712 16:0.25880174 17:-0.19941963 18:-0.21812158 19:-0.26064744 20:-0.23382254 21:-0.19333551 22:-0.13486248 23:-0.11765545 24:-0.17677916 25:-0.084741338 26:0.32900277 27:2.7276489 28:0.71505209 29:-0.48607812 30:-0.51397533 31:-0.19291894 32:-0.47844637 33:-0.5359527 34:-0.10521889 35:-0.033892392 36:-0.27076601 
-32 0:-0.071405804 1:-0.71143072 2:0.78140585 3:0.17888945 4:1.7666136 5:-0.27366031 6:-0.41581376 7:-0.35401149 8:-0.35010333 9:-0.25811893 10:-0.42668682 11:-0.0044323066 12:0.037942065 13:-0.19599378 14:0.1957183 15:0.17511791 16:0.059948371 17:-0.099123438 18:-0.19031517 19:-0.10769438 20:-0.16088133 21:-0.066668346 22:-0.16162715 23:-0.12677433 24:-0.13605497 25:-0.97800733 26:-0.1380069 27:0.92637537 28:-0.2471051 29:-0.58786486 30:-0.35693401 31:-0.094830013 32:-0.42085227 33:-0.3599465 34:-0.0093973335 35:0.088843396 36:0.0040576896 
-0.8421926113661229 0:0.86238361 1:-0.53742202 2:0.51856888 3:-0.69479823 4:1.2221269 5:-0.57418363 6:-0.84562069 7:0.38347104 8:-0.1783983 9:-0.8100086 10:-0.093230586 11:-0.90170985 12:-0.02282214 13:0.18889312 14:0.53828325 15:0.88503046 16:0.32750093 17:-0.0057777277 18:-0.078185368 19:-0.23783609 20:0.0024343898 21:-0.067838301 22:-0.0081114836 23:-0.12221489 24:-0.016601759 25:2.2499226 26:0.22511943 27:3.1467632 28:1.0660568 29:-0.37474888 30:0.21600346 31:-0.51249897 32:-0.51549991 33:0.25281579 34:0.81597474 35:1.1759318 36:0.58502692 
-1.339427311472966 0:0.56219989 1:-0.51395236 2:0.96574407 3:-0.28811321 4:1.814969 5:-0.23325234 6:-0.27864134 7:1.5558792 8:-0.11062 9:-0.29817544 10:-0.17659452 11:0.44420647 12:-0.45262743 13:-0.10508912 14:-0.038364647 15:-0.15844029 16:-0.13190227 17:-0.09908607 18:-0.17033978 19:-0.066458474 20:-0.14084071 21:-0.14774625 22:-0.16740694 23:-0.10603624 24:-0.11855815 25:0.01228054 26:-0.26031205 27:-0.40570268 28:-0.08625967 29:-0.56718942 30:-0.80386846 31:-0.68019939 32:-0.71083654 33:0.36689388 34:0.26614696 35:0.080076554 36:0.38497143 
-32 0:0.34079748 1:0.42522185 2:-0.39499749 3:-0.11927725 4:-0.70840987 5:-1.8554976 6:-1.9887242 7:-0.80784689 8:-1.9044857 9:-1.9226894 10:0.40695402 11:0.44420647 12:2.0068751 13:0.30175211 14:-0.50492442 15:-0.5914366 16:-0.24768878 17:-0.0062261459 18:-0.097816402 19:-0.12114724 20:0.0084414635 21:0.067954511 22:-0.14536225 23:-0.11515512 24:-0.011720162 25:0.15384213 26:-0.24567665 27:-0.5798688 28:-0.11883514 29:2.6836244 30:2.8158169 31:2.4459895 32:3.0380158 33:-0.40231836 34:-1.0496802 35:-1.2700171 36:-0.93357612 
-32 0:0.038697953 1:-0.30695362 2:0.21908645 3:-0.77183861 4:-0.29516927 5:-1.0094668 6:-0.84562069 7:-0.36346639 8:-1.041442 9:-1.0948549 10:-0.42668682 11:0.89284524 12:1.2631965 13:-0.14385224 14:-0.8054794 15:-1.0030348 16:-0.39064105 17:0.12859824 18:-0.039397864 19:0.027126572 20:0.023586958 21:0.16116095 22:-0.11915599 23:-0.16119073 24:-0.0078865169 25:0.27757914 26:-0.44275226 27:-0.52781335 28:-0.17794366 29:1.1520521 30:1.809084 31:0.56964333 32:1.4447133 33:-0.053565355 34:-0.74330337 35:-0.72647291 36:-0.51628866 
-32 0:-0.78968527 1:-0.64938912 2:0.020452856 3:1.1076875 4:1.6949028 5:-0.59667057 6:-0.52209029 7:-0.73474577 8:-0.74102026 9:-0.4635436 10:-0.41018736 11:0.068842281 12:-0.33715182 13:0.20740813 14:0.14943728 15:0.072680145 16:0.27003394 17:-0.084901933 18:-0.10439971 19:-0.037840625 20:-0.11334918 21:-0.017262057 22:-0.081635908 23:0.02299116 24:-0.037388885 25:-0.23853334 26:-0.24573186 27:0.92829728 28:-0.11115398 29:-0.64613403 30:-0.58638228 31:-0.34464115 32:-0.6312498 33:-0.66584921 34:-0.14997075 35:0.086751292 36:-0.19354674 
-32 0:-0.81688171 1:-0.48065128 2:0.066477815 3:-0.75236848 4:2.4362886 5:-1.3937325 6:-1.473589 7:-0.7437711 8:-1.4138887 9:-1.1263113 10:0.3236831 11:0.51182045 12:0.84872812 13:-0.13550092 14:0.48292551 15:0.81553281 16:0.18538392 17:-0.13569763 18:-0.28705296 19:-0.29566468 20:-0.21756202 21:-0.13167102 22:-0.23229063 23:-0.19723354 24:-0.18628157 25:0.2106713 26:0.53512313 27:3.3051241 28:0.80277157 29:-0.36173103 30:-0.19889901 31:-0.13850459 32:-0.29791398 33:-0.12493485 34:-0.39211556 35:0.10009913 36:-0.39968467 
-32 0:-0.84316857 1:-0.48834901 2:0.92467612 3:-0.41924737 4:-0.91947041 5:-1.296101 6:-1.2029793 7:-0.87915111 8:-1.4138887 9:-0.99035896 10:0.3236831 11:0.51182045 12:0.80621124 13:-0.018974616 14:-0.49117165 15:-0.53484665 16:-0.16384919 17:0.05787403 18:-0.043488433 19:-0.053511312 20:-0.012149691 21:-0.0071334736 22:-0.090068467 23:-0.16102767 24:0.021539063 25:0.23075792 26:-0.26283891 27:-0.30808349 28:0.11744917 29:0.8706326 30:0.75721153 31:0.67342106 32:0.82284407 33:0.30680414 34:-1.1608982 35:-1.1679457 36:-0.4366049 
-32 0:-0.37934359 1:0.7862399 2:-1.1699631 3:-0.77615469 4:-0.87447186 5:-1.8702477 6:-1.6132586 7:-0.52265041 8:-1.8193351 9:-1.8358127 10:-0.59333718 11:-0.81711406 12:0.1624922 13:0.03634595 14:-1.1128273 15:-1.6592031 16:-0.26935101 17:0.11263222 18:-0.021315055 19:0.065256006 20:0.057142906 21:0.13123179 22:-0.13619067 23:-0.080643991 24:-0.037493739 25:-0.77072136 26:-0.57138609 27:-2.2464004 28:-0.8745709 29:1.7432741 30:1.0814684 31:0.87535075 32:1.2868368 33:-0.50704866 34:-1.1983064 35:-1.1545979 36:-0.93964298 
-32 0:-0.88112018 1:-0.30946594 2:0.84259238 3:-0.21464613 4:-0.85549989 5:-2.0745253 6:-2.0235378 7:-1.1589365 8:-2.2247815 9:-1.6556758 10:-0.17650951 11:-0.37413589 12:-0.16433763 13:0.017513417 14:-0.86280222 15:-1.0732709 16:-0.51777742 17:0.22594246 18:0.029458588 19:0.18402332 20:0.12422956 21:0.1829316 22:-0.056327519 23:-0.026169104 24:0.024175392 25:0.8038687 26:0.34653927 27:-1.566795 28:-0.014046303 29:1.3668894 30:0.8048047 31:1.0520392 32:0.96180093 33:-0.50208615 34:-1.6949508 35:-1.5550331 36:-1.2457732 
-10.79864840647872 0:1.4390468 1:1.9275893 2:-1.3993797 3:-0.55509196 4:-0.44902711 5:-0.21192592 6:0.019129179 7:0.25804101 8:0.19927031 9:-0.84166108 10:-0.84343349 11:0.95479863 12:2.1788619 13:0.3431593 14:0.58846054 15:1.1077791 16:0.53309803 17:-0.06003101 18:-0.25823319 19:-0.30077827 20:-0.19308036 21:-0.12330393 22:-0.19099153 23:-0.17929668 24:-0.1720364 25:1.8335288 26:0.88316077 27:3.2314519 28:2.5527247 29:0.081261 30:0.76514647 31:0.32425096 32:0.3101227 33:-0.030647024 34:-0.2794682 35:-0.95438027 36:-0.021252351 
-22.09118423453279 0:0.044450584 1:-0.36063515 2:0.60678605 3:-0.046241659 4:-0.177083 5:-0.17054372 6:-0.10125002 7:1.9265055 8:-0.098882439 9:-0.28557493 10:0.65704633 11:0.84799523 12:1.3518249 13:0.17868031 14:-0.33748557 15:-0.60809411 16:0.083005075 17:-0.13080004 18:-0.19204323 19:-0.12169096 20:-0.1668691 21:-0.12331583 22:-0.21381057 23:-0.14739028 24:-0.15715254 25:1.3236576 26:0.6520129 27:-0.17375978 28:0.97060281 29:1.0137537 30:0.83984281 31:0.68301151 32:1.1423597 33:-0.46099268 34:-0.2115899 35:-0.74092808 36:-0.52276486 
-32 0:-0.45561788 1:-0.28025873 2:1.3581109 3:-0.67295271 4:-0.68560029 5:-0.34408807 6:-0.10125002 7:0.0057485459 8:-0.41473305 9:-0.28557493 10:1.2405954 11:-0.0076901883 12:-0.10727143 13:-0.20043281 14:0.60368784 15:0.40395012 16:0.22425651 17:-0.17038846 18:-0.16527839 19:-0.093885753 20:-0.16301144 21:-0.14945209 22:-0.13246701 23:-0.080479396 24:-0.13275017 25:-0.40574654 26:0.045558907 27:0.48135393 28:-0.015266836 29:-0.34903216 30:-0.33367473 31:-0.1436843 32:-0.32101653 33:0.48566673 34:-0.62887195 35:-0.78942827 36:-0.089566058 
-32 0:0.35840361 1:-0.047718898 2:0.41164736 3:-0.96181647 4:-0.79954708 5:-0.92026153 6:-0.72050509 7:0.35685465 8:-0.710843 9:-1.1994583 10:1.8241439 11:-1.719061 12:-0.57792608 13:-0.15033203 14:0.08776753 15:0.10450632 16:0.09354894 17:-0.10313891 18:0.1094279 19:0.10604691 20:-0.010865255 21:-0.085689137 22:0.12332433 23:0.10184155 24:-0.0078221741 25:-1.1773291 26:-0.68385149 27:-0.88706468 28:-1.0212599 29:-0.26715936 30:0.29669882 31:0.30469309 32:-0.03855192 33:0.39550869 34:0.48654318 35:0.76257782 36:0.37158106 
-0.6503914764401492 0:6.5569285 1:-0.36727146 2:-0.17478706 3:0.30304704 4:1.2512716 5:0.34863327 6:0.83762058 7:4.2190218 8:1.4093042 9:-0.56557323 10:0.82387621 11:-1.2912183 12:-0.66153628 13:-0.20094931 14:0.25711756 15:0.31487507 16:0.17553658 17:0.0036708599 18:0.12886398 19:0.1836146 20:0.13067236 21:0.11247611 22:0.15313695 23:0.20714761 24:0.14073866 25:-0.290664 26:-0.21232949 27:-1.0840089 28:-0.74100531 29:-0.16855986 30:-0.36219415 31:-0.33109203 32:-0.17811217 33:7.4368515 34:7.484174 35:7.5526045 36:7.0428427 
-32 0:0.061756005 1:-0.0074960472 2:-0.25541412 3:-1.1454114 4:-0.84410839 5:-2.0021235 6:-1.9789912 7:0.0057485459 8:-1.6583948 9:-2.1133416 10:2.6579173 11:-0.0076901883 12:0.92186742 13:0.83308947 14:0.012417084 15:-0.25179389 16:0.63601261 17:-0.13517056 18:-0.098492782 19:-0.049309156 20:-0.11778036 21:-0.079646243 22:-0.096790433 23:-0.042084222 24:-0.082122841 25:-0.10442643 26:0.066070887 27:0.24371856 28:-0.15292262 29:0.45913157 30:1.0704042 31:1.5937781 32:0.84096495 33:0.35042967 34:-0.38470147 35:-0.061925414 36:-0.089566058 
-32 0:-0.31318463 1:0.057857773 2:0.17507534 3:-0.72243214 4:-0.029105664 5:-0.36847829 6:-0.40088957 7:0.64600085 8:-0.41473305 9:-0.28557493 10:1.2249265 11:-0.4355329 12:0.40573213 13:0.07279722 14:-0.036780767 15:-0.51522862 16:0.3386029 17:-0.039639542 18:-0.14955494 19:-0.050964227 20:-0.082521325 21:-0.022372708 22:-0.15259397 23:-0.078907664 24:-0.091752159 25:-0.75877662 26:-0.21982041 27:-0.15242067 28:0.33927481 29:0.023357012 30:0.75357643 31:1.0525726 32:0.6409683 33:0.088971357 34:-0.77418798 35:-0.061925414 36:-0.52276486 
-11.7815468385218 0:-0.50645897 1:-0.55131455 2:0.58448245 3:-0.33277031 4:-0.78422084 5:-0.59845553 6:-0.48440993 7:-0.12923942 8:-0.75265766 9:-0.5395187 10:-1.427056 11:-2.9854451 12:0.2782237 13:0.49914178 14:1.6580723 15:0.26906335 16:0.16301824 17:-0.020293293 18:0.15912829 19:0.12226385 20:0.077014156 21:-0.044963245 22:0.32289785 23:0.13080822 24:0.078092019 25:-0.25362301 26:-0.48235291 27:-1.0721277 28:-0.58289331 29:0.17946443 30:0.27017307 31:-0.14632198 32:0.52400051 33:-0.41714059 34:0.27214897 35:-0.43859201 36:-0.48992248 
-1.234215632732242 0:2.477127 1:-0.16130509 2:-0.099214438 3:-0.82791254 4:-0.29639307 5:-0.51710692 6:-0.49026745 7:1.2636694 8:0.16540074 9:-0.8952998 10:-0.42949216 11:1.4421723 12:2.0746137 13:-0.16966957 14:-0.35668881 15:-0.048779611 16:-0.25771351 17:0.045797663 18:-0.20563363 19:-0.11542591 20:-0.091372706 21:0.11412131 22:-0.23840165 23:-0.1931389 24:-0.086367686 25:-0.085825002 26:0.33765172 27:0.78664651 28:0.73762631 29:1.3870383 30:1.6387735 31:1.012072 32:1.8348448 33:2.8059501 34:3.6745853 35:3.5432146 36:3.5792239 
-32 0:-0.36231682 1:-0.63681405 2:0.32357337 3:0.52345107 4:0.62275676 5:-0.79710723 6:-0.86514828 7:-1.2556787 8:-1.0872338 9:-0.50530898 10:-0.51005076 11:1.884934 12:1.7250382 13:0.17134672 14:-0.24900775 15:-0.22944824 16:-0.062270615 17:-0.054762401 18:-0.29296424 19:-0.21013043 20:-0.17319054 21:-0.099201646 22:-0.31620338 23:-0.27111999 24:-0.17722715 25:0.67590991 26:0.50056612 27:1.0606711 28:0.60706612 29:0.43048531 30:0.63303173 31:0.59835985 32:0.64773501 33:0.21061254 34:0.78351111 35:-0.3881894 36:0.3523705 
-32 0:-1.0549819 1:-0.3803879 2:0.20135422 3:0.50314773 4:-0.70897489 5:-0.38601183 6:-0.31454206 7:-1.2435664 8:-0.75613076 9:0.055730447 10:-0.17659452 11:-0.32887469 12:-0.89794685 13:-0.38987126 14:-0.44259924 15:-0.41346259 16:-0.37565319 17:-0.11593536 18:0.00025690603 19:0.011522028 20:-0.070523544 21:-0.14059994 22:-0.038869853 23:-0.026155848 24:-0.10883782 25:-0.97738727 26:-0.6241527 27:-0.61000851 28:-0.84411485 29:-0.77263254 30:-0.70846794 31:-0.48320185 32:-0.7575382 33:-0.061101498 34:-0.20049858 35:-0.43859201 36:-0.13557854 
-32 0:0.78196186 1:-0.66421352 2:0.87782308 3:0.37221676 4:-0.70271516 5:-0.26740193 6:0.060338776 7:0.6459446 8:-0.034881865 9:-0.53153643 10:-1.427056 11:-0.77163643 12:0.59115715 13:0.18593565 14:0.065556593 15:-0.15082393 16:0.24116331 17:0.059904545 18:0.02819303 19:0.050855632 20:0.0054807257 21:0.1886825 22:0.038051401 23:0.132979 24:0.061826773 25:1.1577341 26:-0.047733538 27:0.017072654 28:0.21466708 29:1.0157056 30:0.94503122 31:0.73429383 32:0.86439383 33:6.0290408 34:5.2302531 35:3.8708316 36:5.74595 
-29.03558151714496 0:2.433087 1:0.96940984 2:-1.3757617 3:-1.2418685 4:-0.84938533 5:-0.93108501 6:-0.66599284 7:1.9207589 8:-0.38566584 9:-1.9079076 10:-0.67677913 11:0.11388704 12:0.94278983 13:-7.3233035e-05 14:-0.046882025 15:-0.1759168 16:-0.02006907 17:0.012881606 18:-0.13107911 19:-0.078286888 20:-0.071290817 21:-0.082553778 22:-0.13345725 23:-0.08860751 24:-0.1007805 25:1.2556038 26:0.072356418 27:-0.35836412 28:0.40973447 29:1.695987 30:1.4308776 31:0.55403355 32:2.005238 33:2.4873888 34:2.4914014 35:1.0986878 36:3.3091093 
-32 0:0.16742627 1:-0.44134209 2:0.60928865 3:-0.78176705 4:-0.42194559 5:-0.2405217 6:-0.21496434 7:0.4521486 8:-0.044143488 9:-0.30575227 10:-0.42668682 11:0.55664878 12:0.26879127 13:0.36419416 14:-0.12842996 15:-0.3063997 16:0.2034547 17:-0.10980944 18:-0.19719115 19:-0.09415538 20:-0.1498625 21:-0.10951801 22:-0.20799299 23:-0.16708954 24:-0.12828081 25:-0.16691222 26:-0.048829006 27:0.50748217 28:0.17873423 29:0.23739232 30:-0.11870734 31:0.11963582 32:-0.055653885 33:1.9064829 34:1.1298008 35:0.36784983 36:1.5228673 
-32 0:-0.61373747 1:-0.46360307 2:0.46731672 3:-0.12959763 4:1.5642334 5:-0.50352937 6:-0.52346913 7:1.187513 8:-0.72703326 9:-0.21659724 10:1.1573379 11:-0.10812764 12:-0.089824966 13:-0.50683685 14:0.27534679 15:0.49224014 16:-0.035036864 17:-0.16336798 18:-0.12727205 19:-0.041786173 20:-0.11759181 21:-0.15873626 22:-0.10502962 23:-0.024531751 24:-0.11857131 25:-0.89369056 26:-0.20023922 27:-0.046993813 28:-0.52803251 29:-0.5458118 30:-0.30865176 31:-0.13370727 32:-0.42053138 33:-1.2515593 34:-0.89987538 35:-0.67070845 36:-1.3048923 
-32 0:-0.33192656 1:-0.37491304 2:1.2722159 3:1.0660176 4:0.79209341 5:-0.99446596 6:-0.94928097 7:0.53423888 8:-1.1478292 9:-0.430522 10:0.99060708 11:-0.41837055 12:-0.26167812 13:-0.075917479 14:-0.25789387 15:0.18769841 16:-0.25786555 17:-0.15002089 18:-0.077745646 19:0.053311654 20:-0.095355384 21:-0.18784412 22:-0.093998669 23:0.050564308 24:-0.13187544 25:-0.68968766 26:-0.52931859 27:-0.62859221 28:-0.71135922 29:0.24755743 30:0.20793965 31:0.18667642 32:0.28648295 33:-0.92928182 34:-0.27279533 35:-0.67070845 36:-0.56750864 
-21.0313677857405 0:-0.65609158 1:-0.082702903 2:0.34741976 3:-0.11078376 4:0.62364621 5:-0.36887097 6:-0.52346913 7:-0.78651096 8:-0.50984823 9:-0.21659724 10:0.5737799 11:0.20211526 12:0.65385848 13:0.34935811 14:-0.12858232 15:0.33875111 16:-0.10082215 17:-0.059102821 18:-0.08499217 19:-0.087088681 20:-0.076628682 21:-0.09164351 22:-0.091871818 23:-0.041733558 24:-0.10512539 25:0.29811888 26:-0.032644922 27:0.56088301 28:0.39899729 29:0.17401665 30:0.27160421 31:0.13012414 32:-0.17557585 33:0.24217134 34:-0.43867988 35:-1.0559707 36:-0.20278125 
-32 0:-0.44743442 1:0.32905718 2:-0.20427291 3:-0.25077397 4:-0.20260518 5:-0.7649542 6:-0.72950712 7:-0.13323684 8:-0.86956093 9:-0.49068834 10:1.0739725 11:2.0635727 12:0.82847277 13:0.21523528 14:-0.9931857 15:-1.2594839 16:-0.37927037 17:0.053414569 18:-0.25550305 19:-0.43228631 20:-0.10379017 21:0.028956693 22:-0.32680981 23:-0.38576969 24:-0.16118621 25:4.7315685 26:0.9453629 27:0.17826241 28:3.3090293 29:-0.053571709 30:-0.33917071 31:-1.3296316 32:-0.74063364 33:-0.63769741 34:-0.68138694 35:-0.67070845 36:-1.0559262 
-32 0:-0.238867 1:-0.24962577 2:1.4469803 3:-0.044559991 4:-0.31365645 5:-0.51264522 6:-0.52346913 7:0.29281149 8:-0.50984823 9:-0.430522 10:0.5737799 11:0.20211526 12:-0.36315932 13:0.44961824 14:-0.21743688 15:-0.53589273 16:0.029930492 17:0.060518664 18:-0.12398102 19:-0.075295053 20:-0.050367121 21:0.055440674 22:-0.13765382 23:-0.067998682 24:-0.048747599 25:2.5939384 26:0.71961308 27:-1.3214853 28:1.8687095 29:0.31614441 30:-0.21421555 31:0.066502821 32:-0.087626367 33:0.49794714 34:0.028895808 35:0.20989101 36:0.20951928 
-0.9200031624099234 0:0.14715718 1:-0.405948 2:-0.13895762 3:-0.49905041 4:0.67039642 5:0.79133369 6:0.71180769 7:0.96911751 8:0.62561145 9:0.74343111 10:-0.25995846 11:-4.2605737 12:-1.8917935 13:0.38785481 14:-0.74784505 15:-1.0187843 16:-0.10516967 17:3.3923709 18:4.5778752 19:0.0220338 20:5.9745872 21:3.6269487 22:4.5348155 23:-0.042549181 24:6.091083 25:-0.18616613 26:-0.88364883 27:-1.7233584 28:-0.84058046 29:0.37830757 30:-0.44332654 31:-0.12421457 32:-0.036829015 33:9.1171756 34:7.7221938 35:9.1493756 36:8.0947579 
-32 0:-0.17735124 1:-0.52927639 2:1.6769663 3:-0.1631699 4:-0.49412928 5:-0.25930337 6:-0.24873462 7:1.9370871 8:-0.31160062 9:-0.090948248 10:0.24022615 11:0.35250915 12:0.45711492 13:0.70471542 14:-0.26702461 15:-0.32862551 16:0.21380938 17:-0.11806485 18:-0.14484126 19:-0.067164082 20:-0.083273607 21:0.023049642 22:-0.16533329 23:-0.082935583 24:-0.065352538 25:-0.031692757 26:-0.33944949 27:0.1234652 28:-0.34505078 29:0.69044425 30:0.78304672 31:0.52985683 32:0.56325976 33:0.92420021 34:0.56682359 35:1.3234164 36:0.7904414 
-32 0:-0.4311898 1:-0.30514003 2:0.40854183 3:-0.92304001 4:-0.59574853 5:-0.091628654 6:-0.054194408 7:-0.023994144 8:-0.12055355 9:0.11616719 10:-0.0098661517 11:2.4816243 12:0.46056065 13:-0.069415603 14:-1.0789929 15:-1.1041932 16:-0.55298243 17:0.10487949 18:-0.2414999 19:-0.32709356 20:-0.10442504 21:0.080475157 22:-0.35374639 23:-0.4222779 24:-0.15994146 25:1.7849539 26:0.099820562 27:0.74225391 28:1.1213259 29:-0.21456741 30:-0.42990663 31:-0.11686545 32:-0.315592 33:0.028237853 34:-0.3015501 35:-0.96226053 36:0.32944769 
-32 0:-0.39916122 1:2.3354011 2:-1.351225 3:-1.2416373 4:-1.0343919 5:-1.0663561 6:-1.0147367 7:-0.42626722 8:-1.0649749 9:-1.0140914 10:-0.17659452 11:1.4170667 12:0.68138822 13:-0.099449785 14:-0.44468101 15:-0.37132994 16:-0.2867261 17:-0.079435054 18:-0.20767619 19:-0.13581547 20:-0.18411348 21:-0.10814163 22:-0.24852087 23:-0.25880147 24:-0.20302745 25:0.47719261 26:0.013524062 27:-0.14276848 28:0.31666652 29:-0.42512114 30:-0.20165091 31:-0.058072515 32:-0.30576981 33:-0.46130859 34:-0.38577363 35:-0.21693109 36:-0.55817996 
-32 0:-0.55664047 1:0.41684261 2:-0.63805455 3:-0.94599764 4:-0.73291614 5:-1.5812996 6:-1.5740398 7:-0.41369619 8:-1.6333099 9:-1.2212068 10:1.1572309 11:0.70736167 12:2.4576901 13:0.11304205 14:0.25046344 15:0.53235101 16:0.225966 17:-0.067808611 18:-0.18064589 19:-0.25811604 20:-0.17345224 21:-0.061552733 22:-0.1433078 23:-0.19830232 24:-0.15187281 25:0.77459979 26:0.349657 27:2.0127496 28:0.66758956 29:2.2751381 30:1.2752912 31:0.58864977 32:1.7798076 33:0.15755201 34:-0.079297794 35:-0.96226053 36:-0.15158923 
-0.8478873769625681 0:0.9040868 1:-0.63986439 2:1.2089539 3:-0.60232489 4:-0.51246126 5:0.53606732 6:0.69964893 7:2.3393602 8:0.81665852 9:0.27594196 10:0.049636939 11:-2.486311 12:-0.55396016 13:-0.046139113 14:1.3261615 15:1.3712865 16:1.0107285 17:0.3689956 18:0.35463282 19:0.32028412 20:0.29997491 21:0.49781274 22:0.5162338 23:0.52302135 24:0.42460008 25:2.0601459 26:17.670776 27:0.18719101 28:25.202554 29:1.5104956 30:1.0149703 31:0.68051373 32:0.59927444 33:2.4482599 34:5.1733427 35:5.9941476 36:3.4075113 
-32 0:-0.1421834 1:-0.40581188 2:0.10793398 3:-0.98485111 4:-0.29687138 5:-0.67480505 6:-0.62565629 7:-0.023994144 8:-0.85830766 9:-0.45783846 10:0.32359009 11:0.35250915 12:0.72079294 13:0.16410016 14:-0.67445124 15:-0.95266129 16:-0.36904753 17:0.043455199 18:-0.051663367 19:-0.072056105 20:0.00041992222 21:0.11093713 22:-0.11725407 23:-0.12814905 24:-0.05252397 25:1.3440919 26:-0.20361501 27:-0.58518117 28:0.35712053 29:0.21023398 30:1.617681 31:1.044295 32:1.7667114 33:0.15755201 34:0.84091311 35:0.57808698 36:0.5613762 
